<?xml version="1.0"?>
<MethodSetup Method="BDT::BDTG">
  <GeneralInfo>
    <Info name="TMVA Release" value="4.2.1 [262657]"/>
    <Info name="ROOT Release" value="6.04/16 [394256]"/>
    <Info name="Creator" value="lxadmin"/>
    <Info name="Date" value="Tue Jan 17 16:43:14 2017"/>
    <Info name="Host" value="Linux lxadmin-ThinkPad-L540 3.13.0-76-generic #120-Ubuntu SMP Mon Jan 18 15:59:10 UTC 2016 x86_64 x86_64 x86_64 GNU/Linux"/>
    <Info name="Dir" value="/home/lxadmin/MyRoot/root/tutorials/tmva/DiffractiveANAwithTMVA"/>
    <Info name="Training events" value="10000"/>
    <Info name="TrainingTime" value="1.41842000e+01"/>
    <Info name="AnalysisType" value="Classification"/>
  </GeneralInfo>
  <Options>
    <Option name="V" modified="Yes">False</Option>
    <Option name="VerbosityLevel" modified="No">Default</Option>
    <Option name="VarTransform" modified="No">None</Option>
    <Option name="H" modified="Yes">False</Option>
    <Option name="CreateMVAPdfs" modified="No">False</Option>
    <Option name="IgnoreNegWeightsInTraining" modified="No">False</Option>
    <Option name="NTrees" modified="Yes">1000</Option>
    <Option name="MaxDepth" modified="Yes">2</Option>
    <Option name="MinNodeSize" modified="Yes">2.5%</Option>
    <Option name="nCuts" modified="Yes">20</Option>
    <Option name="BoostType" modified="Yes">Grad</Option>
    <Option name="AdaBoostR2Loss" modified="No">quadratic</Option>
    <Option name="UseBaggedBoost" modified="Yes">True</Option>
    <Option name="Shrinkage" modified="Yes">1.000000e-01</Option>
    <Option name="AdaBoostBeta" modified="No">5.000000e-01</Option>
    <Option name="UseRandomisedTrees" modified="No">False</Option>
    <Option name="UseNvars" modified="No">3</Option>
    <Option name="UsePoissonNvars" modified="No">True</Option>
    <Option name="BaggedSampleFraction" modified="Yes">9.000000e-01</Option>
    <Option name="UseYesNoLeaf" modified="No">True</Option>
    <Option name="NegWeightTreatment" modified="No">ignorenegweightsintraining</Option>
    <Option name="Css" modified="No">1.000000e+00</Option>
    <Option name="Cts_sb" modified="No">1.000000e+00</Option>
    <Option name="Ctb_ss" modified="No">1.000000e+00</Option>
    <Option name="Cbb" modified="No">1.000000e+00</Option>
    <Option name="NodePurityLimit" modified="No">5.000000e-01</Option>
    <Option name="SeparationType" modified="No">giniindex</Option>
    <Option name="DoBoostMonitor" modified="No">False</Option>
    <Option name="UseFisherCuts" modified="No">False</Option>
    <Option name="MinLinCorrForFisher" modified="No">8.000000e-01</Option>
    <Option name="UseExclusiveVars" modified="No">False</Option>
    <Option name="DoPreselection" modified="No">False</Option>
    <Option name="SigToBkgFraction" modified="No">1.000000e+00</Option>
    <Option name="PruneMethod" modified="No">nopruning</Option>
    <Option name="PruneStrength" modified="No">0.000000e+00</Option>
    <Option name="PruningValFraction" modified="No">5.000000e-01</Option>
    <Option name="nEventsMin" modified="No">0</Option>
    <Option name="UseBaggedGrad" modified="No">False</Option>
    <Option name="GradBaggingFraction" modified="No">9.000000e-01</Option>
    <Option name="UseNTrainEvents" modified="No">0</Option>
    <Option name="NNodesMax" modified="No">0</Option>
  </Options>
  <Variables NVar="7">
    <Variable VarIndex="0" Expression="deltazero" Label="deltazero" Title="deltazero" Unit="units" Internal="deltazero" Type="F" Min="2.17661945e-04" Max="4.86484671e+00"/>
    <Variable VarIndex="1" Expression="etamax" Label="etamax" Title="etamax" Unit="units" Internal="etamax" Type="F" Min="-2.39216495e+00" Max="2.95826983e+00"/>
    <Variable VarIndex="2" Expression="etamin" Label="etamin" Title="etamin" Unit="units" Internal="etamin" Type="F" Min="-2.91287637e+00" Max="2.58874249e+00"/>
    <Variable VarIndex="3" Expression="HFminusNtowers" Label="HFminusNtowers" Title="HFminusNtowers" Unit="units" Internal="HFminusNtowers" Type="I" Min="0.00000000e+00" Max="1.17000000e+02"/>
    <Variable VarIndex="4" Expression="HFplusNtowers" Label="HFplusNtowers" Title="HFplusNtowers" Unit="units" Internal="HFplusNtowers" Type="I" Min="0.00000000e+00" Max="1.03000000e+02"/>
    <Variable VarIndex="5" Expression="CastorNtowers" Label="CastorNtowers" Title="CastorNtowers" Unit="units" Internal="CastorNtowers" Type="I" Min="0.00000000e+00" Max="1.60000000e+01"/>
    <Variable VarIndex="6" Expression="Ntracks" Label="Ntracks" Title="Ntracks" Unit="units" Internal="Ntracks" Type="I" Min="2.00000000e+00" Max="1.69000000e+02"/>
  </Variables>
  <Spectators NSpec="0"/>
  <Classes NClass="2">
    <Class Name="Signal" Index="0"/>
    <Class Name="Background" Index="1"/>
  </Classes>
  <Transformations NTransformations="0"/>
  <MVAPdfs/>
  <Weights NTrees="1000" AnalysisType="1">
    <BinaryTree type="DecisionTree" boostWeight="1.0000000000000000e+00" itree="0">
      <Node pos="s" depth="0" NCoef="0" IVar="6" Cut="9.0000000000000000e+00" cType="1" res="0.0000000000000000e+00" rms="0.0000000000000000e+00" purity="4.9123197793960571e-01" nType="0">
        <Node pos="l" depth="1" NCoef="0" IVar="5" Cut="8.0000000000000000e+00" cType="1" res="2.9944702982902527e-01" rms="3.9788320660591125e-01" purity="8.0306249856948853e-01" nType="0">
          <Node pos="l" depth="2" NCoef="0" IVar="-1" Cut="0.0000000000000000e+00" cType="1" res="7.8616350889205933e-02" rms="3.0900928378105164e-01" purity="8.9308178424835205e-01" nType="-99"/>
          <Node pos="r" depth="2" NCoef="0" IVar="-1" Cut="0.0000000000000000e+00" cType="1" res="8.3056474104523659e-03" rms="4.9827241897583008e-01" purity="5.4152822494506836e-01" nType="-99"/>
        </Node>
        <Node pos="r" depth="1" NCoef="0" IVar="6" Cut="1.7000000000000000e+01" cType="1" res="0.0000000000000000e+00" rms="0.0000000000000000e+00" purity="1.4631851017475128e-01" nType="0">
          <Node pos="l" depth="2" NCoef="0" IVar="-1" Cut="0.0000000000000000e+00" cType="1" res="-3.6433119326829910e-02" rms="4.6563473343849182e-01" purity="3.1783440709114075e-01" nType="-99"/>
          <Node pos="r" depth="2" NCoef="0" IVar="-1" Cut="0.0000000000000000e+00" cType="1" res="-9.0824320912361145e-02" rms="2.0922136306762695e-01" purity="4.5878402888774872e-02" nType="-99"/>
        </Node>
      </Node>
    </BinaryTree>
    <BinaryTree type="DecisionTree" boostWeight="1.0000000000000000e+00" itree="1">
      <Node pos="s" depth="0" NCoef="0" IVar="6" Cut="1.0000000000000000e+01" cType="1" res="1.5371522866189480e-02" rms="0.0000000000000000e+00" purity="4.9851500988006592e-01" nType="0">
        <Node pos="l" depth="1" NCoef="0" IVar="5" Cut="5.0000000000000000e+00" cType="1" res="2.5363853573799133e-01" rms="4.0353721380233765e-01" purity="7.8620690107345581e-01" nType="0">
          <Node pos="l" depth="2" NCoef="0" IVar="-1" Cut="0.0000000000000000e+00" cType="1" res="7.4030108749866486e-02" rms="2.9125854372978210e-01" purity="9.0573644638061523e-01" nType="-99"/>
          <Node pos="r" depth="2" NCoef="0" IVar="-1" Cut="0.0000000000000000e+00" cType="1" res="1.3763528317213058e-02" rms="4.9145254492759705e-01" purity="5.7783782482147217e-01" nType="-99"/>
        </Node>
        <Node pos="r" depth="1" NCoef="0" IVar="6" Cut="2.4000000000000000e+01" cType="1" res="0.0000000000000000e+00" rms="0.0000000000000000e+00" purity="1.3496015965938568e-01" nType="0">
          <Node pos="l" depth="2" NCoef="0" IVar="-1" Cut="0.0000000000000000e+00" cType="1" res="-4.5583415776491165e-02" rms="4.2853575944900513e-01" purity="2.4565637111663818e-01" nType="-99"/>
          <Node pos="r" depth="2" NCoef="0" IVar="-1" Cut="0.0000000000000000e+00" cType="1" res="-8.8271573185920715e-02" rms="1.2917874753475189e-01" purity="1.6975307837128639e-02" nType="-99"/>
        </Node>
      </Node>
    </BinaryTree>
    <BinaryTree type="DecisionTree" boostWeight="1.0000000000000000e+00" itree="2">
      <Node pos="s" depth="0" NCoef="0" IVar="6" Cut="1.0000000000000000e+01" cType="1" res="0.0000000000000000e+00" rms="0.0000000000000000e+00" purity="5.0109481811523438e-01" nType="0">
        <Node pos="l" depth="1" NCoef="0" IVar="5" Cut="5.0000000000000000e+00" cType="1" res="2.3170565068721771e-01" rms="3.9654812216758728e-01" purity="7.8768330812454224e-01" nType="0">
          <Node pos="l" depth="2" NCoef="0" IVar="-1" Cut="0.0000000000000000e+00" cType="1" res="6.7773267626762390e-02" rms="2.9151955246925354e-01" purity="9.0539723634719849e-01" nType="-99"/>
          <Node pos="r" depth="2" NCoef="0" IVar="-1" Cut="0.0000000000000000e+00" cType="1" res="1.1646095663309097e-02" rms="4.9131900072097778e-01" purity="5.7402312755584717e-01" nType="-99"/>
        </Node>
        <Node pos="r" depth="1" NCoef="0" IVar="6" Cut="2.2000000000000000e+01" cType="1" res="-1.3096545590087771e-03" rms="6.3082285225391388e-02" purity="1.3635233044624329e-01" nType="0">
          <Node pos="l" depth="2" NCoef="0" IVar="-1" Cut="0.0000000000000000e+00" cType="1" res="-3.8175519555807114e-02" rms="4.3831032514572144e-01" purity="2.6240760087966919e-01" nType="-99"/>
          <Node pos="r" depth="2" NCoef="0" IVar="-1" Cut="0.0000000000000000e+00" cType="1" res="-8.0215618014335632e-02" rms="1.5214926004409790e-01" purity="2.4000000208616257e-02" nType="-99"/>
        </Node>
      </Node>
    </BinaryTree>
    <BinaryTree type="DecisionTree" boostWeight="1.0000000000000000e+00" itree="3">
      <Node pos="s" depth="0" NCoef="0" IVar="6" Cut="9.0000000000000000e+00" cType="1" res="0.0000000000000000e+00" rms="4.3308170318603516e+01" purity="5.0095027685165405e-01" nType="0">
        <Node pos="l" depth="1" NCoef="0" IVar="3" Cut="2.0000000000000000e+00" cType="1" res="1.8479776382446289e-01" rms="0.0000000000000000e+00" purity="8.1478315591812134e-01" nType="0">
          <Node pos="l" depth="2" NCoef="0" IVar="-1" Cut="0.0000000000000000e+00" cType="1" res="6.5718404948711395e-02" rms="2.7828413248062134e-01" purity="9.1220486164093018e-01" nType="-99"/>
          <Node pos="r" depth="2" NCoef="0" IVar="-1" Cut="0.0000000000000000e+00" cType="1" res="1.7822811380028725e-02" rms="4.7267898917198181e-01" purity="6.3978493213653564e-01" nType="-99"/>
        </Node>
        <Node pos="r" depth="1" NCoef="0" IVar="6" Cut="1.7000000000000000e+01" cType="1" res="-1.5152937266975641e-03" rms="3.2137777656316757e-02" purity="1.5642589330673218e-01" nType="0">
          <Node pos="l" depth="2" NCoef="0" IVar="-1" Cut="0.0000000000000000e+00" cType="1" res="-2.5529257953166962e-02" rms="4.6600544452667236e-01" purity="3.2673266530036926e-01" nType="-99"/>
          <Node pos="r" depth="2" NCoef="0" IVar="-1" Cut="0.0000000000000000e+00" cType="1" res="-6.9929011166095734e-02" rms="2.1915093064308167e-01" purity="5.2492447197437286e-02" nType="-99"/>
        </Node>
      </Node>
    </BinaryTree>
    <BinaryTree type="DecisionTree" boostWeight="1.0000000000000000e+00" itree="4">
      <Node pos="s" depth="0" NCoef="0" IVar="6" Cut="9.0000000000000000e+00" cType="1" res="1.0526544414460659e-02" rms="0.0000000000000000e+00" purity="4.9766328930854797e-01" nType="0">
        <Node pos="l" depth="1" NCoef="0" IVar="3" Cut="2.0000000000000000e+00" cType="1" res="1.7555439472198486e-01" rms="0.0000000000000000e+00" purity="8.0956465005874634e-01" nType="0">
          <Node pos="l" depth="2" NCoef="0" IVar="-1" Cut="0.0000000000000000e+00" cType="1" res="5.9853453189134598e-02" rms="2.8569695353507996e-01" purity="9.0669369697570801e-01" nType="-99"/>
          <Node pos="r" depth="2" NCoef="0" IVar="-1" Cut="0.0000000000000000e+00" cType="1" res="1.6414538025856018e-02" rms="4.7352486848831177e-01" purity="6.4105570316314697e-01" nType="-99"/>
        </Node>
        <Node pos="r" depth="1" NCoef="0" IVar="4" Cut="9.0000000000000000e+00" cType="1" res="2.4014598131179810e-01" rms="0.0000000000000000e+00" purity="1.4379562437534332e-01" nType="0">
          <Node pos="l" depth="2" NCoef="0" IVar="-1" Cut="0.0000000000000000e+00" cType="1" res="-2.6627618819475174e-02" rms="4.4205564260482788e-01" purity="2.8805619478225708e-01" nType="-99"/>
          <Node pos="r" depth="2" NCoef="0" IVar="-1" Cut="0.0000000000000000e+00" cType="1" res="-6.9653287529945374e-02" rms="1.9163464009761810e-01" purity="4.1215654462575912e-02" nType="-99"/>
        </Node>
      </Node>
    </BinaryTree>
    <BinaryTree type="DecisionTree" boostWeight="1.0000000000000000e+00" itree="5">
      <Node pos="s" depth="0" NCoef="0" IVar="6" Cut="1.2000000000000000e+01" cType="1" res="0.0000000000000000e+00" rms="0.0000000000000000e+00" purity="5.0189816951751709e-01" nType="0">
        <Node pos="l" depth="1" NCoef="0" IVar="5" Cut="2.0000000000000000e+00" cType="1" res="1.5370130538940430e-01" rms="3.9978986978530884e-01" purity="7.5409835577011108e-01" nType="0">
          <Node pos="l" depth="2" NCoef="0" IVar="-1" Cut="0.0000000000000000e+00" cType="1" res="5.8313746005296707e-02" rms="2.6866188645362854e-01" purity="9.1604477167129517e-01" nType="-99"/>
          <Node pos="r" depth="2" NCoef="0" IVar="-1" Cut="0.0000000000000000e+00" cType="1" res="1.1370621621608734e-02" rms="4.7201198339462280e-01" purity="5.9964412450790405e-01" nType="-99"/>
        </Node>
        <Node pos="r" depth="1" NCoef="0" IVar="6" Cut="2.9000000000000000e+01" cType="1" res="0.0000000000000000e+00" rms="2.4410476908087730e-02" purity="1.0242354124784470e-01" nType="0">
          <Node pos="l" depth="2" NCoef="0" IVar="-1" Cut="0.0000000000000000e+00" cType="1" res="-3.8971345871686935e-02" rms="3.8808244466781616e-01" purity="1.9133771955966949e-01" nType="-99"/>
          <Node pos="r" depth="2" NCoef="0" IVar="-1" Cut="0.0000000000000000e+00" cType="1" res="-7.1804128587245941e-02" rms="5.9838101267814636e-02" purity="3.6540804430842400e-03" nType="-99"/>
        </Node>
      </Node>
    </BinaryTree>
    <BinaryTree type="DecisionTree" boostWeight="1.0000000000000000e+00" itree="6">
      <Node pos="s" depth="0" NCoef="0" IVar="6" Cut="8.0000000000000000e+00" cType="1" res="0.0000000000000000e+00" rms="0.0000000000000000e+00" purity="5.0661045312881470e-01" nType="0">
        <Node pos="l" depth="1" NCoef="0" IVar="5" Cut="1.0000000000000000e+01" cType="1" res="1.8580034375190735e-01" rms="3.5341367125511169e-01" purity="8.3325546979904175e-01" nType="0">
          <Node pos="l" depth="2" NCoef="0" IVar="-1" Cut="0.0000000000000000e+00" cType="1" res="5.1430549472570419e-02" rms="3.0092674493789673e-01" purity="8.9292871952056885e-01" nType="-99"/>
          <Node pos="r" depth="2" NCoef="0" IVar="-1" Cut="0.0000000000000000e+00" cType="1" res="3.7221238017082214e-03" rms="4.9293130636215210e-01" purity="5.6907474994659424e-01" nType="-99"/>
        </Node>
        <Node pos="r" depth="1" NCoef="0" IVar="3" Cut="9.0000000000000000e+00" cType="1" res="0.0000000000000000e+00" rms="0.0000000000000000e+00" purity="1.9523596763610840e-01" nType="0">
          <Node pos="l" depth="2" NCoef="0" IVar="-1" Cut="0.0000000000000000e+00" cType="1" res="-1.4210068620741367e-02" rms="4.5311248302459717e-01" purity="3.5580709576606750e-01" nType="-99"/>
          <Node pos="r" depth="2" NCoef="0" IVar="-1" Cut="0.0000000000000000e+00" cType="1" res="-5.9398174285888672e-02" rms="2.2931547462940216e-01" purity="6.2601625919342041e-02" nType="-99"/>
        </Node>
      </Node>
    </BinaryTree>
    <BinaryTree type="DecisionTree" boostWeight="1.0000000000000000e+00" itree="7">
      <Node pos="s" depth="0" NCoef="0" IVar="6" Cut="9.0000000000000000e+00" cType="1" res="1.7234848812222481e-02" rms="0.0000000000000000e+00" purity="4.9671602249145508e-01" nType="0">
        <Node pos="l" depth="1" NCoef="0" IVar="3" Cut="5.0000000000000000e+00" cType="1" res="1.5126103162765503e-01" rms="0.0000000000000000e+00" purity="8.1366461515426636e-01" nType="0">
          <Node pos="l" depth="2" NCoef="0" IVar="-1" Cut="0.0000000000000000e+00" cType="1" res="4.4117134064435959e-02" rms="3.3066031336784363e-01" purity="8.6052757501602173e-01" nType="-99"/>
          <Node pos="r" depth="2" NCoef="0" IVar="-1" Cut="0.0000000000000000e+00" cType="1" res="-1.7502250149846077e-02" rms="4.9385896325111389e-01" purity="4.7999998927116394e-01" nType="-99"/>
        </Node>
        <Node pos="r" depth="1" NCoef="0" IVar="6" Cut="1.7000000000000000e+01" cType="1" res="0.0000000000000000e+00" rms="0.0000000000000000e+00" purity="1.5368567407131195e-01" nType="0">
          <Node pos="l" depth="2" NCoef="0" IVar="-1" Cut="0.0000000000000000e+00" cType="1" res="-1.6269242390990257e-02" rms="4.6300891041755676e-01" purity="3.2551142573356628e-01" nType="-99"/>
          <Node pos="r" depth="2" NCoef="0" IVar="-1" Cut="0.0000000000000000e+00" cType="1" res="-5.8042701333761215e-02" rms="2.0232576131820679e-01" purity="4.6003017574548721e-02" nType="-99"/>
        </Node>
      </Node>
    </BinaryTree>
    <BinaryTree type="DecisionTree" boostWeight="1.0000000000000000e+00" itree="8">
      <Node pos="s" depth="0" NCoef="0" IVar="6" Cut="1.1000000000000000e+01" cType="1" res="1.1910621875000000e+05" rms="0.0000000000000000e+00" purity="5.0127565860748291e-01" nType="0">
        <Node pos="l" depth="1" NCoef="0" IVar="3" Cut="3.0000000000000000e+00" cType="1" res="1.5275794267654419e-01" rms="0.0000000000000000e+00" purity="7.7784067392349243e-01" nType="0">
          <Node pos="l" depth="2" NCoef="0" IVar="-1" Cut="0.0000000000000000e+00" cType="1" res="4.3593227863311768e-02" rms="3.1517109274864197e-01" purity="8.7112861871719360e-01" nType="-99"/>
          <Node pos="r" depth="2" NCoef="0" IVar="-1" Cut="0.0000000000000000e+00" cType="1" res="-2.0507310982793570e-03" rms="4.8341080546379089e-01" purity="5.3897851705551147e-01" nType="-99"/>
        </Node>
        <Node pos="r" depth="1" NCoef="0" IVar="6" Cut="1.5000000000000000e+01" cType="1" res="0.0000000000000000e+00" rms="1.6402261331677437e-02" purity="1.0707560181617737e-01" nType="0">
          <Node pos="l" depth="2" NCoef="0" IVar="-1" Cut="0.0000000000000000e+00" cType="1" res="-1.6387820243835449e-02" rms="4.5717698335647583e-01" purity="3.0088496208190918e-01" nType="-99"/>
          <Node pos="r" depth="2" NCoef="0" IVar="-1" Cut="0.0000000000000000e+00" cType="1" res="-5.4630313068628311e-02" rms="2.1797694265842438e-01" purity="5.4682161659002304e-02" nType="-99"/>
        </Node>
      </Node>
    </BinaryTree>
    <BinaryTree type="DecisionTree" boostWeight="1.0000000000000000e+00" itree="9">
      <Node pos="s" depth="0" NCoef="0" IVar="6" Cut="8.0000000000000000e+00" cType="1" res="0.0000000000000000e+00" rms="0.0000000000000000e+00" purity="5.0021827220916748e-01" nType="0">
        <Node pos="l" depth="1" NCoef="0" IVar="5" Cut="8.0000000000000000e+00" cType="1" res="1.3960236310958862e-01" rms="3.4699729084968567e-01" purity="8.3441776037216187e-01" nType="0">
          <Node pos="l" depth="2" NCoef="0" IVar="-1" Cut="0.0000000000000000e+00" cType="1" res="4.6586629003286362e-02" rms="2.7959212660789490e-01" purity="9.1049563884735107e-01" nType="-99"/>
          <Node pos="r" depth="2" NCoef="0" IVar="-1" Cut="0.0000000000000000e+00" cType="1" res="3.4721189877018332e-04" rms="4.8793685436248779e-01" purity="5.8033108711242676e-01" nType="-99"/>
        </Node>
        <Node pos="r" depth="1" NCoef="0" IVar="3" Cut="8.0000000000000000e+00" cType="1" res="3.5812965035438538e-01" rms="0.0000000000000000e+00" purity="1.8363443017005920e-01" nType="0">
          <Node pos="l" depth="2" NCoef="0" IVar="-1" Cut="0.0000000000000000e+00" cType="1" res="-9.7398264333605766e-03" rms="4.5209297537803650e-01" purity="3.5448917746543884e-01" nType="-99"/>
          <Node pos="r" depth="2" NCoef="0" IVar="-1" Cut="0.0000000000000000e+00" cType="1" res="-5.1812250167131424e-02" rms="2.2687844932079315e-01" purity="6.3968196511268616e-02" nType="-99"/>
        </Node>
      </Node>
    </BinaryTree>
    <BinaryTree type="DecisionTree" boostWeight="1.0000000000000000e+00" itree="10">
      <Node pos="s" depth="0" NCoef="0" IVar="6" Cut="7.0000000000000000e+00" cType="1" res="0.0000000000000000e+00" rms="1.5910326328594238e-04" purity="4.9822339415550232e-01" nType="0">
        <Node pos="l" depth="1" NCoef="0" IVar="5" Cut="1.0000000000000000e+00" cType="1" res="1.2742877006530762e-01" rms="3.4011575579643250e-01" purity="8.4249812364578247e-01" nType="0">
          <Node pos="l" depth="2" NCoef="0" IVar="-1" Cut="0.0000000000000000e+00" cType="1" res="5.2328217774629593e-02" rms="2.1320658922195435e-01" purity="9.5146065950393677e-01" nType="-99"/>
          <Node pos="r" depth="2" NCoef="0" IVar="-1" Cut="0.0000000000000000e+00" cType="1" res="1.2529760599136353e-02" rms="4.3968102335929871e-01" purity="7.0735788345336914e-01" nType="-99"/>
        </Node>
        <Node pos="r" depth="1" NCoef="0" IVar="4" Cut="9.0000000000000000e+00" cType="1" res="1.5881291031837463e-01" rms="2.5379422307014465e-01" purity="2.2077400982379913e-01" nType="0">
          <Node pos="l" depth="2" NCoef="0" IVar="-1" Cut="0.0000000000000000e+00" cType="1" res="-1.0700882412493229e-02" rms="4.4721722602844238e-01" purity="3.8122218847274780e-01" nType="-99"/>
          <Node pos="r" depth="2" NCoef="0" IVar="-1" Cut="0.0000000000000000e+00" cType="1" res="-5.0416555255651474e-02" rms="2.2468227148056030e-01" purity="6.3195548951625824e-02" nType="-99"/>
        </Node>
      </Node>
    </BinaryTree>
    <BinaryTree type="DecisionTree" boostWeight="1.0000000000000000e+00" itree="11">
      <Node pos="s" depth="0" NCoef="0" IVar="3" Cut="7.0000000000000000e+00" cType="1" res="0.0000000000000000e+00" rms="0.0000000000000000e+00" purity="4.9547737836837769e-01" nType="0">
        <Node pos="l" depth="1" NCoef="0" IVar="6" Cut="6.0000000000000000e+00" cType="1" res="5.5921782040968537e-04" rms="4.0441450476646423e-01" purity="7.1114569902420044e-01" nType="0">
          <Node pos="l" depth="2" NCoef="0" IVar="-1" Cut="0.0000000000000000e+00" cType="1" res="3.9328828454017639e-02" rms="3.0206194519996643e-01" purity="8.8372093439102173e-01" nType="-99"/>
          <Node pos="r" depth="2" NCoef="0" IVar="-1" Cut="0.0000000000000000e+00" cType="1" res="-2.0282557234168053e-03" rms="4.4954562187194824e-01" purity="4.7952979803085327e-01" nType="-99"/>
        </Node>
        <Node pos="r" depth="1" NCoef="0" IVar="3" Cut="1.5000000000000000e+01" cType="1" res="5.1935788244009018e-02" rms="1.0560405999422073e-01" purity="1.0324205458164215e-01" nType="0">
          <Node pos="l" depth="2" NCoef="0" IVar="-1" Cut="0.0000000000000000e+00" cType="1" res="-2.5136800482869148e-02" rms="3.9728429913520813e-01" purity="2.1785713732242584e-01" nType="-99"/>
          <Node pos="r" depth="2" NCoef="0" IVar="-1" Cut="0.0000000000000000e+00" cType="1" res="-6.0171589255332947e-02" rms="1.1201969534158707e-01" purity="1.2943162582814693e-02" nType="-99"/>
        </Node>
      </Node>
    </BinaryTree>
    <BinaryTree type="DecisionTree" boostWeight="1.0000000000000000e+00" itree="12">
      <Node pos="s" depth="0" NCoef="0" IVar="6" Cut="1.0000000000000000e+01" cType="1" res="0.0000000000000000e+00" rms="0.0000000000000000e+00" purity="4.9023306369781494e-01" nType="0">
        <Node pos="l" depth="1" NCoef="0" IVar="5" Cut="1.4000000000000000e+01" cType="1" res="9.0936347842216492e-02" rms="3.6622646450996399e-01" purity="7.9338842630386353e-01" nType="0">
          <Node pos="l" depth="2" NCoef="0" IVar="-1" Cut="0.0000000000000000e+00" cType="1" res="3.1212761998176575e-02" rms="3.3575880527496338e-01" purity="8.4360408782958984e-01" nType="-99"/>
          <Node pos="r" depth="2" NCoef="0" IVar="-1" Cut="0.0000000000000000e+00" cType="1" res="-1.4714478515088558e-02" rms="4.9098080396652222e-01" purity="4.7562777996063232e-01" nType="-99"/>
        </Node>
        <Node pos="r" depth="1" NCoef="0" IVar="6" Cut="2.8000000000000000e+01" cType="1" res="0.0000000000000000e+00" rms="9.1033470153808594e+01" purity="1.1879476159811020e-01" nType="0">
          <Node pos="l" depth="2" NCoef="0" IVar="-1" Cut="0.0000000000000000e+00" cType="1" res="-2.1887557581067085e-02" rms="3.9420026540756226e-01" purity="2.0644599199295044e-01" nType="-99"/>
          <Node pos="r" depth="2" NCoef="0" IVar="-1" Cut="0.0000000000000000e+00" cType="1" res="-5.9093434363603592e-02" rms="6.1520177870988846e-02" purity="3.9931545034050941e-03" nType="-99"/>
        </Node>
      </Node>
    </BinaryTree>
    <BinaryTree type="DecisionTree" boostWeight="1.0000000000000000e+00" itree="13">
      <Node pos="s" depth="0" NCoef="0" IVar="3" Cut="5.0000000000000000e+00" cType="1" res="2.5363916531205177e-02" rms="7.7997587621212006e-02" purity="5.0816059112548828e-01" nType="0">
        <Node pos="l" depth="1" NCoef="0" IVar="4" Cut="8.0000000000000000e+00" cType="1" res="1.2962897121906281e-01" rms="0.0000000000000000e+00" purity="7.7814763784408569e-01" nType="0">
          <Node pos="l" depth="2" NCoef="0" IVar="-1" Cut="0.0000000000000000e+00" cType="1" res="3.0987024307250977e-02" rms="3.3768361806869507e-01" purity="8.1773608922958374e-01" nType="-99"/>
          <Node pos="r" depth="2" NCoef="0" IVar="-1" Cut="0.0000000000000000e+00" cType="1" res="-1.8617793917655945e-02" rms="4.4610530138015747e-01" purity="3.3173078298568726e-01" nType="-99"/>
        </Node>
        <Node pos="r" depth="1" NCoef="0" IVar="3" Cut="7.0000000000000000e+00" cType="1" res="-7.3538912693038583e-04" rms="0.0000000000000000e+00" purity="1.6006058454513550e-01" nType="0">
          <Node pos="l" depth="2" NCoef="0" IVar="-1" Cut="0.0000000000000000e+00" cType="1" res="-3.6823421251028776e-03" rms="4.4307073950767517e-01" purity="4.0422722697257996e-01" nType="-99"/>
          <Node pos="r" depth="2" NCoef="0" IVar="-1" Cut="0.0000000000000000e+00" cType="1" res="-3.9871539920568466e-02" rms="2.7661108970642090e-01" purity="1.0237203538417816e-01" nType="-99"/>
        </Node>
      </Node>
    </BinaryTree>
    <BinaryTree type="DecisionTree" boostWeight="1.0000000000000000e+00" itree="14">
      <Node pos="s" depth="0" NCoef="0" IVar="6" Cut="1.1000000000000000e+01" cType="1" res="0.0000000000000000e+00" rms="0.0000000000000000e+00" purity="5.0279641151428223e-01" nType="0">
        <Node pos="l" depth="1" NCoef="0" IVar="5" Cut="1.0000000000000000e+00" cType="1" res="7.3147818446159363e-02" rms="3.6689296364784241e-01" purity="7.8087419271469116e-01" nType="0">
          <Node pos="l" depth="2" NCoef="0" IVar="-1" Cut="0.0000000000000000e+00" cType="1" res="4.6044379472732544e-02" rms="2.1493530273437500e-01" purity="9.4496917724609375e-01" nType="-99"/>
          <Node pos="r" depth="2" NCoef="0" IVar="-1" Cut="0.0000000000000000e+00" cType="1" res="3.2892569433897734e-03" rms="4.5149394869804382e-01" purity="6.3837373256683350e-01" nType="-99"/>
        </Node>
        <Node pos="r" depth="1" NCoef="0" IVar="4" Cut="1.0000000000000000e+01" cType="1" res="6.7549310624599457e-03" rms="3.6129727959632874e-02" purity="1.0915968567132950e-01" nType="0">
          <Node pos="l" depth="2" NCoef="0" IVar="-1" Cut="0.0000000000000000e+00" cType="1" res="-1.6920784488320351e-02" rms="4.0384048223495483e-01" purity="2.1573948860168457e-01" nType="-99"/>
          <Node pos="r" depth="2" NCoef="0" IVar="-1" Cut="0.0000000000000000e+00" cType="1" res="-4.7897662967443466e-02" rms="1.8233148753643036e-01" purity="3.8616973906755447e-02" nType="-99"/>
        </Node>
      </Node>
    </BinaryTree>
    <BinaryTree type="DecisionTree" boostWeight="1.0000000000000000e+00" itree="15">
      <Node pos="s" depth="0" NCoef="0" IVar="3" Cut="6.0000000000000000e+00" cType="1" res="4.5051231980323792e-01" rms="0.0000000000000000e+00" purity="5.0399732589721680e-01" nType="0">
        <Node pos="l" depth="1" NCoef="0" IVar="3" Cut="1.0000000000000000e+00" cType="1" res="2.3318495601415634e-02" rms="2.7223417162895203e-01" purity="7.4300861358642578e-01" nType="0">
          <Node pos="l" depth="2" NCoef="0" IVar="-1" Cut="0.0000000000000000e+00" cType="1" res="4.0175456553697586e-02" rms="2.5264045596122742e-01" purity="9.1316199302673340e-01" nType="-99"/>
          <Node pos="r" depth="2" NCoef="0" IVar="-1" Cut="0.0000000000000000e+00" cType="1" res="3.8087242282927036e-03" rms="4.3801265954971313e-01" purity="5.9249055385589600e-01" nType="-99"/>
        </Node>
        <Node pos="r" depth="1" NCoef="0" IVar="5" Cut="1.5000000000000000e+01" cType="1" res="-1.0749471187591553e-01" rms="2.9014232754707336e-01" purity="1.2052785605192184e-01" nType="0">
          <Node pos="l" depth="2" NCoef="0" IVar="-1" Cut="0.0000000000000000e+00" cType="1" res="-1.7814908176660538e-02" rms="4.0345299243927002e-01" purity="2.4901960790157318e-01" nType="-99"/>
          <Node pos="r" depth="2" NCoef="0" IVar="-1" Cut="0.0000000000000000e+00" cType="1" res="-4.3335668742656708e-02" rms="2.2400046885013580e-01" purity="6.5690375864505768e-02" nType="-99"/>
        </Node>
      </Node>
    </BinaryTree>
    <BinaryTree type="DecisionTree" boostWeight="1.0000000000000000e+00" itree="16">
      <Node pos="s" depth="0" NCoef="0" IVar="6" Cut="7.0000000000000000e+00" cType="1" res="0.0000000000000000e+00" rms="0.0000000000000000e+00" purity="4.9222797155380249e-01" nType="0">
        <Node pos="l" depth="1" NCoef="0" IVar="5" Cut="1.0000000000000000e+00" cType="1" res="7.1761667728424072e-02" rms="3.3631554245948792e-01" purity="8.3947885036468506e-01" nType="0">
          <Node pos="l" depth="2" NCoef="0" IVar="-1" Cut="0.0000000000000000e+00" cType="1" res="4.2983029037714005e-02" rms="2.0930822193622589e-01" purity="9.5277023315429688e-01" nType="-99"/>
          <Node pos="r" depth="2" NCoef="0" IVar="-1" Cut="0.0000000000000000e+00" cType="1" res="5.0191306509077549e-03" rms="4.3710115551948547e-01" purity="7.0578777790069580e-01" nType="-99"/>
        </Node>
        <Node pos="r" depth="1" NCoef="0" IVar="6" Cut="1.7000000000000000e+01" cType="1" res="0.0000000000000000e+00" rms="0.0000000000000000e+00" purity="2.0987407863140106e-01" nType="0">
          <Node pos="l" depth="2" NCoef="0" IVar="-1" Cut="0.0000000000000000e+00" cType="1" res="-1.0016528889536858e-02" rms="4.5546445250511169e-01" purity="3.9397740364074707e-01" nType="-99"/>
          <Node pos="r" depth="2" NCoef="0" IVar="-1" Cut="0.0000000000000000e+00" cType="1" res="-4.3905876576900482e-02" rms="1.9026492536067963e-01" purity="4.1347626596689224e-02" nType="-99"/>
        </Node>
      </Node>
    </BinaryTree>
    <BinaryTree type="DecisionTree" boostWeight="1.0000000000000000e+00" itree="17">
      <Node pos="s" depth="0" NCoef="0" IVar="3" Cut="7.0000000000000000e+00" cType="1" res="2.7548208832740784e-02" rms="8.9142188429832458e-02" purity="5.0402206182479858e-01" nType="0">
        <Node pos="l" depth="1" NCoef="0" IVar="6" Cut="1.3000000000000000e+01" cType="1" res="5.4287660168483853e-04" rms="4.0991848707199097e-01" purity="7.1732217073440552e-01" nType="0">
          <Node pos="l" depth="2" NCoef="0" IVar="-1" Cut="0.0000000000000000e+00" cType="1" res="1.8932964652776718e-02" rms="3.6517351865768433e-01" purity="7.9141223430633545e-01" nType="-99"/>
          <Node pos="r" depth="2" NCoef="0" IVar="-1" Cut="0.0000000000000000e+00" cType="1" res="-2.0507406443357468e-02" rms="3.8890811800956726e-01" purity="1.8911564350128174e-01" nType="-99"/>
        </Node>
        <Node pos="r" depth="1" NCoef="0" IVar="5" Cut="1.6000000000000000e+01" cType="1" res="-9.6599407494068146e-02" rms="2.6638767123222351e-01" purity="9.2903226613998413e-02" nType="0">
          <Node pos="l" depth="2" NCoef="0" IVar="-1" Cut="0.0000000000000000e+00" cType="1" res="-1.8549600616097450e-02" rms="3.7099057435989380e-01" purity="1.8717047572135925e-01" nType="-99"/>
          <Node pos="r" depth="2" NCoef="0" IVar="-1" Cut="0.0000000000000000e+00" cType="1" res="-4.7408834099769592e-02" rms="1.7840126156806946e-01" purity="3.8226298987865448e-02" nType="-99"/>
        </Node>
      </Node>
    </BinaryTree>
    <BinaryTree type="DecisionTree" boostWeight="1.0000000000000000e+00" itree="18">
      <Node pos="s" depth="0" NCoef="0" IVar="6" Cut="7.0000000000000000e+00" cType="1" res="4.6626972034573555e-03" rms="0.0000000000000000e+00" purity="4.8955091834068298e-01" nType="0">
        <Node pos="l" depth="1" NCoef="0" IVar="4" Cut="7.0000000000000000e+00" cType="1" res="-7.1849522646516562e-04" rms="1.3301674276590347e-02" purity="8.4918034076690674e-01" nType="0">
          <Node pos="l" depth="2" NCoef="0" IVar="-1" Cut="0.0000000000000000e+00" cType="1" res="2.5194756686687469e-02" rms="3.1433567404747009e-01" purity="8.6770218610763550e-01" nType="-99"/>
          <Node pos="r" depth="2" NCoef="0" IVar="-1" Cut="0.0000000000000000e+00" cType="1" res="-2.8232622891664505e-02" rms="4.6030673384666443e-01" purity="5.4978352785110474e-01" nType="-99"/>
        </Node>
        <Node pos="r" depth="1" NCoef="0" IVar="4" Cut="1.0000000000000000e+01" cType="1" res="1.5921288728713989e-01" rms="0.0000000000000000e+00" purity="2.0612204074859619e-01" nType="0">
          <Node pos="l" depth="2" NCoef="0" IVar="-1" Cut="0.0000000000000000e+00" cType="1" res="-8.8635105639696121e-03" rms="4.2846867442131042e-01" purity="3.5030627250671387e-01" nType="-99"/>
          <Node pos="r" depth="2" NCoef="0" IVar="-1" Cut="0.0000000000000000e+00" cType="1" res="-4.1584637016057968e-02" rms="2.0205865800380707e-01" purity="5.0434064120054245e-02" nType="-99"/>
        </Node>
      </Node>
    </BinaryTree>
    <BinaryTree type="DecisionTree" boostWeight="1.0000000000000000e+00" itree="19">
      <Node pos="s" depth="0" NCoef="0" IVar="4" Cut="6.0000000000000000e+00" cType="1" res="1.4502307400107384e-02" rms="2.2138120234012604e-01" purity="4.9439683556556702e-01" nType="0">
        <Node pos="l" depth="1" NCoef="0" IVar="5" Cut="1.0000000000000000e+00" cType="1" res="4.5295733958482742e-02" rms="3.6102810502052307e-01" purity="7.1673977375030518e-01" nType="0">
          <Node pos="l" depth="2" NCoef="0" IVar="-1" Cut="0.0000000000000000e+00" cType="1" res="3.7845071405172348e-02" rms="2.1974416077136993e-01" purity="9.3585878610610962e-01" nType="-99"/>
          <Node pos="r" depth="2" NCoef="0" IVar="-1" Cut="0.0000000000000000e+00" cType="1" res="1.9453957211226225e-03" rms="4.3391668796539307e-01" purity="5.5509686470031738e-01" nType="-99"/>
        </Node>
        <Node pos="r" depth="1" NCoef="0" IVar="4" Cut="8.0000000000000000e+00" cType="1" res="1.1019284138455987e-03" rms="5.5037159472703934e-02" purity="1.5922865271568298e-01" nType="0">
          <Node pos="l" depth="2" NCoef="0" IVar="-1" Cut="0.0000000000000000e+00" cType="1" res="-6.4632939174771309e-03" rms="4.2592567205429077e-01" purity="4.2215988039970398e-01" nType="-99"/>
          <Node pos="r" depth="2" NCoef="0" IVar="-1" Cut="0.0000000000000000e+00" cType="1" res="-3.4195147454738617e-02" rms="2.6000601053237915e-01" purity="9.4960577785968781e-02" nType="-99"/>
        </Node>
      </Node>
    </BinaryTree>
    <BinaryTree type="DecisionTree" boostWeight="1.0000000000000000e+00" itree="20">
      <Node pos="s" depth="0" NCoef="0" IVar="6" Cut="1.1000000000000000e+01" cType="1" res="0.0000000000000000e+00" rms="0.0000000000000000e+00" purity="4.9879360198974609e-01" nType="0">
        <Node pos="l" depth="1" NCoef="0" IVar="5" Cut="8.0000000000000000e+00" cType="1" res="4.4847156852483749e-02" rms="3.6597791314125061e-01" purity="7.7756905555725098e-01" nType="0">
          <Node pos="l" depth="2" NCoef="0" IVar="-1" Cut="0.0000000000000000e+00" cType="1" res="2.5188123807311058e-02" rms="2.9955744743347168e-01" purity="8.8062882423400879e-01" nType="-99"/>
          <Node pos="r" depth="2" NCoef="0" IVar="-1" Cut="0.0000000000000000e+00" cType="1" res="-4.1699148714542389e-03" rms="4.8457020521163940e-01" purity="5.3121018409729004e-01" nType="-99"/>
        </Node>
        <Node pos="r" depth="1" NCoef="0" IVar="3" Cut="1.5000000000000000e+01" cType="1" res="7.9051381908357143e-04" rms="7.0752829313278198e-02" purity="1.0777338594198227e-01" nType="0">
          <Node pos="l" depth="2" NCoef="0" IVar="-1" Cut="0.0000000000000000e+00" cType="1" res="-9.9476100876927376e-03" rms="3.7996533513069153e-01" purity="1.9128328561782837e-01" nType="-99"/>
          <Node pos="r" depth="2" NCoef="0" IVar="-1" Cut="0.0000000000000000e+00" cType="1" res="-5.2065446972846985e-02" rms="8.7865360081195831e-02" purity="8.0924853682518005e-03" nType="-99"/>
        </Node>
      </Node>
    </BinaryTree>
    <BinaryTree type="DecisionTree" boostWeight="1.0000000000000000e+00" itree="21">
      <Node pos="s" depth="0" NCoef="0" IVar="4" Cut="6.0000000000000000e+00" cType="1" res="6.5564677119255066e-02" rms="0.0000000000000000e+00" purity="4.9201241135597229e-01" nType="0">
        <Node pos="l" depth="1" NCoef="0" IVar="3" Cut="3.0000000000000000e+00" cType="1" res="1.8618506146594882e-04" rms="2.7863353490829468e-02" purity="7.2277045249938965e-01" nType="0">
          <Node pos="l" depth="2" NCoef="0" IVar="-1" Cut="0.0000000000000000e+00" cType="1" res="2.2143715992569923e-02" rms="3.1084835529327393e-01" purity="8.5824173688888550e-01" nType="-99"/>
          <Node pos="r" depth="2" NCoef="0" IVar="-1" Cut="0.0000000000000000e+00" cType="1" res="-6.3967695459723473e-03" rms="4.3699237704277039e-01" purity="4.3789717555046082e-01" nType="-99"/>
        </Node>
        <Node pos="r" depth="1" NCoef="0" IVar="4" Cut="9.0000000000000000e+00" cType="1" res="0.0000000000000000e+00" rms="0.0000000000000000e+00" purity="1.5179796516895294e-01" nType="0">
          <Node pos="l" depth="2" NCoef="0" IVar="-1" Cut="0.0000000000000000e+00" cType="1" res="-7.0057874545454979e-03" rms="4.2904099822044373e-01" purity="3.9956802129745483e-01" nType="-99"/>
          <Node pos="r" depth="2" NCoef="0" IVar="-1" Cut="0.0000000000000000e+00" cType="1" res="-3.7274580448865891e-02" rms="2.3469412326812744e-01" purity="6.7353695631027222e-02" nType="-99"/>
        </Node>
      </Node>
    </BinaryTree>
    <BinaryTree type="DecisionTree" boostWeight="1.0000000000000000e+00" itree="22">
      <Node pos="s" depth="0" NCoef="0" IVar="3" Cut="1.0000000000000000e+00" cType="1" res="2.0525906234979630e-02" rms="8.6349278688430786e-02" purity="4.9872407317161560e-01" nType="0">
        <Node pos="l" depth="1" NCoef="0" IVar="4" Cut="4.0000000000000000e+00" cType="1" res="4.8808071762323380e-02" rms="0.0000000000000000e+00" purity="9.0516251325607300e-01" nType="0">
          <Node pos="l" depth="2" NCoef="0" IVar="-1" Cut="0.0000000000000000e+00" cType="1" res="3.6494560539722443e-02" rms="2.2969289124011993e-01" purity="9.3667155504226685e-01" nType="-99"/>
          <Node pos="r" depth="2" NCoef="0" IVar="-1" Cut="0.0000000000000000e+00" cType="1" res="7.1649611927568913e-03" rms="3.1472900509834290e-01" purity="7.9411762952804565e-01" nType="-99"/>
        </Node>
        <Node pos="r" depth="1" NCoef="0" IVar="4" Cut="1.3000000000000000e+01" cType="1" res="9.2060022056102753e-02" rms="0.0000000000000000e+00" purity="3.3260393142700195e-01" nType="0">
          <Node pos="l" depth="2" NCoef="0" IVar="-1" Cut="0.0000000000000000e+00" cType="1" res="-4.3604238890111446e-03" rms="4.2717525362968445e-01" purity="4.6563687920570374e-01" nType="-99"/>
          <Node pos="r" depth="2" NCoef="0" IVar="-1" Cut="0.0000000000000000e+00" cType="1" res="-4.5828823000192642e-02" rms="1.4493788778781891e-01" purity="2.4857586249709129e-02" nType="-99"/>
        </Node>
      </Node>
    </BinaryTree>
    <BinaryTree type="DecisionTree" boostWeight="1.0000000000000000e+00" itree="23">
      <Node pos="s" depth="0" NCoef="0" IVar="3" Cut="1.0000000000000000e+00" cType="1" res="9.0800333023071289e-01" rms="0.0000000000000000e+00" purity="4.9711814522743225e-01" nType="0">
        <Node pos="l" depth="1" NCoef="0" IVar="6" Cut="4.0000000000000000e+00" cType="1" res="4.6506647020578384e-02" rms="0.0000000000000000e+00" purity="9.0418249368667603e-01" nType="0">
          <Node pos="l" depth="2" NCoef="0" IVar="-1" Cut="0.0000000000000000e+00" cType="1" res="4.4418741017580032e-02" rms="1.6078150272369385e-01" purity="9.7191429138183594e-01" nType="-99"/>
          <Node pos="r" depth="2" NCoef="0" IVar="-1" Cut="0.0000000000000000e+00" cType="1" res="1.4242673292756081e-02" rms="3.2130488753318787e-01" purity="8.3241975307464600e-01" nType="-99"/>
        </Node>
        <Node pos="r" depth="1" NCoef="0" IVar="5" Cut="1.6000000000000000e+01" cType="1" res="-3.0295236036181450e-02" rms="3.6288872361183167e-01" purity="3.2963079214096069e-01" nType="0">
          <Node pos="l" depth="2" NCoef="0" IVar="-1" Cut="0.0000000000000000e+00" cType="1" res="-1.3037989847362041e-03" rms="4.1720777750015259e-01" purity="4.7751939296722412e-01" nType="-99"/>
          <Node pos="r" depth="2" NCoef="0" IVar="-1" Cut="0.0000000000000000e+00" cType="1" res="-2.8872283175587654e-02" rms="2.5507849454879761e-01" purity="1.0269626975059509e-01" nType="-99"/>
        </Node>
      </Node>
    </BinaryTree>
    <BinaryTree type="DecisionTree" boostWeight="1.0000000000000000e+00" itree="24">
      <Node pos="s" depth="0" NCoef="0" IVar="4" Cut="6.0000000000000000e+00" cType="1" res="7.1247659623622894e-02" rms="4.3443644046783447e-01" purity="4.9311751127243042e-01" nType="0">
        <Node pos="l" depth="1" NCoef="0" IVar="3" Cut="1.0000000000000000e+00" cType="1" res="3.4138522460125387e-04" rms="1.9141939282417297e-01" purity="7.2436016798019409e-01" nType="0">
          <Node pos="l" depth="2" NCoef="0" IVar="-1" Cut="0.0000000000000000e+00" cType="1" res="3.1812440603971481e-02" rms="2.3452508449554443e-01" purity="9.2969083786010742e-01" nType="-99"/>
          <Node pos="r" depth="2" NCoef="0" IVar="-1" Cut="0.0000000000000000e+00" cType="1" res="5.8934546541422606e-04" rms="4.2400440573692322e-01" purity="5.6644952297210693e-01" nType="-99"/>
        </Node>
        <Node pos="r" depth="1" NCoef="0" IVar="5" Cut="5.0000000000000000e+00" cType="1" res="-5.4910648614168167e-02" rms="2.9175886511802673e-01" purity="1.4904110133647919e-01" nType="0">
          <Node pos="l" depth="2" NCoef="0" IVar="-1" Cut="0.0000000000000000e+00" cType="1" res="-3.3131238073110580e-02" rms="3.9209112524986267e-01" purity="4.5142856240272522e-01" nType="-99"/>
          <Node pos="r" depth="2" NCoef="0" IVar="-1" Cut="0.0000000000000000e+00" cType="1" res="-2.0871849730610847e-02" rms="2.7956643700599670e-01" purity="1.1696969717741013e-01" nType="-99"/>
        </Node>
      </Node>
    </BinaryTree>
    <BinaryTree type="DecisionTree" boostWeight="1.0000000000000000e+00" itree="25">
      <Node pos="s" depth="0" NCoef="0" IVar="3" Cut="1.3000000000000000e+01" cType="1" res="2.5686645880341530e-02" rms="8.0354481935501099e-02" purity="4.9449571967124939e-01" nType="0">
        <Node pos="l" depth="1" NCoef="0" IVar="6" Cut="4.0000000000000000e+00" cType="1" res="1.4267369988374412e-04" rms="0.0000000000000000e+00" purity="6.2590956687927246e-01" nType="0">
          <Node pos="l" depth="2" NCoef="0" IVar="-1" Cut="0.0000000000000000e+00" cType="1" res="2.3912420496344566e-02" rms="2.7202275395393372e-01" purity="8.9819461107254028e-01" nType="-99"/>
          <Node pos="r" depth="2" NCoef="0" IVar="-1" Cut="0.0000000000000000e+00" cType="1" res="1.1793180601671338e-03" rms="4.0990781784057617e-01" purity="5.1764708757400513e-01" nType="-99"/>
        </Node>
        <Node pos="r" depth="1" NCoef="0" IVar="5" Cut="1.4000000000000000e+01" cType="1" res="-6.7240901291370392e-02" rms="1.6306664049625397e-01" purity="3.0241934582591057e-02" nType="0">
          <Node pos="l" depth="2" NCoef="0" IVar="-1" Cut="0.0000000000000000e+00" cType="1" res="-2.5171649176627398e-03" rms="3.6599001288414001e-01" purity="1.6593886911869049e-01" nType="-99"/>
          <Node pos="r" depth="2" NCoef="0" IVar="-1" Cut="0.0000000000000000e+00" cType="1" res="-4.9097325652837753e-02" rms="1.1105898022651672e-01" purity="1.2535612098872662e-02" nType="-99"/>
        </Node>
      </Node>
    </BinaryTree>
    <BinaryTree type="DecisionTree" boostWeight="1.0000000000000000e+00" itree="26">
      <Node pos="s" depth="0" NCoef="0" IVar="6" Cut="2.2000000000000000e+01" cType="1" res="0.0000000000000000e+00" rms="0.0000000000000000e+00" purity="5.0166004896163940e-01" nType="0">
        <Node pos="l" depth="1" NCoef="0" IVar="4" Cut="1.0000000000000000e+00" cType="1" res="6.7815832153428346e-05" rms="4.6798463910818100e-02" purity="6.5542417764663696e-01" nType="0">
          <Node pos="l" depth="2" NCoef="0" IVar="-1" Cut="0.0000000000000000e+00" cType="1" res="-1.6905032098293304e-02" rms="4.0731126070022583e-01" purity="6.5592634677886963e-01" nType="-99"/>
          <Node pos="r" depth="2" NCoef="0" IVar="-1" Cut="0.0000000000000000e+00" cType="1" res="1.1876421049237251e-02" rms="3.7452200055122375e-01" purity="6.5535116195678711e-01" nType="-99"/>
        </Node>
        <Node pos="r" depth="1" NCoef="0" IVar="3" Cut="9.0000000000000000e+00" cType="1" res="9.1449473984539509e-04" rms="0.0000000000000000e+00" purity="2.0118884742259979e-02" nType="0">
          <Node pos="l" depth="2" NCoef="0" IVar="-1" Cut="0.0000000000000000e+00" cType="1" res="-1.6653167083859444e-02" rms="3.0691906809806824e-01" purity="1.0247349739074707e-01" nType="-99"/>
          <Node pos="r" depth="2" NCoef="0" IVar="-1" Cut="0.0000000000000000e+00" cType="1" res="-4.7910142689943314e-02" rms="8.5429608821868896e-02" purity="7.8781517222523689e-03" nType="-99"/>
        </Node>
      </Node>
    </BinaryTree>
    <BinaryTree type="DecisionTree" boostWeight="1.0000000000000000e+00" itree="27">
      <Node pos="s" depth="0" NCoef="0" IVar="5" Cut="1.0000000000000000e+00" cType="1" res="-3.1716495286673307e-03" rms="3.4144884347915649e-01" purity="4.9831497669219971e-01" nType="0">
        <Node pos="l" depth="1" NCoef="0" IVar="4" Cut="5.0000000000000000e+00" cType="1" res="9.4892010092735291e-03" rms="1.3641486875712872e-02" purity="9.0384614467620850e-01" nType="0">
          <Node pos="l" depth="2" NCoef="0" IVar="-1" Cut="0.0000000000000000e+00" cType="1" res="2.7487335726618767e-02" rms="2.3236189782619476e-01" purity="9.3112701177597046e-01" nType="-99"/>
          <Node pos="r" depth="2" NCoef="0" IVar="-1" Cut="0.0000000000000000e+00" cType="1" res="-1.4781799167394638e-02" rms="3.5587903857231140e-01" purity="7.0833331346511841e-01" nType="-99"/>
        </Node>
        <Node pos="r" depth="1" NCoef="0" IVar="0" Cut="1.1096419095993042e+00" cType="1" res="-2.1205971017479897e-02" rms="3.6985358595848083e-01" purity="3.3569404482841492e-01" nType="0">
          <Node pos="l" depth="2" NCoef="0" IVar="-1" Cut="0.0000000000000000e+00" cType="1" res="-1.6520611941814423e-02" rms="3.1048190593719482e-01" purity="1.8916074931621552e-01" nType="-99"/>
          <Node pos="r" depth="2" NCoef="0" IVar="-1" Cut="0.0000000000000000e+00" cType="1" res="1.6890631522983313e-03" rms="4.4229784607887268e-01" purity="5.5385822057723999e-01" nType="-99"/>
        </Node>
      </Node>
    </BinaryTree>
    <BinaryTree type="DecisionTree" boostWeight="1.0000000000000000e+00" itree="28">
      <Node pos="s" depth="0" NCoef="0" IVar="3" Cut="7.0000000000000000e+00" cType="1" res="0.0000000000000000e+00" rms="4.9546029418706894e-02" purity="5.0714129209518433e-01" nType="0">
        <Node pos="l" depth="1" NCoef="0" IVar="4" Cut="1.0000000000000000e+00" cType="1" res="0.0000000000000000e+00" rms="0.0000000000000000e+00" purity="7.1987080574035645e-01" nType="0">
          <Node pos="l" depth="2" NCoef="0" IVar="-1" Cut="0.0000000000000000e+00" cType="1" res="-9.4388639554381371e-03" rms="3.9689028263092041e-01" purity="7.2053462266921997e-01" nType="-99"/>
          <Node pos="r" depth="2" NCoef="0" IVar="-1" Cut="0.0000000000000000e+00" cType="1" res="1.2156411074101925e-02" rms="3.5536450147628784e-01" purity="7.1976286172866821e-01" nType="-99"/>
        </Node>
        <Node pos="r" depth="1" NCoef="0" IVar="6" Cut="8.0000000000000000e+00" cType="1" res="0.0000000000000000e+00" rms="3.6162698364257812e+02" purity="1.0068204253911972e-01" nType="0">
          <Node pos="l" depth="2" NCoef="0" IVar="-1" Cut="0.0000000000000000e+00" cType="1" res="-2.6760969310998917e-02" rms="4.6533706784248352e-01" purity="3.6286920309066772e-01" nType="-99"/>
          <Node pos="r" depth="2" NCoef="0" IVar="-1" Cut="0.0000000000000000e+00" cType="1" res="-1.7669687047600746e-02" rms="2.4837996065616608e-01" purity="7.8817732632160187e-02" nType="-99"/>
        </Node>
      </Node>
    </BinaryTree>
    <BinaryTree type="DecisionTree" boostWeight="1.0000000000000000e+00" itree="29">
      <Node pos="s" depth="0" NCoef="0" IVar="6" Cut="5.0000000000000000e+00" cType="1" res="0.0000000000000000e+00" rms="0.0000000000000000e+00" purity="5.0106108188629150e-01" nType="0">
        <Node pos="l" depth="1" NCoef="0" IVar="5" Cut="1.2000000000000000e+01" cType="1" res="4.9783192574977875e-02" rms="2.8560975193977356e-01" purity="8.8483148813247681e-01" nType="0">
          <Node pos="l" depth="2" NCoef="0" IVar="-1" Cut="0.0000000000000000e+00" cType="1" res="2.7407024055719376e-02" rms="2.5483286380767822e-01" purity="9.1931730508804321e-01" nType="-99"/>
          <Node pos="r" depth="2" NCoef="0" IVar="-1" Cut="0.0000000000000000e+00" cType="1" res="-1.3192899525165558e-02" rms="4.8149666190147400e-01" purity="5.5555558204650879e-01" nType="-99"/>
        </Node>
        <Node pos="r" depth="1" NCoef="0" IVar="3" Cut="1.6000000000000000e+01" cType="1" res="4.9140048213303089e-04" rms="3.1345807015895844e-02" purity="3.2203111052513123e-01" nType="0">
          <Node pos="l" depth="2" NCoef="0" IVar="-1" Cut="0.0000000000000000e+00" cType="1" res="-1.5497715212404728e-03" rms="4.1338399052619934e-01" purity="4.3771043419837952e-01" nType="-99"/>
          <Node pos="r" depth="2" NCoef="0" IVar="-1" Cut="0.0000000000000000e+00" cType="1" res="-4.8046715557575226e-02" rms="9.5697380602359772e-02" purity="9.6969697624444962e-03" nType="-99"/>
        </Node>
      </Node>
    </BinaryTree>
    <BinaryTree type="DecisionTree" boostWeight="1.0000000000000000e+00" itree="30">
      <Node pos="s" depth="0" NCoef="0" IVar="3" Cut="1.0000000000000000e+00" cType="1" res="4.7071292996406555e-01" rms="0.0000000000000000e+00" purity="4.9246904253959656e-01" nType="0">
        <Node pos="l" depth="1" NCoef="0" IVar="5" Cut="1.0000000000000000e+00" cType="1" res="4.2825352400541306e-02" rms="2.4903450906276703e-01" purity="9.0869390964508057e-01" nType="0">
          <Node pos="l" depth="2" NCoef="0" IVar="-1" Cut="0.0000000000000000e+00" cType="1" res="3.0100906267762184e-02" rms="1.9961114227771759e-01" purity="9.4723618030548096e-01" nType="-99"/>
          <Node pos="r" depth="2" NCoef="0" IVar="-1" Cut="0.0000000000000000e+00" cType="1" res="2.1401136182248592e-03" rms="3.8296228647232056e-01" purity="7.6370507478713989e-01" nType="-99"/>
        </Node>
        <Node pos="r" depth="1" NCoef="0" IVar="6" Cut="3.0000000000000000e+01" cType="1" res="-5.4888837039470673e-03" rms="1.4577491581439972e-01" purity="3.2976412773132324e-01" nType="0">
          <Node pos="l" depth="2" NCoef="0" IVar="-1" Cut="0.0000000000000000e+00" cType="1" res="-2.4677354376763105e-03" rms="4.2056658864021301e-01" purity="4.3931233882904053e-01" nType="-99"/>
          <Node pos="r" depth="2" NCoef="0" IVar="-1" Cut="0.0000000000000000e+00" cType="1" res="-5.0791349261999130e-02" rms="5.0104696303606033e-02" purity="2.4752474855631590e-03" nType="-99"/>
        </Node>
      </Node>
    </BinaryTree>
    <BinaryTree type="DecisionTree" boostWeight="1.0000000000000000e+00" itree="31">
      <Node pos="s" depth="0" NCoef="0" IVar="4" Cut="8.0000000000000000e+00" cType="1" res="5.8258783072233200e-02" rms="0.0000000000000000e+00" purity="4.9498146772384644e-01" nType="0">
        <Node pos="l" depth="1" NCoef="0" IVar="6" Cut="4.0000000000000000e+00" cType="1" res="0.0000000000000000e+00" rms="0.0000000000000000e+00" purity="6.8656718730926514e-01" nType="0">
          <Node pos="l" depth="2" NCoef="0" IVar="-1" Cut="0.0000000000000000e+00" cType="1" res="2.4080112576484680e-02" rms="2.5001364946365356e-01" purity="9.1313129663467407e-01" nType="-99"/>
          <Node pos="r" depth="2" NCoef="0" IVar="-1" Cut="0.0000000000000000e+00" cType="1" res="1.6292668879032135e-03" rms="4.1176810860633850e-01" purity="5.8103972673416138e-01" nType="-99"/>
        </Node>
        <Node pos="r" depth="1" NCoef="0" IVar="6" Cut="9.0000000000000000e+00" cType="1" res="-2.6950908359140158e-03" rms="7.0319473743438721e-02" purity="8.8245317339897156e-02" nType="0">
          <Node pos="l" depth="2" NCoef="0" IVar="-1" Cut="0.0000000000000000e+00" cType="1" res="-3.7152279168367386e-02" rms="4.8475405573844910e-01" purity="3.9075630903244019e-01" nType="-99"/>
          <Node pos="r" depth="2" NCoef="0" IVar="-1" Cut="0.0000000000000000e+00" cType="1" res="-1.9474426284432411e-02" rms="2.2342246770858765e-01" purity="6.1549868434667587e-02" nType="-99"/>
        </Node>
      </Node>
    </BinaryTree>
    <BinaryTree type="DecisionTree" boostWeight="1.0000000000000000e+00" itree="32">
      <Node pos="s" depth="0" NCoef="0" IVar="5" Cut="1.0000000000000000e+00" cType="1" res="2.9575981898233294e-04" rms="3.3364138007164001e-01" purity="5.0875455141067505e-01" nType="0">
        <Node pos="l" depth="1" NCoef="0" IVar="6" Cut="7.0000000000000000e+00" cType="1" res="1.1043155100196600e-03" rms="9.4284908846020699e-03" purity="9.2018246650695801e-01" nType="0">
          <Node pos="l" depth="2" NCoef="0" IVar="-1" Cut="0.0000000000000000e+00" cType="1" res="3.2921429723501205e-02" rms="1.8380574882030487e-01" purity="9.6309316158294678e-01" nType="-99"/>
          <Node pos="r" depth="2" NCoef="0" IVar="-1" Cut="0.0000000000000000e+00" cType="1" res="-8.3302808925509453e-03" rms="3.9627644419670105e-01" purity="6.4507043361663818e-01" nType="-99"/>
        </Node>
        <Node pos="r" depth="1" NCoef="0" IVar="4" Cut="1.0000000000000000e+00" cType="1" res="2.1395348012447357e-02" rms="1.9767934083938599e-01" purity="3.4093022346496582e-01" nType="0">
          <Node pos="l" depth="2" NCoef="0" IVar="-1" Cut="0.0000000000000000e+00" cType="1" res="-2.6485752314329147e-02" rms="4.4873321056365967e-01" purity="5.1653546094894409e-01" nType="-99"/>
          <Node pos="r" depth="2" NCoef="0" IVar="-1" Cut="0.0000000000000000e+00" cType="1" res="-2.4910881184041500e-03" rms="3.5641235113143921e-01" purity="3.2175409793853760e-01" nType="-99"/>
        </Node>
      </Node>
    </BinaryTree>
    <BinaryTree type="DecisionTree" boostWeight="1.0000000000000000e+00" itree="33">
      <Node pos="s" depth="0" NCoef="0" IVar="4" Cut="7.0000000000000000e+00" cType="1" res="7.0783637464046478e-02" rms="4.3863829970359802e-01" purity="5.0139337778091431e-01" nType="0">
        <Node pos="l" depth="1" NCoef="0" IVar="4" Cut="1.0000000000000000e+00" cType="1" res="6.5303137525916100e-03" rms="2.9710322618484497e-01" purity="7.1080380678176880e-01" nType="0">
          <Node pos="l" depth="2" NCoef="0" IVar="-1" Cut="0.0000000000000000e+00" cType="1" res="-1.2230372056365013e-02" rms="3.8976237177848816e-01" purity="6.6666668653488159e-01" nType="-99"/>
          <Node pos="r" depth="2" NCoef="0" IVar="-1" Cut="0.0000000000000000e+00" cType="1" res="8.9426273480057716e-03" rms="3.5592770576477051e-01" purity="7.1919357776641846e-01" nType="-99"/>
        </Node>
        <Node pos="r" depth="1" NCoef="0" IVar="5" Cut="7.0000000000000000e+00" cType="1" res="-3.4611925482749939e-02" rms="2.8277885913848877e-01" purity="1.2115505337715149e-01" nType="0">
          <Node pos="l" depth="2" NCoef="0" IVar="-1" Cut="0.0000000000000000e+00" cType="1" res="-3.5896401852369308e-02" rms="4.1555732488632202e-01" purity="3.2580643892288208e-01" nType="-99"/>
          <Node pos="r" depth="2" NCoef="0" IVar="-1" Cut="0.0000000000000000e+00" cType="1" res="-1.3525776565074921e-02" rms="2.6315525174140930e-01" purity="9.9095962941646576e-02" nType="-99"/>
        </Node>
      </Node>
    </BinaryTree>
    <BinaryTree type="DecisionTree" boostWeight="1.0000000000000000e+00" itree="34">
      <Node pos="s" depth="0" NCoef="0" IVar="3" Cut="9.0000000000000000e+00" cType="1" res="2.8596762567758560e-02" rms="8.6575038731098175e-02" purity="4.9778318405151367e-01" nType="0">
        <Node pos="l" depth="1" NCoef="0" IVar="4" Cut="1.0000000000000000e+00" cType="1" res="0.0000000000000000e+00" rms="0.0000000000000000e+00" purity="6.8082773685455322e-01" nType="0">
          <Node pos="l" depth="2" NCoef="0" IVar="-1" Cut="0.0000000000000000e+00" cType="1" res="-8.8648525997996330e-03" rms="3.9515426754951477e-01" purity="6.9911503791809082e-01" nType="-99"/>
          <Node pos="r" depth="2" NCoef="0" IVar="-1" Cut="0.0000000000000000e+00" cType="1" res="7.3349634185433388e-03" rms="3.6500370502471924e-01" purity="6.7780822515487671e-01" nType="-99"/>
        </Node>
        <Node pos="r" depth="1" NCoef="0" IVar="6" Cut="1.1000000000000000e+01" cType="1" res="0.0000000000000000e+00" rms="0.0000000000000000e+00" purity="5.5996973067522049e-02" nType="0">
          <Node pos="l" depth="2" NCoef="0" IVar="-1" Cut="0.0000000000000000e+00" cType="1" res="-2.2698400542140007e-02" rms="4.3786901235580444e-01" purity="2.5514402985572815e-01" nType="-99"/>
          <Node pos="r" depth="2" NCoef="0" IVar="-1" Cut="0.0000000000000000e+00" cType="1" res="-2.8598604723811150e-02" rms="1.7409397661685944e-01" purity="3.5833332687616348e-02" nType="-99"/>
        </Node>
      </Node>
    </BinaryTree>
    <BinaryTree type="DecisionTree" boostWeight="1.0000000000000000e+00" itree="35">
      <Node pos="s" depth="0" NCoef="0" IVar="3" Cut="1.0000000000000000e+00" cType="1" res="0.0000000000000000e+00" rms="0.0000000000000000e+00" purity="4.9675431847572327e-01" nType="0">
        <Node pos="l" depth="1" NCoef="0" IVar="0" Cut="2.5390164852142334e+00" cType="1" res="3.7994518876075745e-02" rms="2.4424214661121368e-01" purity="9.1590636968612671e-01" nType="0">
          <Node pos="l" depth="2" NCoef="0" IVar="-1" Cut="0.0000000000000000e+00" cType="1" res="2.2549863904714584e-02" rms="2.3817467689514160e-01" purity="9.1772431135177612e-01" nType="-99"/>
          <Node pos="r" depth="2" NCoef="0" IVar="-1" Cut="0.0000000000000000e+00" cType="1" res="-3.7085684016346931e-03" rms="2.9297906160354614e-01" purity="8.9830505847930908e-01" nType="-99"/>
        </Node>
        <Node pos="r" depth="1" NCoef="0" IVar="5" Cut="1.6000000000000000e+01" cType="1" res="-1.3368207029998302e-02" rms="3.6262056231498718e-01" purity="3.3587089180946350e-01" nType="0">
          <Node pos="l" depth="2" NCoef="0" IVar="-1" Cut="0.0000000000000000e+00" cType="1" res="3.9543307502754033e-04" rms="4.1407918930053711e-01" purity="4.8328793048858643e-01" nType="-99"/>
          <Node pos="r" depth="2" NCoef="0" IVar="-1" Cut="0.0000000000000000e+00" cType="1" res="-1.8992649391293526e-02" rms="2.5927886366844177e-01" purity="1.0043495148420334e-01" nType="-99"/>
        </Node>
      </Node>
    </BinaryTree>
    <BinaryTree type="DecisionTree" boostWeight="1.0000000000000000e+00" itree="36">
      <Node pos="s" depth="0" NCoef="0" IVar="4" Cut="1.1000000000000000e+01" cType="1" res="0.0000000000000000e+00" rms="0.0000000000000000e+00" purity="4.9374163150787354e-01" nType="0">
        <Node pos="l" depth="1" NCoef="0" IVar="5" Cut="1.0000000000000000e+00" cType="1" res="5.3889593109488487e-03" rms="3.7220460176467896e-01" purity="6.4587372541427612e-01" nType="0">
          <Node pos="l" depth="2" NCoef="0" IVar="-1" Cut="0.0000000000000000e+00" cType="1" res="1.7546121031045914e-02" rms="2.3583500087261200e-01" purity="9.2262369394302368e-01" nType="-99"/>
          <Node pos="r" depth="2" NCoef="0" IVar="-1" Cut="0.0000000000000000e+00" cType="1" res="-2.3478197399526834e-03" rms="4.3488863110542297e-01" purity="4.7629362344741821e-01" nType="-99"/>
        </Node>
        <Node pos="r" depth="1" NCoef="0" IVar="6" Cut="1.3000000000000000e+01" cType="1" res="-2.4870864581316710e-03" rms="0.0000000000000000e+00" purity="4.0053404867649078e-02" nType="0">
          <Node pos="l" depth="2" NCoef="0" IVar="-1" Cut="0.0000000000000000e+00" cType="1" res="-3.0313104391098022e-02" rms="4.1418293118476868e-01" purity="1.9409282505512238e-01" nType="-99"/>
          <Node pos="r" depth="2" NCoef="0" IVar="-1" Cut="0.0000000000000000e+00" cType="1" res="-3.4679356962442398e-02" rms="1.3732983171939850e-01" purity="2.1890547126531601e-02" nType="-99"/>
        </Node>
      </Node>
    </BinaryTree>
    <BinaryTree type="DecisionTree" boostWeight="1.0000000000000000e+00" itree="37">
      <Node pos="s" depth="0" NCoef="0" IVar="6" Cut="1.5000000000000000e+01" cType="1" res="0.0000000000000000e+00" rms="0.0000000000000000e+00" purity="5.0424391031265259e-01" nType="0">
        <Node pos="l" depth="1" NCoef="0" IVar="1" Cut="1.0598951578140259e+00" cType="1" res="2.1999072283506393e-02" rms="3.7101143598556519e-01" purity="7.1829128265380859e-01" nType="0">
          <Node pos="l" depth="2" NCoef="0" IVar="-1" Cut="0.0000000000000000e+00" cType="1" res="-6.8472004495561123e-03" rms="3.6821803450584412e-01" purity="7.6182430982589722e-01" nType="-99"/>
          <Node pos="r" depth="2" NCoef="0" IVar="-1" Cut="0.0000000000000000e+00" cType="1" res="1.0506711900234222e-02" rms="3.7099924683570862e-01" purity="7.0772701501846313e-01" nType="-99"/>
        </Node>
        <Node pos="r" depth="1" NCoef="0" IVar="4" Cut="4.0000000000000000e+00" cType="1" res="2.7187824249267578e-01" rms="0.0000000000000000e+00" purity="5.5344171822071075e-02" nType="0">
          <Node pos="l" depth="2" NCoef="0" IVar="-1" Cut="0.0000000000000000e+00" cType="1" res="-3.3605638891458511e-02" rms="3.0262136459350586e-01" purity="9.9630996584892273e-02" nType="-99"/>
          <Node pos="r" depth="2" NCoef="0" IVar="-1" Cut="0.0000000000000000e+00" cType="1" res="-1.9952556118369102e-02" rms="2.0621933043003082e-01" purity="5.0763357430696487e-02" nType="-99"/>
        </Node>
      </Node>
    </BinaryTree>
    <BinaryTree type="DecisionTree" boostWeight="1.0000000000000000e+00" itree="38">
      <Node pos="s" depth="0" NCoef="0" IVar="4" Cut="1.7000000000000000e+01" cType="1" res="6.5171301364898682e-02" rms="0.0000000000000000e+00" purity="5.0072538852691650e-01" nType="0">
        <Node pos="l" depth="1" NCoef="0" IVar="4" Cut="1.0000000000000000e+00" cType="1" res="1.0264674201607704e-02" rms="3.6513760685920715e-01" purity="6.0215634107589722e-01" nType="0">
          <Node pos="l" depth="2" NCoef="0" IVar="-1" Cut="0.0000000000000000e+00" cType="1" res="-9.4558801501989365e-03" rms="3.8999834656715393e-01" purity="6.6703784465789795e-01" nType="-99"/>
          <Node pos="r" depth="2" NCoef="0" IVar="-1" Cut="0.0000000000000000e+00" cType="1" res="5.9762047603726387e-03" rms="3.6187165975570679e-01" purity="5.9322291612625122e-01" nType="-99"/>
        </Node>
        <Node pos="r" depth="1" NCoef="0" IVar="6" Cut="2.7000000000000000e+01" cType="1" res="0.0000000000000000e+00" rms="1.0434191131591797e+02" purity="1.2329655699431896e-02" nType="0">
          <Node pos="l" depth="2" NCoef="0" IVar="-1" Cut="0.0000000000000000e+00" cType="1" res="-2.9602712020277977e-02" rms="2.4175556004047394e-01" purity="6.2043797224760056e-02" nType="-99"/>
          <Node pos="r" depth="2" NCoef="0" IVar="-1" Cut="0.0000000000000000e+00" cType="1" res="-4.9667611718177795e-02" rms="3.8253884762525558e-02" purity="1.5785319264978170e-03" nType="-99"/>
        </Node>
      </Node>
    </BinaryTree>
    <BinaryTree type="DecisionTree" boostWeight="1.0000000000000000e+00" itree="39">
      <Node pos="s" depth="0" NCoef="0" IVar="3" Cut="1.6000000000000000e+01" cType="1" res="2.3820174857974052e-02" rms="7.8374154865741730e-02" purity="5.0693356990814209e-01" nType="0">
        <Node pos="l" depth="1" NCoef="0" IVar="4" Cut="1.0000000000000000e+00" cType="1" res="5.6656246306374669e-04" rms="6.2391185760498047e-01" purity="6.1345106363296509e-01" nType="0">
          <Node pos="l" depth="2" NCoef="0" IVar="-1" Cut="0.0000000000000000e+00" cType="1" res="-1.3839738443493843e-02" rms="3.9832121133804321e-01" purity="6.6461539268493652e-01" nType="-99"/>
          <Node pos="r" depth="2" NCoef="0" IVar="-1" Cut="0.0000000000000000e+00" cType="1" res="6.1892205849289894e-03" rms="3.6425283551216125e-01" purity="6.0563820600509644e-01" nType="-99"/>
        </Node>
        <Node pos="r" depth="1" NCoef="0" IVar="4" Cut="1.1000000000000000e+01" cType="1" res="1.2515802681446075e-01" rms="0.0000000000000000e+00" purity="1.1378002353012562e-02" nType="0">
          <Node pos="l" depth="2" NCoef="0" IVar="-1" Cut="0.0000000000000000e+00" cType="1" res="-3.1490415334701538e-02" rms="2.4089081585407257e-01" purity="6.4150944352149963e-02" nType="-99"/>
          <Node pos="r" depth="2" NCoef="0" IVar="-1" Cut="0.0000000000000000e+00" cType="1" res="-5.0753906369209290e-02" rms="2.7371302247047424e-02" purity="7.5930141611024737e-04" nType="-99"/>
        </Node>
      </Node>
    </BinaryTree>
    <BinaryTree type="DecisionTree" boostWeight="1.0000000000000000e+00" itree="40">
      <Node pos="s" depth="0" NCoef="0" IVar="4" Cut="8.0000000000000000e+00" cType="1" res="0.0000000000000000e+00" rms="0.0000000000000000e+00" purity="5.0450450181961060e-01" nType="0">
        <Node pos="l" depth="1" NCoef="0" IVar="5" Cut="2.0000000000000000e+00" cType="1" res="1.0880260728299618e-02" rms="3.6731848120689392e-01" purity="6.9424170255661011e-01" nType="0">
          <Node pos="l" depth="2" NCoef="0" IVar="-1" Cut="0.0000000000000000e+00" cType="1" res="1.5399163588881493e-02" rms="2.4052634835243225e-01" purity="9.1574686765670776e-01" nType="-99"/>
          <Node pos="r" depth="2" NCoef="0" IVar="-1" Cut="0.0000000000000000e+00" cType="1" res="-7.6483353041112423e-05" rms="4.4276756048202515e-01" purity="5.1958227157592773e-01" nType="-99"/>
        </Node>
        <Node pos="r" depth="1" NCoef="0" IVar="6" Cut="1.0000000000000000e+01" cType="1" res="0.0000000000000000e+00" rms="3.7746752929687500e+02" purity="9.0587399899959564e-02" nType="0">
          <Node pos="l" depth="2" NCoef="0" IVar="-1" Cut="0.0000000000000000e+00" cType="1" res="-3.3751532435417175e-02" rms="4.5999440550804138e-01" purity="3.4201955795288086e-01" nType="-99"/>
          <Node pos="r" depth="2" NCoef="0" IVar="-1" Cut="0.0000000000000000e+00" cType="1" res="-9.7702695056796074e-03" rms="2.2120714187622070e-01" purity="5.9944421052932739e-02" nType="-99"/>
        </Node>
      </Node>
    </BinaryTree>
    <BinaryTree type="DecisionTree" boostWeight="1.0000000000000000e+00" itree="41">
      <Node pos="s" depth="0" NCoef="0" IVar="6" Cut="5.0000000000000000e+00" cType="1" res="1.1253657430643216e-04" rms="0.0000000000000000e+00" purity="4.9853703379631042e-01" nType="0">
        <Node pos="l" depth="1" NCoef="0" IVar="2" Cut="-2.2153508663177490e+00" cType="1" res="2.3389780893921852e-02" rms="3.0014577507972717e-01" purity="8.7706357240676880e-01" nType="0">
          <Node pos="l" depth="2" NCoef="0" IVar="-1" Cut="0.0000000000000000e+00" cType="1" res="-1.3214304111897945e-02" rms="3.8511061668395996e-01" purity="7.6223778724670410e-01" nType="-99"/>
          <Node pos="r" depth="2" NCoef="0" IVar="-1" Cut="0.0000000000000000e+00" cType="1" res="1.4080083929002285e-02" rms="2.8831049799919128e-01" purity="8.8988673686981201e-01" nType="-99"/>
        </Node>
        <Node pos="r" depth="1" NCoef="0" IVar="2" Cut="-7.1118259429931641e-01" cType="1" res="-1.6882125288248062e-02" rms="3.5563597083091736e-01" purity="3.2008612155914307e-01" nType="0">
          <Node pos="l" depth="2" NCoef="0" IVar="-1" Cut="0.0000000000000000e+00" cType="1" res="-4.5339441858232021e-03" rms="3.5226207971572876e-01" purity="3.0640619993209839e-01" nType="-99"/>
          <Node pos="r" depth="2" NCoef="0" IVar="-1" Cut="0.0000000000000000e+00" cType="1" res="-3.3112701028585434e-02" rms="3.9650043845176697e-01" purity="5.3781515359878540e-01" nType="-99"/>
        </Node>
      </Node>
    </BinaryTree>
    <BinaryTree type="DecisionTree" boostWeight="1.0000000000000000e+00" itree="42">
      <Node pos="s" depth="0" NCoef="0" IVar="0" Cut="6.9606935977935791e-01" cType="1" res="3.8175852969288826e-03" rms="3.3561557531356812e-01" purity="5.0662064552307129e-01" nType="0">
        <Node pos="l" depth="1" NCoef="0" IVar="5" Cut="2.0000000000000000e+00" cType="1" res="-1.7980845645070076e-02" rms="1.5825426578521729e-01" purity="2.6718404889106750e-01" nType="0">
          <Node pos="l" depth="2" NCoef="0" IVar="-1" Cut="0.0000000000000000e+00" cType="1" res="2.8222376480698586e-02" rms="1.8441021442413330e-01" purity="9.3501806259155273e-01" nType="-99"/>
          <Node pos="r" depth="2" NCoef="0" IVar="-1" Cut="0.0000000000000000e+00" cType="1" res="-2.6987697929143906e-02" rms="2.2552379965782166e-01" purity="9.5260225236415863e-02" nType="-99"/>
        </Node>
        <Node pos="r" depth="1" NCoef="0" IVar="4" Cut="4.0000000000000000e+00" cType="1" res="1.5921031590551138e-03" rms="0.0000000000000000e+00" purity="6.0977554321289062e-01" nType="0">
          <Node pos="l" depth="2" NCoef="0" IVar="-1" Cut="0.0000000000000000e+00" cType="1" res="8.9622568339109421e-03" rms="3.5236820578575134e-01" purity="7.5931149721145630e-01" nType="-99"/>
          <Node pos="r" depth="2" NCoef="0" IVar="-1" Cut="0.0000000000000000e+00" cType="1" res="1.3607654545921832e-04" rms="3.9999914169311523e-01" purity="4.1614907979965210e-01" nType="-99"/>
        </Node>
      </Node>
    </BinaryTree>
    <BinaryTree type="DecisionTree" boostWeight="1.0000000000000000e+00" itree="43">
      <Node pos="s" depth="0" NCoef="0" IVar="4" Cut="8.0000000000000000e+00" cType="1" res="1.4930400066077709e-02" rms="2.1739937365055084e-01" purity="4.9494835734367371e-01" nType="0">
        <Node pos="l" depth="1" NCoef="0" IVar="1" Cut="6.5599314868450165e-02" cType="1" res="7.9806018620729446e-03" rms="3.6636921763420105e-01" purity="6.8547987937927246e-01" nType="0">
          <Node pos="l" depth="2" NCoef="0" IVar="-1" Cut="0.0000000000000000e+00" cType="1" res="-2.0174918696284294e-02" rms="3.8361221551895142e-01" purity="7.4820142984390259e-01" nType="-99"/>
          <Node pos="r" depth="2" NCoef="0" IVar="-1" Cut="0.0000000000000000e+00" cType="1" res="4.3753841891884804e-03" rms="3.6464384198188782e-01" purity="6.8087357282638550e-01" nType="-99"/>
        </Node>
        <Node pos="r" depth="1" NCoef="0" IVar="6" Cut="1.0000000000000000e+01" cType="1" res="1.4910440673828125e+03" rms="0.0000000000000000e+00" purity="8.2118734717369080e-02" nType="0">
          <Node pos="l" depth="2" NCoef="0" IVar="-1" Cut="0.0000000000000000e+00" cType="1" res="-2.9279118403792381e-02" rms="4.7164684534072876e-01" purity="3.3568903803825378e-01" nType="-99"/>
          <Node pos="r" depth="2" NCoef="0" IVar="-1" Cut="0.0000000000000000e+00" cType="1" res="-1.1251158080995083e-02" rms="2.1001324057579041e-01" purity="5.3754940629005432e-02" nType="-99"/>
        </Node>
      </Node>
    </BinaryTree>
    <BinaryTree type="DecisionTree" boostWeight="1.0000000000000000e+00" itree="44">
      <Node pos="s" depth="0" NCoef="0" IVar="6" Cut="3.0000000000000000e+01" cType="1" res="1.1101243580924347e-04" rms="0.0000000000000000e+00" purity="5.0266432762145996e-01" nType="0">
        <Node pos="l" depth="1" NCoef="0" IVar="4" Cut="1.0000000000000000e+00" cType="1" res="4.9527629744261503e-04" rms="4.6687713265419006e-01" purity="6.0670691728591919e-01" nType="0">
          <Node pos="l" depth="2" NCoef="0" IVar="-1" Cut="0.0000000000000000e+00" cType="1" res="-6.8231350742280483e-03" rms="3.9141115546226501e-01" purity="6.7449665069580078e-01" nType="-99"/>
          <Node pos="r" depth="2" NCoef="0" IVar="-1" Cut="0.0000000000000000e+00" cType="1" res="5.5055534467101097e-03" rms="3.7031984329223633e-01" purity="5.9746992588043213e-01" nType="-99"/>
        </Node>
        <Node pos="r" depth="1" NCoef="0" IVar="3" Cut="1.4000000000000000e+01" cType="1" res="0.0000000000000000e+00" rms="0.0000000000000000e+00" purity="3.2195749226957560e-03" nType="0">
          <Node pos="l" depth="2" NCoef="0" IVar="-1" Cut="0.0000000000000000e+00" cType="1" res="-4.2457431554794312e-02" rms="1.1144688725471497e-01" purity="1.2448132969439030e-02" nType="-99"/>
          <Node pos="r" depth="2" NCoef="0" IVar="-1" Cut="0.0000000000000000e+00" cType="1" res="-4.8606943339109421e-02" rms="3.8252174854278564e-02" purity="1.5243901871144772e-03" nType="-99"/>
        </Node>
      </Node>
    </BinaryTree>
    <BinaryTree type="DecisionTree" boostWeight="1.0000000000000000e+00" itree="45">
      <Node pos="s" depth="0" NCoef="0" IVar="5" Cut="1.6000000000000000e+01" cType="1" res="-2.4341219104826450e-03" rms="3.2903981208801270e-01" purity="4.9433586001396179e-01" nType="0">
        <Node pos="l" depth="1" NCoef="0" IVar="6" Cut="4.0000000000000000e+00" cType="1" res="1.7182663083076477e-02" rms="2.4064308404922485e-01" purity="6.4969038963317871e-01" nType="0">
          <Node pos="l" depth="2" NCoef="0" IVar="-1" Cut="0.0000000000000000e+00" cType="1" res="1.7799509689211845e-02" rms="2.5369247794151306e-01" purity="9.1641181707382202e-01" nType="-99"/>
          <Node pos="r" depth="2" NCoef="0" IVar="-1" Cut="0.0000000000000000e+00" cType="1" res="-1.4963142166379839e-04" rms="3.8973569869995117e-01" purity="5.3334814310073853e-01" nType="-99"/>
        </Node>
        <Node pos="r" depth="1" NCoef="0" IVar="2" Cut="-1.5427130460739136e+00" cType="1" res="-3.1345725059509277e-02" rms="2.5322064757347107e-01" purity="9.9842764437198639e-02" nType="0">
          <Node pos="l" depth="2" NCoef="0" IVar="-1" Cut="0.0000000000000000e+00" cType="1" res="-1.6355238854885101e-02" rms="2.3694901168346405e-01" purity="8.6312115192413330e-02" nType="-99"/>
          <Node pos="r" depth="2" NCoef="0" IVar="-1" Cut="0.0000000000000000e+00" cType="1" res="-2.8171017765998840e-02" rms="3.6466696858406067e-01" purity="2.2400000691413879e-01" nType="-99"/>
        </Node>
      </Node>
    </BinaryTree>
    <BinaryTree type="DecisionTree" boostWeight="1.0000000000000000e+00" itree="46">
      <Node pos="s" depth="0" NCoef="0" IVar="4" Cut="4.0000000000000000e+00" cType="1" res="8.6975665763020515e-03" rms="0.0000000000000000e+00" purity="5.0071561336517334e-01" nType="0">
        <Node pos="l" depth="1" NCoef="0" IVar="4" Cut="1.0000000000000000e+00" cType="1" res="1.1369014391675591e-03" rms="1.6359212994575500e-01" purity="7.5414431095123291e-01" nType="0">
          <Node pos="l" depth="2" NCoef="0" IVar="-1" Cut="0.0000000000000000e+00" cType="1" res="-1.1638835072517395e-02" rms="4.0056949853897095e-01" purity="6.5005660057067871e-01" nType="-99"/>
          <Node pos="r" depth="2" NCoef="0" IVar="-1" Cut="0.0000000000000000e+00" cType="1" res="1.1097231879830360e-02" rms="3.2331934571266174e-01" purity="7.8117644786834717e-01" nType="-99"/>
        </Node>
        <Node pos="r" depth="1" NCoef="0" IVar="2" Cut="-1.1201313734054565e+00" cType="1" res="-1.3139991089701653e-02" rms="3.2817685604095459e-01" purity="2.7458333969116211e-01" nType="0">
          <Node pos="l" depth="2" NCoef="0" IVar="-1" Cut="0.0000000000000000e+00" cType="1" res="-2.1444631274789572e-03" rms="3.2149985432624817e-01" purity="2.1921122074127197e-01" nType="-99"/>
          <Node pos="r" depth="2" NCoef="0" IVar="-1" Cut="0.0000000000000000e+00" cType="1" res="-2.5317190214991570e-02" rms="3.6221164464950562e-01" purity="6.1769115924835205e-01" nType="-99"/>
        </Node>
      </Node>
    </BinaryTree>
    <BinaryTree type="DecisionTree" boostWeight="1.0000000000000000e+00" itree="47">
      <Node pos="s" depth="0" NCoef="0" IVar="6" Cut="1.7000000000000000e+01" cType="1" res="-6.8246602313593030e-04" rms="0.0000000000000000e+00" purity="5.0110739469528198e-01" nType="0">
        <Node pos="l" depth="1" NCoef="0" IVar="1" Cut="-1.6462561488151550e-01" cType="1" res="5.5005848407745361e-03" rms="3.7676155567169189e-01" purity="6.9121325016021729e-01" nType="0">
          <Node pos="l" depth="2" NCoef="0" IVar="-1" Cut="0.0000000000000000e+00" cType="1" res="-1.8840277567505836e-02" rms="3.8289225101470947e-01" purity="7.5487464666366577e-01" nType="-99"/>
          <Node pos="r" depth="2" NCoef="0" IVar="-1" Cut="0.0000000000000000e+00" cType="1" res="3.0219506006687880e-03" rms="3.7613013386726379e-01" purity="6.8742752075195312e-01" nType="-99"/>
        </Node>
        <Node pos="r" depth="1" NCoef="0" IVar="4" Cut="5.0000000000000000e+00" cType="1" res="2.3386484384536743e-01" rms="0.0000000000000000e+00" purity="3.9483673870563507e-02" nType="0">
          <Node pos="l" depth="2" NCoef="0" IVar="-1" Cut="0.0000000000000000e+00" cType="1" res="-2.7137150987982750e-02" rms="2.9912680387496948e-01" purity="9.8039217293262482e-02" nType="-99"/>
          <Node pos="r" depth="2" NCoef="0" IVar="-1" Cut="0.0000000000000000e+00" cType="1" res="-2.0649306476116180e-02" rms="1.6866920888423920e-01" purity="3.3207230269908905e-02" nType="-99"/>
        </Node>
      </Node>
    </BinaryTree>
    <BinaryTree type="DecisionTree" boostWeight="1.0000000000000000e+00" itree="48">
      <Node pos="s" depth="0" NCoef="0" IVar="6" Cut="8.0000000000000000e+00" cType="1" res="0.0000000000000000e+00" rms="0.0000000000000000e+00" purity="4.9604016542434692e-01" nType="0">
        <Node pos="l" depth="1" NCoef="0" IVar="5" Cut="9.0000000000000000e+00" cType="1" res="9.8057929426431656e-03" rms="3.2837712764739990e-01" purity="8.3325779438018799e-01" nType="0">
          <Node pos="l" depth="2" NCoef="0" IVar="-1" Cut="0.0000000000000000e+00" cType="1" res="1.1586754582822323e-02" rms="2.8071799874305725e-01" purity="9.0147644281387329e-01" nType="-99"/>
          <Node pos="r" depth="2" NCoef="0" IVar="-1" Cut="0.0000000000000000e+00" cType="1" res="-7.9987449571490288e-03" rms="4.7071424126625061e-01" purity="5.6390136480331421e-01" nType="-99"/>
        </Node>
        <Node pos="r" depth="1" NCoef="0" IVar="5" Cut="7.0000000000000000e+00" cType="1" res="-2.3611739277839661e-02" rms="3.1823727488517761e-01" purity="1.6897384822368622e-01" nType="0">
          <Node pos="l" depth="2" NCoef="0" IVar="-1" Cut="0.0000000000000000e+00" cType="1" res="-2.4294678121805191e-02" rms="4.1674625873565674e-01" purity="3.5800603032112122e-01" nType="-99"/>
          <Node pos="r" depth="2" NCoef="0" IVar="-1" Cut="0.0000000000000000e+00" cType="1" res="-6.0752453282475471e-03" rms="2.9693681001663208e-01" purity="1.3679608702659607e-01" nType="-99"/>
        </Node>
      </Node>
    </BinaryTree>
    <BinaryTree type="DecisionTree" boostWeight="1.0000000000000000e+00" itree="49">
      <Node pos="s" depth="0" NCoef="0" IVar="1" Cut="1.4296324253082275e+00" cType="1" res="-3.2828985713422298e-03" rms="3.3375743031501770e-01" purity="4.9278140068054199e-01" nType="0">
        <Node pos="l" depth="1" NCoef="0" IVar="5" Cut="6.0000000000000000e+00" cType="1" res="-2.8678100556135178e-02" rms="3.6546182632446289e-01" purity="7.3430490493774414e-01" nType="0">
          <Node pos="l" depth="2" NCoef="0" IVar="-1" Cut="0.0000000000000000e+00" cType="1" res="-4.5664487406611443e-03" rms="3.1107386946678162e-01" purity="8.6317569017410278e-01" nType="-99"/>
          <Node pos="r" depth="2" NCoef="0" IVar="-1" Cut="0.0000000000000000e+00" cType="1" res="-1.7691032961010933e-02" rms="4.6067124605178833e-01" purity="4.7999998927116394e-01" nType="-99"/>
        </Node>
        <Node pos="r" depth="1" NCoef="0" IVar="3" Cut="5.0000000000000000e+00" cType="1" res="0.0000000000000000e+00" rms="0.0000000000000000e+00" purity="4.3194013833999634e-01" nType="0">
          <Node pos="l" depth="2" NCoef="0" IVar="-1" Cut="0.0000000000000000e+00" cType="1" res="6.8596932105720043e-03" rms="3.5165080428123474e-01" purity="7.3873358964920044e-01" nType="-99"/>
          <Node pos="r" depth="2" NCoef="0" IVar="-1" Cut="0.0000000000000000e+00" cType="1" res="-5.9979138895869255e-03" rms="2.9318803548812866e-01" purity="1.3115212321281433e-01" nType="-99"/>
        </Node>
      </Node>
    </BinaryTree>
    <BinaryTree type="DecisionTree" boostWeight="1.0000000000000000e+00" itree="50">
      <Node pos="s" depth="0" NCoef="0" IVar="4" Cut="1.4000000000000000e+01" cType="1" res="7.5681693851947784e-02" rms="4.3924564123153687e-01" purity="5.0639957189559937e-01" nType="0">
        <Node pos="l" depth="1" NCoef="0" IVar="4" Cut="1.0000000000000000e+00" cType="1" res="7.8519247472286224e-03" rms="3.6248135566711426e-01" purity="6.2732571363449097e-01" nType="0">
          <Node pos="l" depth="2" NCoef="0" IVar="-1" Cut="0.0000000000000000e+00" cType="1" res="-1.0476058349013329e-02" rms="3.9682096242904663e-01" purity="6.6203206777572632e-01" nType="-99"/>
          <Node pos="r" depth="2" NCoef="0" IVar="-1" Cut="0.0000000000000000e+00" cType="1" res="5.2278637886047363e-03" rms="3.6120414733886719e-01" purity="6.2214773893356323e-01" nType="-99"/>
        </Node>
        <Node pos="r" depth="1" NCoef="0" IVar="0" Cut="8.5937911272048950e-01" cType="1" res="-2.7829052880406380e-02" rms="1.2787058949470520e-01" purity="1.7947280779480934e-02" nType="0">
          <Node pos="l" depth="2" NCoef="0" IVar="-1" Cut="0.0000000000000000e+00" cType="1" res="-3.3910199999809265e-02" rms="9.2807792127132416e-02" purity="1.1154855601489544e-02" nType="-99"/>
          <Node pos="r" depth="2" NCoef="0" IVar="-1" Cut="0.0000000000000000e+00" cType="1" res="-3.8059201091527939e-02" rms="2.4288387596607208e-01" purity="5.7915057986974716e-02" nType="-99"/>
        </Node>
      </Node>
    </BinaryTree>
    <BinaryTree type="DecisionTree" boostWeight="1.0000000000000000e+00" itree="51">
      <Node pos="s" depth="0" NCoef="0" IVar="5" Cut="1.6000000000000000e+01" cType="1" res="6.8473871797323227e-03" rms="3.3469170331954956e-01" purity="5.0304639339447021e-01" nType="0">
        <Node pos="l" depth="1" NCoef="0" IVar="1" Cut="7.5749590992927551e-02" cType="1" res="1.6832593828439713e-02" rms="3.6102396249771118e-01" purity="6.5811306238174438e-01" nType="0">
          <Node pos="l" depth="2" NCoef="0" IVar="-1" Cut="0.0000000000000000e+00" cType="1" res="-1.5241774730384350e-02" rms="3.6129084229469299e-01" purity="7.5912410020828247e-01" nType="-99"/>
          <Node pos="r" depth="2" NCoef="0" IVar="-1" Cut="0.0000000000000000e+00" cType="1" res="7.8616719692945480e-03" rms="3.6066851019859314e-01" purity="6.5130394697189331e-01" nType="-99"/>
        </Node>
        <Node pos="r" depth="1" NCoef="0" IVar="6" Cut="8.0000000000000000e+00" cType="1" res="6.6602700195312500e+03" rms="0.0000000000000000e+00" purity="1.0242159664630890e-01" nType="0">
          <Node pos="l" depth="2" NCoef="0" IVar="-1" Cut="0.0000000000000000e+00" cType="1" res="-1.8088737502694130e-02" rms="4.7122091054916382e-01" purity="4.2436975240707397e-01" nType="-99"/>
          <Node pos="r" depth="2" NCoef="0" IVar="-1" Cut="0.0000000000000000e+00" cType="1" res="-8.4268525242805481e-03" rms="2.1868975460529327e-01" purity="6.8829461932182312e-02" nType="-99"/>
        </Node>
      </Node>
    </BinaryTree>
    <BinaryTree type="DecisionTree" boostWeight="1.0000000000000000e+00" itree="52">
      <Node pos="s" depth="0" NCoef="0" IVar="6" Cut="4.0000000000000000e+00" cType="1" res="-1.0698313126340508e-03" rms="1.3914361596107483e-01" purity="5.0292462110519409e-01" nType="0">
        <Node pos="l" depth="1" NCoef="0" IVar="5" Cut="8.0000000000000000e+00" cType="1" res="2.9502782970666885e-02" rms="2.5585046410560608e-01" purity="9.0863955020904541e-01" nType="0">
          <Node pos="l" depth="2" NCoef="0" IVar="-1" Cut="0.0000000000000000e+00" cType="1" res="2.6882087811827660e-02" rms="2.0060946047306061e-01" purity="9.5370370149612427e-01" nType="-99"/>
          <Node pos="r" depth="2" NCoef="0" IVar="-1" Cut="0.0000000000000000e+00" cType="1" res="-6.5542957745492458e-03" rms="4.7300833463668823e-01" purity="6.3636362552642822e-01" nType="-99"/>
        </Node>
        <Node pos="r" depth="1" NCoef="0" IVar="4" Cut="1.0000000000000000e+00" cType="1" res="8.7980702519416809e-03" rms="1.2057670950889587e-01" purity="3.8697317242622375e-01" nType="0">
          <Node pos="l" depth="2" NCoef="0" IVar="-1" Cut="0.0000000000000000e+00" cType="1" res="-1.2431490235030651e-02" rms="4.1778382658958435e-01" purity="5.7189542055130005e-01" nType="-99"/>
          <Node pos="r" depth="2" NCoef="0" IVar="-1" Cut="0.0000000000000000e+00" cType="1" res="-8.6047174409031868e-04" rms="3.4718769788742065e-01" purity="3.6938616633415222e-01" nType="-99"/>
        </Node>
      </Node>
    </BinaryTree>
    <BinaryTree type="DecisionTree" boostWeight="1.0000000000000000e+00" itree="53">
      <Node pos="s" depth="0" NCoef="0" IVar="6" Cut="1.4000000000000000e+01" cType="1" res="1.1165699106641114e-04" rms="0.0000000000000000e+00" purity="5.0837427377700806e-01" nType="0">
        <Node pos="l" depth="1" NCoef="0" IVar="6" Cut="1.0000000000000000e+01" cType="1" res="1.6036678105592728e-02" rms="3.6061620712280273e-01" purity="7.3340076208114624e-01" nType="0">
          <Node pos="l" depth="2" NCoef="0" IVar="-1" Cut="0.0000000000000000e+00" cType="1" res="3.1916799489408731e-03" rms="3.5130929946899414e-01" purity="7.9738819599151611e-01" nType="-99"/>
          <Node pos="r" depth="2" NCoef="0" IVar="-1" Cut="0.0000000000000000e+00" cType="1" res="1.4993707649409771e-02" rms="4.6840685606002808e-01" purity="3.6590909957885742e-01" nType="-99"/>
        </Node>
        <Node pos="r" depth="1" NCoef="0" IVar="5" Cut="8.0000000000000000e+00" cType="1" res="-1.5948131680488586e-02" rms="2.3535285890102386e-01" purity="6.6512241959571838e-02" nType="0">
          <Node pos="l" depth="2" NCoef="0" IVar="-1" Cut="0.0000000000000000e+00" cType="1" res="-3.3428285270929337e-02" rms="3.1535026431083679e-01" purity="9.4262294471263885e-02" nType="-99"/>
          <Node pos="r" depth="2" NCoef="0" IVar="-1" Cut="0.0000000000000000e+00" cType="1" res="-6.7995209246873856e-03" rms="2.2661633789539337e-01" purity="6.4074873924255371e-02" nType="-99"/>
        </Node>
      </Node>
    </BinaryTree>
    <BinaryTree type="DecisionTree" boostWeight="1.0000000000000000e+00" itree="54">
      <Node pos="s" depth="0" NCoef="0" IVar="3" Cut="1.6000000000000000e+01" cType="1" res="2.8432348743081093e-02" rms="8.5897311568260193e-02" purity="4.9551942944526672e-01" nType="0">
        <Node pos="l" depth="1" NCoef="0" IVar="5" Cut="9.0000000000000000e+00" cType="1" res="6.1758505180478096e-03" rms="3.6233803629875183e-01" purity="6.0857689380645752e-01" nType="0">
          <Node pos="l" depth="2" NCoef="0" IVar="-1" Cut="0.0000000000000000e+00" cType="1" res="-2.2165498230606318e-03" rms="3.1770500540733337e-01" purity="7.8536921739578247e-01" nType="-99"/>
          <Node pos="r" depth="2" NCoef="0" IVar="-1" Cut="0.0000000000000000e+00" cType="1" res="6.8189455196261406e-03" rms="4.2018860578536987e-01" purity="3.5025209188461304e-01" nType="-99"/>
        </Node>
        <Node pos="r" depth="1" NCoef="0" IVar="4" Cut="1.2000000000000000e+01" cType="1" res="1.2230634689331055e-02" rms="3.9970554411411285e-02" purity="1.3395457528531551e-02" nType="0">
          <Node pos="l" depth="2" NCoef="0" IVar="-1" Cut="0.0000000000000000e+00" cType="1" res="-2.7831908315420151e-02" rms="2.2275473177433014e-01" purity="5.9016391634941101e-02" nType="-99"/>
          <Node pos="r" depth="2" NCoef="0" IVar="-1" Cut="0.0000000000000000e+00" cType="1" res="-4.3153803795576096e-02" rms="5.2711758762598038e-02" purity="3.5410765558481216e-03" nType="-99"/>
        </Node>
      </Node>
    </BinaryTree>
    <BinaryTree type="DecisionTree" boostWeight="1.0000000000000000e+00" itree="55">
      <Node pos="s" depth="0" NCoef="0" IVar="6" Cut="5.0000000000000000e+00" cType="1" res="0.0000000000000000e+00" rms="9.2758162645623088e-04" purity="4.9757710099220276e-01" nType="0">
        <Node pos="l" depth="1" NCoef="0" IVar="5" Cut="1.2000000000000000e+01" cType="1" res="2.1843610331416130e-02" rms="2.8348591923713684e-01" purity="8.8588696718215942e-01" nType="0">
          <Node pos="l" depth="2" NCoef="0" IVar="-1" Cut="0.0000000000000000e+00" cType="1" res="1.5288075432181358e-02" rms="2.5807511806488037e-01" purity="9.1908878087997437e-01" nType="-99"/>
          <Node pos="r" depth="2" NCoef="0" IVar="-1" Cut="0.0000000000000000e+00" cType="1" res="-5.5668554268777370e-03" rms="4.6258178353309631e-01" purity="5.6928837299346924e-01" nType="-99"/>
        </Node>
        <Node pos="r" depth="1" NCoef="0" IVar="4" Cut="1.0000000000000000e+00" cType="1" res="0.0000000000000000e+00" rms="3.2106015086174011e-01" purity="3.2328066229820251e-01" nType="0">
          <Node pos="l" depth="2" NCoef="0" IVar="-1" Cut="0.0000000000000000e+00" cType="1" res="-1.6152080148458481e-02" rms="4.0536656975746155e-01" purity="5.1015800237655640e-01" nType="-99"/>
          <Node pos="r" depth="2" NCoef="0" IVar="-1" Cut="0.0000000000000000e+00" cType="1" res="-6.4865365857258439e-04" rms="3.4556680917739868e-01" purity="3.0906593799591064e-01" nType="-99"/>
        </Node>
      </Node>
    </BinaryTree>
    <BinaryTree type="DecisionTree" boostWeight="1.0000000000000000e+00" itree="56">
      <Node pos="s" depth="0" NCoef="0" IVar="6" Cut="6.0000000000000000e+00" cType="1" res="0.0000000000000000e+00" rms="1.3433577120304108e-01" purity="4.9875369668006897e-01" nType="0">
        <Node pos="l" depth="1" NCoef="0" IVar="1" Cut="6.1455166339874268e-01" cType="1" res="1.9495833665132523e-02" rms="2.9741770029067993e-01" purity="8.6933946609497070e-01" nType="0">
          <Node pos="l" depth="2" NCoef="0" IVar="-1" Cut="0.0000000000000000e+00" cType="1" res="-3.5848887637257576e-03" rms="3.4166339039802551e-01" purity="8.1042653322219849e-01" nType="-99"/>
          <Node pos="r" depth="2" NCoef="0" IVar="-1" Cut="0.0000000000000000e+00" cType="1" res="1.2421031482517719e-02" rms="2.8621476888656616e-01" purity="8.8249826431274414e-01" nType="-99"/>
        </Node>
        <Node pos="r" depth="1" NCoef="0" IVar="5" Cut="7.0000000000000000e+00" cType="1" res="-1.1177294887602329e-02" rms="3.4451070427894592e-01" purity="2.5900354981422424e-01" nType="0">
          <Node pos="l" depth="2" NCoef="0" IVar="-1" Cut="0.0000000000000000e+00" cType="1" res="-1.8217505887150764e-02" rms="4.0430548787117004e-01" purity="5.4324322938919067e-01" nType="-99"/>
          <Node pos="r" depth="2" NCoef="0" IVar="-1" Cut="0.0000000000000000e+00" cType="1" res="5.9723923914134502e-04" rms="3.2781022787094116e-01" purity="1.8474934995174408e-01" nType="-99"/>
        </Node>
      </Node>
    </BinaryTree>
    <BinaryTree type="DecisionTree" boostWeight="1.0000000000000000e+00" itree="57">
      <Node pos="s" depth="0" NCoef="0" IVar="6" Cut="4.0000000000000000e+00" cType="1" res="0.0000000000000000e+00" rms="0.0000000000000000e+00" purity="5.0409746170043945e-01" nType="0">
        <Node pos="l" depth="1" NCoef="0" IVar="5" Cut="8.0000000000000000e+00" cType="1" res="1.9441965967416763e-02" rms="2.5590148568153381e-01" purity="9.0968954563140869e-01" nType="0">
          <Node pos="l" depth="2" NCoef="0" IVar="-1" Cut="0.0000000000000000e+00" cType="1" res="2.1738776937127113e-02" rms="2.0677462220191956e-01" purity="9.5240670442581177e-01" nType="-99"/>
          <Node pos="r" depth="2" NCoef="0" IVar="-1" Cut="0.0000000000000000e+00" cType="1" res="-1.0221984237432480e-02" rms="4.6941444277763367e-01" purity="6.2454873323440552e-01" nType="-99"/>
        </Node>
        <Node pos="r" depth="1" NCoef="0" IVar="5" Cut="9.0000000000000000e+00" cType="1" res="-5.8203381486237049e-03" rms="3.5379707813262939e-01" purity="3.8346391916275024e-01" nType="0">
          <Node pos="l" depth="2" NCoef="0" IVar="-1" Cut="0.0000000000000000e+00" cType="1" res="-9.4027258455753326e-03" rms="3.7157511711120605e-01" purity="6.8296349048614502e-01" nType="-99"/>
          <Node pos="r" depth="2" NCoef="0" IVar="-1" Cut="0.0000000000000000e+00" cType="1" res="2.6152599602937698e-03" rms="3.4249654412269592e-01" purity="2.0605926215648651e-01" nType="-99"/>
        </Node>
      </Node>
    </BinaryTree>
    <BinaryTree type="DecisionTree" boostWeight="1.0000000000000000e+00" itree="58">
      <Node pos="s" depth="0" NCoef="0" IVar="6" Cut="3.0000000000000000e+01" cType="1" res="-1.6720204148441553e-03" rms="9.1200768947601318e-02" purity="5.0122112035751343e-01" nType="0">
        <Node pos="l" depth="1" NCoef="0" IVar="6" Cut="1.6000000000000000e+01" cType="1" res="8.0067478120326996e-02" rms="0.0000000000000000e+00" purity="6.0528790950775146e-01" nType="0">
          <Node pos="l" depth="2" NCoef="0" IVar="-1" Cut="0.0000000000000000e+00" cType="1" res="1.0686267632991076e-03" rms="3.6937609314918518e-01" purity="6.9612902402877808e-01" nType="-99"/>
          <Node pos="r" depth="2" NCoef="0" IVar="-1" Cut="0.0000000000000000e+00" cType="1" res="1.8838347867131233e-02" rms="3.5165607929229736e-01" purity="1.5507593750953674e-01" nType="-99"/>
        </Node>
        <Node pos="r" depth="1" NCoef="0" IVar="3" Cut="1.5000000000000000e+01" cType="1" res="0.0000000000000000e+00" rms="0.0000000000000000e+00" purity="3.2113038469105959e-03" nType="0">
          <Node pos="l" depth="2" NCoef="0" IVar="-1" Cut="0.0000000000000000e+00" cType="1" res="-3.8804907351732254e-02" rms="1.1393786221742630e-01" purity="1.3201320543885231e-02" nType="-99"/>
          <Node pos="r" depth="2" NCoef="0" IVar="-1" Cut="0.0000000000000000e+00" cType="1" res="-4.8830635845661163e-02" rms="2.8172906488180161e-02" purity="7.9744815593585372e-04" nType="-99"/>
        </Node>
      </Node>
    </BinaryTree>
    <BinaryTree type="DecisionTree" boostWeight="1.0000000000000000e+00" itree="59">
      <Node pos="s" depth="0" NCoef="0" IVar="1" Cut="3.6400896310806274e-01" cType="1" res="-2.3943011183291674e-03" rms="3.3356913924217224e-01" purity="4.9719563126564026e-01" nType="0">
        <Node pos="l" depth="1" NCoef="0" IVar="5" Cut="2.0000000000000000e+00" cType="1" res="-5.9036061167716980e-02" rms="3.7666240334510803e-01" purity="7.2711867094039917e-01" nType="0">
          <Node pos="l" depth="2" NCoef="0" IVar="-1" Cut="0.0000000000000000e+00" cType="1" res="1.7639913130551577e-03" rms="2.5462946295738220e-01" purity="9.1941392421722412e-01" nType="-99"/>
          <Node pos="r" depth="2" NCoef="0" IVar="-1" Cut="0.0000000000000000e+00" cType="1" res="-2.9560940340161324e-02" rms="4.5694261789321899e-01" purity="5.6151419878005981e-01" nType="-99"/>
        </Node>
        <Node pos="r" depth="1" NCoef="0" IVar="4" Cut="1.9000000000000000e+01" cType="1" res="0.0000000000000000e+00" rms="5.9812712669372559e-01" purity="4.8124191164970398e-01" nType="0">
          <Node pos="l" depth="2" NCoef="0" IVar="-1" Cut="0.0000000000000000e+00" cType="1" res="2.4469825439155102e-03" rms="3.5923054814338684e-01" purity="5.7524991035461426e-01" nType="-99"/>
          <Node pos="r" depth="2" NCoef="0" IVar="-1" Cut="0.0000000000000000e+00" cType="1" res="-4.5876089483499527e-02" rms="6.6784009337425232e-02" purity="4.2857141233980656e-03" nType="-99"/>
        </Node>
      </Node>
    </BinaryTree>
    <BinaryTree type="DecisionTree" boostWeight="1.0000000000000000e+00" itree="60">
      <Node pos="s" depth="0" NCoef="0" IVar="1" Cut="1.1155692338943481e+00" cType="1" res="-9.6143397968262434e-04" rms="3.3762094378471375e-01" purity="5.0680083036422729e-01" nType="0">
        <Node pos="l" depth="1" NCoef="0" IVar="3" Cut="2.0000000000000000e+00" cType="1" res="1.2065934389829636e-01" rms="0.0000000000000000e+00" purity="7.5341367721557617e-01" nType="0">
          <Node pos="l" depth="2" NCoef="0" IVar="-1" Cut="0.0000000000000000e+00" cType="1" res="3.9992476813495159e-03" rms="2.8531184792518616e-01" purity="8.8975358009338379e-01" nType="-99"/>
          <Node pos="r" depth="2" NCoef="0" IVar="-1" Cut="0.0000000000000000e+00" cType="1" res="-1.7419084906578064e-02" rms="4.5600676536560059e-01" purity="5.3164559602737427e-01" nType="-99"/>
        </Node>
        <Node pos="r" depth="1" NCoef="0" IVar="6" Cut="4.0000000000000000e+00" cType="1" res="2.5647619622759521e-04" rms="0.0000000000000000e+00" purity="4.6742755174636841e-01" nType="0">
          <Node pos="l" depth="2" NCoef="0" IVar="-1" Cut="0.0000000000000000e+00" cType="1" res="1.7491061240434647e-02" rms="2.3671691119670868e-01" purity="9.2702311277389526e-01" nType="-99"/>
          <Node pos="r" depth="2" NCoef="0" IVar="-1" Cut="0.0000000000000000e+00" cType="1" res="-1.2598041212186217e-03" rms="3.5064241290092468e-01" purity="3.6825692653656006e-01" nType="-99"/>
        </Node>
      </Node>
    </BinaryTree>
    <BinaryTree type="DecisionTree" boostWeight="1.0000000000000000e+00" itree="61">
      <Node pos="s" depth="0" NCoef="0" IVar="6" Cut="2.0000000000000000e+01" cType="1" res="0.0000000000000000e+00" rms="0.0000000000000000e+00" purity="4.9694254994392395e-01" nType="0">
        <Node pos="l" depth="1" NCoef="0" IVar="6" Cut="9.0000000000000000e+00" cType="1" res="6.6331974230706692e-03" rms="3.7837386131286621e-01" purity="6.6053289175033569e-01" nType="0">
          <Node pos="l" depth="2" NCoef="0" IVar="-1" Cut="0.0000000000000000e+00" cType="1" res="-1.0087143164128065e-03" rms="3.4749075770378113e-01" purity="8.0532997846603394e-01" nType="-99"/>
          <Node pos="r" depth="2" NCoef="0" IVar="-1" Cut="0.0000000000000000e+00" cType="1" res="8.4846355020999908e-03" rms="4.4384443759918213e-01" purity="3.1105527281761169e-01" nType="-99"/>
        </Node>
        <Node pos="r" depth="1" NCoef="0" IVar="6" Cut="2.3000000000000000e+01" cType="1" res="0.0000000000000000e+00" rms="2.0562903955578804e-02" purity="2.7061311528086662e-02" nType="0">
          <Node pos="l" depth="2" NCoef="0" IVar="-1" Cut="0.0000000000000000e+00" cType="1" res="-2.2840738296508789e-02" rms="2.5798255205154419e-01" purity="7.7702701091766357e-02" nType="-99"/>
          <Node pos="r" depth="2" NCoef="0" IVar="-1" Cut="0.0000000000000000e+00" cType="1" res="-2.0305763930082321e-02" rms="1.3226771354675293e-01" purity="1.9816337153315544e-02" nType="-99"/>
        </Node>
      </Node>
    </BinaryTree>
    <BinaryTree type="DecisionTree" boostWeight="1.0000000000000000e+00" itree="62">
      <Node pos="s" depth="0" NCoef="0" IVar="6" Cut="5.0000000000000000e+00" cType="1" res="7.0591707481071353e-04" rms="0.0000000000000000e+00" purity="4.9562811851501465e-01" nType="0">
        <Node pos="l" depth="1" NCoef="0" IVar="5" Cut="8.0000000000000000e+00" cType="1" res="2.5232626125216484e-02" rms="2.7355831861495972e-01" purity="8.9735335111618042e-01" nType="0">
          <Node pos="l" depth="2" NCoef="0" IVar="-1" Cut="0.0000000000000000e+00" cType="1" res="2.2108642384409904e-02" rms="2.1952699124813080e-01" purity="9.4745832681655884e-01" nType="-99"/>
          <Node pos="r" depth="2" NCoef="0" IVar="-1" Cut="0.0000000000000000e+00" cType="1" res="-1.9049321999773383e-03" rms="4.6081727743148804e-01" purity="6.3956046104431152e-01" nType="-99"/>
        </Node>
        <Node pos="r" depth="1" NCoef="0" IVar="1" Cut="1.2852934598922729e+00" cType="1" res="-7.4263024143874645e-03" rms="3.4898954629898071e-01" purity="3.1559544801712036e-01" nType="0">
          <Node pos="l" depth="2" NCoef="0" IVar="-1" Cut="0.0000000000000000e+00" cType="1" res="-2.0405771210789680e-02" rms="4.0829512476921082e-01" purity="5.2155172824859619e-01" nType="-99"/>
          <Node pos="r" depth="2" NCoef="0" IVar="-1" Cut="0.0000000000000000e+00" cType="1" res="-9.6218322869390249e-04" rms="3.4326273202896118e-01" purity="2.9904761910438538e-01" nType="-99"/>
