<?xml version="1.0"?>
<MethodSetup Method="BDT::BDTG">
  <GeneralInfo>
    <Info name="TMVA Release" value="4.2.1 [262657]"/>
    <Info name="ROOT Release" value="6.04/16 [394256]"/>
    <Info name="Creator" value="lxadmin"/>
    <Info name="Date" value="Tue Jan 24 16:01:05 2017"/>
    <Info name="Host" value="Linux lxadmin-ThinkPad-L540 3.13.0-76-generic #120-Ubuntu SMP Mon Jan 18 15:59:10 UTC 2016 x86_64 x86_64 x86_64 GNU/Linux"/>
    <Info name="Dir" value="/home/lxadmin/MyRoot/root/tutorials/tmva/DiffractiveANAwithTMVA"/>
    <Info name="Training events" value="10000"/>
    <Info name="TrainingTime" value="1.34315710e+01"/>
    <Info name="AnalysisType" value="Classification"/>
  </GeneralInfo>
  <Options>
    <Option name="V" modified="Yes">False</Option>
    <Option name="VerbosityLevel" modified="No">Default</Option>
    <Option name="VarTransform" modified="No">None</Option>
    <Option name="H" modified="Yes">False</Option>
    <Option name="CreateMVAPdfs" modified="No">False</Option>
    <Option name="IgnoreNegWeightsInTraining" modified="No">False</Option>
    <Option name="NTrees" modified="Yes">1000</Option>
    <Option name="MaxDepth" modified="Yes">2</Option>
    <Option name="MinNodeSize" modified="Yes">2.5%</Option>
    <Option name="nCuts" modified="Yes">20</Option>
    <Option name="BoostType" modified="Yes">Grad</Option>
    <Option name="AdaBoostR2Loss" modified="No">quadratic</Option>
    <Option name="UseBaggedBoost" modified="Yes">True</Option>
    <Option name="Shrinkage" modified="Yes">1.000000e-01</Option>
    <Option name="AdaBoostBeta" modified="No">5.000000e-01</Option>
    <Option name="UseRandomisedTrees" modified="No">False</Option>
    <Option name="UseNvars" modified="No">3</Option>
    <Option name="UsePoissonNvars" modified="No">True</Option>
    <Option name="BaggedSampleFraction" modified="Yes">9.000000e-01</Option>
    <Option name="UseYesNoLeaf" modified="No">True</Option>
    <Option name="NegWeightTreatment" modified="No">ignorenegweightsintraining</Option>
    <Option name="Css" modified="No">1.000000e+00</Option>
    <Option name="Cts_sb" modified="No">1.000000e+00</Option>
    <Option name="Ctb_ss" modified="No">1.000000e+00</Option>
    <Option name="Cbb" modified="No">1.000000e+00</Option>
    <Option name="NodePurityLimit" modified="No">5.000000e-01</Option>
    <Option name="SeparationType" modified="No">giniindex</Option>
    <Option name="DoBoostMonitor" modified="No">False</Option>
    <Option name="UseFisherCuts" modified="No">False</Option>
    <Option name="MinLinCorrForFisher" modified="No">8.000000e-01</Option>
    <Option name="UseExclusiveVars" modified="No">False</Option>
    <Option name="DoPreselection" modified="No">False</Option>
    <Option name="SigToBkgFraction" modified="No">1.000000e+00</Option>
    <Option name="PruneMethod" modified="No">nopruning</Option>
    <Option name="PruneStrength" modified="No">0.000000e+00</Option>
    <Option name="PruningValFraction" modified="No">5.000000e-01</Option>
    <Option name="nEventsMin" modified="No">0</Option>
    <Option name="UseBaggedGrad" modified="No">False</Option>
    <Option name="GradBaggingFraction" modified="No">9.000000e-01</Option>
    <Option name="UseNTrainEvents" modified="No">0</Option>
    <Option name="NNodesMax" modified="No">0</Option>
  </Options>
  <Variables NVar="7">
    <Variable VarIndex="0" Expression="deltazero" Label="deltazero" Title="deltazero" Unit="units" Internal="deltazero" Type="F" Min="1.92543899e-03" Max="4.85500717e+00"/>
    <Variable VarIndex="1" Expression="etamax" Label="etamax" Title="etamax" Unit="units" Internal="etamax" Type="F" Min="-2.59349513e+00" Max="2.86021256e+00"/>
    <Variable VarIndex="2" Expression="etamin" Label="etamin" Title="etamin" Unit="units" Internal="etamin" Type="F" Min="-2.87508082e+00" Max="2.45280361e+00"/>
    <Variable VarIndex="3" Expression="HFminusNtowers" Label="HFminusNtowers" Title="HFminusNtowers" Unit="units" Internal="HFminusNtowers" Type="I" Min="0.00000000e+00" Max="9.90000000e+01"/>
    <Variable VarIndex="4" Expression="HFplusNtowers" Label="HFplusNtowers" Title="HFplusNtowers" Unit="units" Internal="HFplusNtowers" Type="I" Min="0.00000000e+00" Max="1.16000000e+02"/>
    <Variable VarIndex="5" Expression="CastorNtowers" Label="CastorNtowers" Title="CastorNtowers" Unit="units" Internal="CastorNtowers" Type="I" Min="0.00000000e+00" Max="1.60000000e+01"/>
    <Variable VarIndex="6" Expression="Ntracks" Label="Ntracks" Title="Ntracks" Unit="units" Internal="Ntracks" Type="I" Min="2.00000000e+00" Max="1.86000000e+02"/>
  </Variables>
  <Spectators NSpec="0"/>
  <Classes NClass="2">
    <Class Name="Signal" Index="0"/>
    <Class Name="Background" Index="1"/>
  </Classes>
  <Transformations NTransformations="0"/>
  <MVAPdfs/>
  <Weights NTrees="1000" AnalysisType="1">
    <BinaryTree type="DecisionTree" boostWeight="1.0000000000000000e+00" itree="0">
      <Node pos="s" depth="0" NCoef="0" IVar="4" Cut="2.0000000000000000e+00" cType="1" res="5.9309728443622589e-02" rms="0.0000000000000000e+00" purity="5.1357084512710571e-01" nType="0">
        <Node pos="l" depth="1" NCoef="0" IVar="4" Cut="1.0000000000000000e+00" cType="1" res="4.3875001370906830e-02" rms="1.5854805707931519e-01" purity="8.5925000905990601e-01" nType="0">
          <Node pos="l" depth="2" NCoef="0" IVar="-1" Cut="0.0000000000000000e+00" cType="1" res="8.3941161632537842e-02" rms="2.7174812555313110e-01" purity="9.1970580816268921e-01" nType="-99"/>
          <Node pos="r" depth="2" NCoef="0" IVar="-1" Cut="0.0000000000000000e+00" cType="1" res="1.8317503854632378e-02" rms="4.9154016375541687e-01" purity="5.9158754348754883e-01" nType="-99"/>
        </Node>
        <Node pos="r" depth="1" NCoef="0" IVar="4" Cut="9.0000000000000000e+00" cType="1" res="0.0000000000000000e+00" rms="0.0000000000000000e+00" purity="2.3440338671207428e-01" nType="0">
          <Node pos="l" depth="2" NCoef="0" IVar="-1" Cut="0.0000000000000000e+00" cType="1" res="-2.4081947281956673e-02" rms="4.8528495430946350e-01" purity="3.7959027290344238e-01" nType="-99"/>
          <Node pos="r" depth="2" NCoef="0" IVar="-1" Cut="0.0000000000000000e+00" cType="1" res="-8.4868974983692169e-02" rms="2.6444548368453979e-01" purity="7.5655117630958557e-02" nType="-99"/>
        </Node>
      </Node>
    </BinaryTree>
    <BinaryTree type="DecisionTree" boostWeight="1.0000000000000000e+00" itree="1">
      <Node pos="s" depth="0" NCoef="0" IVar="4" Cut="2.0000000000000000e+00" cType="1" res="0.0000000000000000e+00" rms="6.0753200531005859e+01" purity="4.9609503149986267e-01" nType="0">
        <Node pos="l" depth="1" NCoef="0" IVar="4" Cut="1.0000000000000000e+00" cType="1" res="3.8346715271472931e-02" rms="1.5211604535579681e-01" purity="8.4934550523757935e-01" nType="0">
          <Node pos="l" depth="2" NCoef="0" IVar="-1" Cut="0.0000000000000000e+00" cType="1" res="7.2950936853885651e-02" rms="2.9449671506881714e-01" purity="9.0406888723373413e-01" nType="-99"/>
          <Node pos="r" depth="2" NCoef="0" IVar="-1" Cut="0.0000000000000000e+00" cType="1" res="1.4008932746946812e-02" rms="4.9369090795516968e-01" purity="5.7917886972427368e-01" nType="-99"/>
        </Node>
        <Node pos="r" depth="1" NCoef="0" IVar="4" Cut="9.0000000000000000e+00" cType="1" res="0.0000000000000000e+00" rms="6.2981583178043365e-02" purity="2.1241571009159088e-01" nType="0">
          <Node pos="l" depth="2" NCoef="0" IVar="-1" Cut="0.0000000000000000e+00" cType="1" res="-2.5317789986729622e-02" rms="4.8041933774948120e-01" purity="3.6144578456878662e-01" nType="-99"/>
          <Node pos="r" depth="2" NCoef="0" IVar="-1" Cut="0.0000000000000000e+00" cType="1" res="-8.0690205097198486e-02" rms="2.3204913735389709e-01" purity="5.7108141481876373e-02" nType="-99"/>
        </Node>
      </Node>
    </BinaryTree>
    <BinaryTree type="DecisionTree" boostWeight="1.0000000000000000e+00" itree="2">
      <Node pos="s" depth="0" NCoef="0" IVar="4" Cut="2.0000000000000000e+00" cType="1" res="0.0000000000000000e+00" rms="0.0000000000000000e+00" purity="4.9934312701225281e-01" nType="0">
        <Node pos="l" depth="1" NCoef="0" IVar="4" Cut="1.0000000000000000e+00" cType="1" res="2.8491325676441193e-02" rms="1.3192808628082275e-01" purity="8.5314512252807617e-01" nType="0">
          <Node pos="l" depth="2" NCoef="0" IVar="-1" Cut="0.0000000000000000e+00" cType="1" res="6.8299740552902222e-02" rms="2.8468975424766541e-01" purity="9.1103738546371460e-01" nType="-99"/>
          <Node pos="r" depth="2" NCoef="0" IVar="-1" Cut="0.0000000000000000e+00" cType="1" res="1.4234871603548527e-02" rms="4.9232721328735352e-01" purity="5.8725762367248535e-01" nType="-99"/>
        </Node>
        <Node pos="r" depth="1" NCoef="0" IVar="4" Cut="7.0000000000000000e+00" cType="1" res="4.0816325694322586e-02" rms="1.6486412286758423e-01" purity="2.1899528801441193e-01" nType="0">
          <Node pos="l" depth="2" NCoef="0" IVar="-1" Cut="0.0000000000000000e+00" cType="1" res="-1.8079830333590508e-02" rms="4.8662868142127991e-01" purity="3.8514128327369690e-01" nType="-99"/>
          <Node pos="r" depth="2" NCoef="0" IVar="-1" Cut="0.0000000000000000e+00" cType="1" res="-6.8198062479496002e-02" rms="2.8730818629264832e-01" purity="9.3383871018886566e-02" nType="-99"/>
        </Node>
      </Node>
    </BinaryTree>
    <BinaryTree type="DecisionTree" boostWeight="1.0000000000000000e+00" itree="3">
      <Node pos="s" depth="0" NCoef="0" IVar="4" Cut="3.0000000000000000e+00" cType="1" res="1.4873645268380642e-03" rms="1.0468143969774246e-02" purity="4.9949693679809570e-01" nType="0">
        <Node pos="l" depth="1" NCoef="0" IVar="4" Cut="1.0000000000000000e+00" cType="1" res="5.1684565842151642e-02" rms="1.8983714282512665e-01" purity="7.9430931806564331e-01" nType="0">
          <Node pos="l" depth="2" NCoef="0" IVar="-1" Cut="0.0000000000000000e+00" cType="1" res="6.0048289597034454e-02" rms="3.0494043231010437e-01" purity="8.9624655246734619e-01" nType="-99"/>
          <Node pos="r" depth="2" NCoef="0" IVar="-1" Cut="0.0000000000000000e+00" cType="1" res="8.9645031839609146e-03" rms="4.9599701166152954e-01" purity="5.4257726669311523e-01" nType="-99"/>
        </Node>
        <Node pos="r" depth="1" NCoef="0" IVar="4" Cut="1.6000000000000000e+01" cType="1" res="0.0000000000000000e+00" rms="0.0000000000000000e+00" purity="1.8682330846786499e-01" nType="0">
          <Node pos="l" depth="2" NCoef="0" IVar="-1" Cut="0.0000000000000000e+00" cType="1" res="-3.1891893595457077e-02" rms="4.4376814365386963e-01" purity="2.8147354722023010e-01" nType="-99"/>
          <Node pos="r" depth="2" NCoef="0" IVar="-1" Cut="0.0000000000000000e+00" cType="1" res="-7.8048206865787506e-02" rms="1.2366356700658798e-01" purity="1.5533980913460255e-02" nType="-99"/>
        </Node>
      </Node>
    </BinaryTree>
    <BinaryTree type="DecisionTree" boostWeight="1.0000000000000000e+00" itree="4">
      <Node pos="s" depth="0" NCoef="0" IVar="4" Cut="3.0000000000000000e+00" cType="1" res="2.0289525389671326e-02" rms="4.0869781374931335e-01" purity="4.9424371123313904e-01" nType="0">
        <Node pos="l" depth="1" NCoef="0" IVar="4" Cut="1.0000000000000000e+00" cType="1" res="5.3564194589853287e-02" rms="1.8610073626041412e-01" purity="7.9666590690612793e-01" nType="0">
          <Node pos="l" depth="2" NCoef="0" IVar="-1" Cut="0.0000000000000000e+00" cType="1" res="5.8353815227746964e-02" rms="2.8883549571037292e-01" purity="9.0813487768173218e-01" nType="-99"/>
          <Node pos="r" depth="2" NCoef="0" IVar="-1" Cut="0.0000000000000000e+00" cType="1" res="4.9361628480255604e-03" rms="4.9748650193214417e-01" purity="5.2488690614700317e-01" nType="-99"/>
        </Node>
        <Node pos="r" depth="1" NCoef="0" IVar="4" Cut="9.0000000000000000e+00" cType="1" res="0.0000000000000000e+00" rms="0.0000000000000000e+00" purity="1.6706217825412750e-01" nType="0">
          <Node pos="l" depth="2" NCoef="0" IVar="-1" Cut="0.0000000000000000e+00" cType="1" res="-2.7426499873399734e-02" rms="4.6160465478897095e-01" purity="3.0971550941467285e-01" nType="-99"/>
          <Node pos="r" depth="2" NCoef="0" IVar="-1" Cut="0.0000000000000000e+00" cType="1" res="-6.6002026200294495e-02" rms="2.2420424222946167e-01" purity="5.4019566625356674e-02" nType="-99"/>
        </Node>
      </Node>
    </BinaryTree>
    <BinaryTree type="DecisionTree" boostWeight="1.0000000000000000e+00" itree="5">
      <Node pos="s" depth="0" NCoef="0" IVar="4" Cut="3.0000000000000000e+00" cType="1" res="2.4787852540612221e-02" rms="3.9811652898788452e-01" purity="4.8570790886878967e-01" nType="0">
        <Node pos="l" depth="1" NCoef="0" IVar="4" Cut="1.0000000000000000e+00" cType="1" res="4.5001108199357986e-02" rms="1.8361136317253113e-01" purity="7.9029083251953125e-01" nType="0">
          <Node pos="l" depth="2" NCoef="0" IVar="-1" Cut="0.0000000000000000e+00" cType="1" res="5.2287146449089050e-02" rms="3.0240008234977722e-01" purity="8.9818865060806274e-01" nType="-99"/>
          <Node pos="r" depth="2" NCoef="0" IVar="-1" Cut="0.0000000000000000e+00" cType="1" res="6.7937443964183331e-03" rms="4.9601930379867554e-01" purity="5.3829324245452881e-01" nType="-99"/>
        </Node>
        <Node pos="r" depth="1" NCoef="0" IVar="4" Cut="1.1000000000000000e+01" cType="1" res="1.2320328503847122e-02" rms="7.1384571492671967e-02" purity="1.6792151331901550e-01" nType="0">
          <Node pos="l" depth="2" NCoef="0" IVar="-1" Cut="0.0000000000000000e+00" cType="1" res="-2.8228884562849998e-02" rms="4.4713830947875977e-01" purity="2.8290063142776489e-01" nType="-99"/>
          <Node pos="r" depth="2" NCoef="0" IVar="-1" Cut="0.0000000000000000e+00" cType="1" res="-6.3079632818698883e-02" rms="2.1305973827838898e-01" purity="4.8394601792097092e-02" nType="-99"/>
        </Node>
      </Node>
    </BinaryTree>
    <BinaryTree type="DecisionTree" boostWeight="1.0000000000000000e+00" itree="6">
      <Node pos="s" depth="0" NCoef="0" IVar="4" Cut="2.0000000000000000e+00" cType="1" res="6.2913149595260620e-02" rms="4.9688702821731567e-01" purity="5.0102573633193970e-01" nType="0">
        <Node pos="l" depth="1" NCoef="0" IVar="4" Cut="1.0000000000000000e+00" cType="1" res="2.1174259483814240e-02" rms="1.1145726591348648e-01" purity="8.5131341218948364e-01" nType="0">
          <Node pos="l" depth="2" NCoef="0" IVar="-1" Cut="0.0000000000000000e+00" cType="1" res="5.0039786845445633e-02" rms="2.9601565003395081e-01" purity="9.0295749902725220e-01" nType="-99"/>
          <Node pos="r" depth="2" NCoef="0" IVar="-1" Cut="0.0000000000000000e+00" cType="1" res="1.3940009288489819e-02" rms="4.8928380012512207e-01" purity="6.0296297073364258e-01" nType="-99"/>
        </Node>
        <Node pos="r" depth="1" NCoef="0" IVar="4" Cut="1.0000000000000000e+01" cType="1" res="0.0000000000000000e+00" rms="0.0000000000000000e+00" purity="2.1800947189331055e-01" nType="0">
          <Node pos="l" depth="2" NCoef="0" IVar="-1" Cut="0.0000000000000000e+00" cType="1" res="-1.6390068456530571e-02" rms="4.7107532620429993e-01" purity="3.4626865386962891e-01" nType="-99"/>
          <Node pos="r" depth="2" NCoef="0" IVar="-1" Cut="0.0000000000000000e+00" cType="1" res="-5.7187199592590332e-02" rms="2.3527127504348755e-01" purity="5.9825126081705093e-02" nType="-99"/>
        </Node>
      </Node>
    </BinaryTree>
    <BinaryTree type="DecisionTree" boostWeight="1.0000000000000000e+00" itree="7">
      <Node pos="s" depth="0" NCoef="0" IVar="4" Cut="3.0000000000000000e+00" cType="1" res="3.7353266601562500e+03" rms="0.0000000000000000e+00" purity="4.9426695704460144e-01" nType="0">
        <Node pos="l" depth="1" NCoef="0" IVar="4" Cut="1.0000000000000000e+00" cType="1" res="3.5676319152116776e-02" rms="1.6599811613559723e-01" purity="7.9698753356933594e-01" nType="0">
          <Node pos="l" depth="2" NCoef="0" IVar="-1" Cut="0.0000000000000000e+00" cType="1" res="4.7751311212778091e-02" rms="2.9154711961746216e-01" purity="9.0620225667953491e-01" nType="-99"/>
          <Node pos="r" depth="2" NCoef="0" IVar="-1" Cut="0.0000000000000000e+00" cType="1" res="3.4324161242693663e-03" rms="4.9807539582252502e-01" purity="5.2370029687881470e-01" nType="-99"/>
        </Node>
        <Node pos="r" depth="1" NCoef="0" IVar="4" Cut="1.2000000000000000e+01" cType="1" res="0.0000000000000000e+00" rms="0.0000000000000000e+00" purity="1.7923671007156372e-01" nType="0">
          <Node pos="l" depth="2" NCoef="0" IVar="-1" Cut="0.0000000000000000e+00" cType="1" res="-2.1463235840201378e-02" rms="4.5004072785377502e-01" purity="2.8941950201988220e-01" nType="-99"/>
          <Node pos="r" depth="2" NCoef="0" IVar="-1" Cut="0.0000000000000000e+00" cType="1" res="-5.7932227849960327e-02" rms="2.0303060114383698e-01" purity="4.3588444590568542e-02" nType="-99"/>
        </Node>
      </Node>
    </BinaryTree>
    <BinaryTree type="DecisionTree" boostWeight="1.0000000000000000e+00" itree="8">
      <Node pos="s" depth="0" NCoef="0" IVar="4" Cut="2.0000000000000000e+00" cType="1" res="-1.3671678323976045e+19" rms="0.0000000000000000e+00" purity="4.9484193325042725e-01" nType="0">
        <Node pos="l" depth="1" NCoef="0" IVar="4" Cut="1.0000000000000000e+00" cType="1" res="2.1453404799103737e-02" rms="1.0707585513591766e-01" purity="8.5903525352478027e-01" nType="0">
          <Node pos="l" depth="2" NCoef="0" IVar="-1" Cut="0.0000000000000000e+00" cType="1" res="4.6825688332319260e-02" rms="2.8070777654647827e-01" purity="9.1376703977584839e-01" nType="-99"/>
          <Node pos="r" depth="2" NCoef="0" IVar="-1" Cut="0.0000000000000000e+00" cType="1" res="1.1466651223599911e-02" rms="4.9007311463356018e-01" purity="5.9913790225982666e-01" nType="-99"/>
        </Node>
        <Node pos="r" depth="1" NCoef="0" IVar="4" Cut="6.0000000000000000e+00" cType="1" res="8.7914109462872148e-04" rms="0.0000000000000000e+00" purity="2.0422816276550293e-01" nType="0">
          <Node pos="l" depth="2" NCoef="0" IVar="-1" Cut="0.0000000000000000e+00" cType="1" res="-8.3404881879687309e-03" rms="4.8477196693420410e-01" purity="3.8559556007385254e-01" nType="-99"/>
          <Node pos="r" depth="2" NCoef="0" IVar="-1" Cut="0.0000000000000000e+00" cType="1" res="-4.6351924538612366e-02" rms="2.9369902610778809e-01" purity="1.0221252590417862e-01" nType="-99"/>
        </Node>
      </Node>
    </BinaryTree>
    <BinaryTree type="DecisionTree" boostWeight="1.0000000000000000e+00" itree="9">
      <Node pos="s" depth="0" NCoef="0" IVar="4" Cut="3.0000000000000000e+00" cType="1" res="5.5883008986711502e-02" rms="0.0000000000000000e+00" purity="4.9268719553947449e-01" nType="0">
        <Node pos="l" depth="1" NCoef="0" IVar="4" Cut="1.0000000000000000e+00" cType="1" res="3.2666154205799103e-02" rms="1.5580227971076965e-01" purity="8.0715662240982056e-01" nType="0">
          <Node pos="l" depth="2" NCoef="0" IVar="-1" Cut="0.0000000000000000e+00" cType="1" res="4.3411411345005035e-02" rms="2.8487959504127502e-01" purity="9.1090583801269531e-01" nType="-99"/>
          <Node pos="r" depth="2" NCoef="0" IVar="-1" Cut="0.0000000000000000e+00" cType="1" res="6.1738509684801102e-03" rms="4.9647083878517151e-01" purity="5.4157131910324097e-01" nType="-99"/>
        </Node>
        <Node pos="r" depth="1" NCoef="0" IVar="6" Cut="3.1000000000000000e+01" cType="1" res="-0.0000000000000000e+00" rms="0.0000000000000000e+00" purity="1.6618464887142181e-01" nType="0">
          <Node pos="l" depth="2" NCoef="0" IVar="-1" Cut="0.0000000000000000e+00" cType="1" res="-1.9904583692550659e-02" rms="4.2769965529441833e-01" purity="2.5766626000404358e-01" nType="-99"/>
          <Node pos="r" depth="2" NCoef="0" IVar="-1" Cut="0.0000000000000000e+00" cType="1" res="-5.4363965988159180e-02" rms="2.0571419596672058e-01" purity="5.0403226166963577e-02" nType="-99"/>
        </Node>
      </Node>
    </BinaryTree>
    <BinaryTree type="DecisionTree" boostWeight="1.0000000000000000e+00" itree="10">
      <Node pos="s" depth="0" NCoef="0" IVar="4" Cut="3.0000000000000000e+00" cType="1" res="8.6747746763649047e-07" rms="8.2971677184104919e-02" purity="4.9522539973258972e-01" nType="0">
        <Node pos="l" depth="1" NCoef="0" IVar="4" Cut="1.0000000000000000e+00" cType="1" res="3.0328428372740746e-02" rms="1.6604128479957581e-01" purity="8.0000001192092896e-01" nType="0">
          <Node pos="l" depth="2" NCoef="0" IVar="-1" Cut="0.0000000000000000e+00" cType="1" res="3.9417941123247147e-02" rms="2.9264277219772339e-01" purity="9.0541362762451172e-01" nType="-99"/>
          <Node pos="r" depth="2" NCoef="0" IVar="-1" Cut="0.0000000000000000e+00" cType="1" res="3.7479058373719454e-03" rms="4.9725466966629028e-01" purity="5.3069150447845459e-01" nType="-99"/>
        </Node>
        <Node pos="r" depth="1" NCoef="0" IVar="4" Cut="9.0000000000000000e+00" cType="1" res="0.0000000000000000e+00" rms="1.5022738836705685e-02" purity="1.8054614961147308e-01" nType="0">
          <Node pos="l" depth="2" NCoef="0" IVar="-1" Cut="0.0000000000000000e+00" cType="1" res="-9.9831912666559219e-03" rms="4.6893641352653503e-01" purity="3.3034825325012207e-01" nType="-99"/>
          <Node pos="r" depth="2" NCoef="0" IVar="-1" Cut="0.0000000000000000e+00" cType="1" res="-4.8775959759950638e-02" rms="2.2676272690296173e-01" purity="5.6175135076045990e-02" nType="-99"/>
        </Node>
      </Node>
    </BinaryTree>
    <BinaryTree type="DecisionTree" boostWeight="1.0000000000000000e+00" itree="11">
      <Node pos="s" depth="0" NCoef="0" IVar="4" Cut="3.0000000000000000e+00" cType="1" res="8.7241784285652102e-07" rms="0.0000000000000000e+00" purity="5.0441092252731323e-01" nType="0">
        <Node pos="l" depth="1" NCoef="0" IVar="4" Cut="1.0000000000000000e+00" cType="1" res="2.8250630944967270e-02" rms="1.6342039406299591e-01" purity="8.0473119020462036e-01" nType="0">
          <Node pos="l" depth="2" NCoef="0" IVar="-1" Cut="0.0000000000000000e+00" cType="1" res="3.9658688008785248e-02" rms="2.7995443344116211e-01" purity="9.1427707672119141e-01" nType="-99"/>
          <Node pos="r" depth="2" NCoef="0" IVar="-1" Cut="0.0000000000000000e+00" cType="1" res="3.7392212543636560e-03" rms="4.9777442216873169e-01" purity="5.3328347206115723e-01" nType="-99"/>
        </Node>
        <Node pos="r" depth="1" NCoef="0" IVar="4" Cut="1.1000000000000000e+01" cType="1" res="1.1614401591941714e-03" rms="5.2783589810132980e-02" purity="1.8002322316169739e-01" nType="0">
          <Node pos="l" depth="2" NCoef="0" IVar="-1" Cut="0.0000000000000000e+00" cType="1" res="-1.0933438315987587e-02" rms="4.5717424154281616e-01" purity="3.0717185139656067e-01" nType="-99"/>
          <Node pos="r" depth="2" NCoef="0" IVar="-1" Cut="0.0000000000000000e+00" cType="1" res="-4.9087334424257278e-02" rms="2.0558151602745056e-01" purity="4.5019157230854034e-02" nType="-99"/>
        </Node>
      </Node>
    </BinaryTree>
    <BinaryTree type="DecisionTree" boostWeight="1.0000000000000000e+00" itree="12">
      <Node pos="s" depth="0" NCoef="0" IVar="4" Cut="3.0000000000000000e+00" cType="1" res="0.0000000000000000e+00" rms="8.0921441316604614e-02" purity="4.9400666356086731e-01" nType="0">
        <Node pos="l" depth="1" NCoef="0" IVar="1" Cut="1.5100922584533691e+00" cType="1" res="9.1610275208950043e-02" rms="3.6130422353744507e-01" purity="8.0527907609939575e-01" nType="0">
          <Node pos="l" depth="2" NCoef="0" IVar="-1" Cut="0.0000000000000000e+00" cType="1" res="3.9745148271322250e-02" rms="2.7985736727714539e-01" purity="8.9805823564529419e-01" nType="-99"/>
          <Node pos="r" depth="2" NCoef="0" IVar="-1" Cut="0.0000000000000000e+00" cType="1" res="1.1323005892336369e-02" rms="4.2006704211235046e-01" purity="7.1604412794113159e-01" nType="-99"/>
        </Node>
        <Node pos="r" depth="1" NCoef="0" IVar="3" Cut="1.5000000000000000e+01" cType="1" res="0.0000000000000000e+00" rms="0.0000000000000000e+00" purity="1.6613490879535675e-01" nType="0">
          <Node pos="l" depth="2" NCoef="0" IVar="-1" Cut="0.0000000000000000e+00" cType="1" res="-1.7528291791677475e-02" rms="4.1286668181419373e-01" purity="2.3613661527633667e-01" nType="-99"/>
          <Node pos="r" depth="2" NCoef="0" IVar="-1" Cut="0.0000000000000000e+00" cType="1" res="-4.8972155898809433e-02" rms="2.0506812632083893e-01" purity="5.1651652902364731e-02" nType="-99"/>
        </Node>
      </Node>
    </BinaryTree>
    <BinaryTree type="DecisionTree" boostWeight="1.0000000000000000e+00" itree="13">
      <Node pos="s" depth="0" NCoef="0" IVar="4" Cut="1.0000000000000000e+00" cType="1" res="0.0000000000000000e+00" rms="0.0000000000000000e+00" purity="5.0187474489212036e-01" nType="0">
        <Node pos="l" depth="1" NCoef="0" IVar="1" Cut="2.2258906364440918e+00" cType="1" res="1.1324112862348557e-01" rms="2.8166860342025757e-01" purity="9.1275966167449951e-01" nType="0">
          <Node pos="l" depth="2" NCoef="0" IVar="-1" Cut="0.0000000000000000e+00" cType="1" res="3.9917059242725372e-02" rms="2.5824156403541565e-01" purity="9.2797493934631348e-01" nType="-99"/>
          <Node pos="r" depth="2" NCoef="0" IVar="-1" Cut="0.0000000000000000e+00" cType="1" res="9.3793757259845734e-03" rms="3.8031163811683655e-01" purity="8.2459676265716553e-01" nType="-99"/>
        </Node>
        <Node pos="r" depth="1" NCoef="0" IVar="4" Cut="1.6000000000000000e+01" cType="1" res="2.2990522906184196e-02" rms="1.4328801631927490e-01" purity="2.5886276364326477e-01" nType="0">
          <Node pos="l" depth="2" NCoef="0" IVar="-1" Cut="0.0000000000000000e+00" cType="1" res="-7.5390799902379513e-03" rms="4.5671600103378296e-01" purity="3.4697297215461731e-01" nType="-99"/>
          <Node pos="r" depth="2" NCoef="0" IVar="-1" Cut="0.0000000000000000e+00" cType="1" res="-5.4530438035726547e-02" rms="1.2672142684459686e-01" purity="1.6458196565508842e-02" nType="-99"/>
        </Node>
      </Node>
    </BinaryTree>
    <BinaryTree type="DecisionTree" boostWeight="1.0000000000000000e+00" itree="14">
      <Node pos="s" depth="0" NCoef="0" IVar="4" Cut="5.0000000000000000e+00" cType="1" res="0.0000000000000000e+00" rms="4.0273118019104004e-01" purity="4.9832215905189514e-01" nType="0">
        <Node pos="l" depth="1" NCoef="0" IVar="5" Cut="1.0000000000000000e+00" cType="1" res="5.8523058891296387e-02" rms="3.8551154732704163e-01" purity="7.3090976476669312e-01" nType="0">
          <Node pos="l" depth="2" NCoef="0" IVar="-1" Cut="0.0000000000000000e+00" cType="1" res="-3.8717348128557205e-02" rms="4.1094633936882019e-01" purity="4.3750000000000000e-01" nType="-99"/>
          <Node pos="r" depth="2" NCoef="0" IVar="-1" Cut="0.0000000000000000e+00" cType="1" res="1.7958834767341614e-02" rms="3.8386470079421997e-01" purity="7.4342858791351318e-01" nType="-99"/>
        </Node>
        <Node pos="r" depth="1" NCoef="0" IVar="6" Cut="3.2000000000000000e+01" cType="1" res="2.2540398276760243e-06" rms="0.0000000000000000e+00" purity="1.3098673522472382e-01" nType="0">
          <Node pos="l" depth="2" NCoef="0" IVar="-1" Cut="0.0000000000000000e+00" cType="1" res="-1.5389665029942989e-02" rms="3.9977067708969116e-01" purity="2.1480244398117065e-01" nType="-99"/>
          <Node pos="r" depth="2" NCoef="0" IVar="-1" Cut="0.0000000000000000e+00" cType="1" res="-4.7432161867618561e-02" rms="1.9015605747699738e-01" purity="4.0742959827184677e-02" nType="-99"/>
        </Node>
      </Node>
    </BinaryTree>
    <BinaryTree type="DecisionTree" boostWeight="1.0000000000000000e+00" itree="15">
      <Node pos="s" depth="0" NCoef="0" IVar="4" Cut="5.0000000000000000e+00" cType="1" res="2.0605787634849548e-02" rms="4.0312218666076660e-01" purity="5.0016891956329346e-01" nType="0">
        <Node pos="l" depth="1" NCoef="0" IVar="6" Cut="1.0000000000000000e+01" cType="1" res="1.5969163179397583e-01" rms="0.0000000000000000e+00" purity="7.3861968517303467e-01" nType="0">
          <Node pos="l" depth="2" NCoef="0" IVar="-1" Cut="0.0000000000000000e+00" cType="1" res="2.7434911578893661e-02" rms="3.4009858965873718e-01" purity="8.1401461362838745e-01" nType="-99"/>
          <Node pos="r" depth="2" NCoef="0" IVar="-1" Cut="0.0000000000000000e+00" cType="1" res="2.5505148805677891e-03" rms="4.3919369578361511e-01" purity="6.1097377538681030e-01" nType="-99"/>
        </Node>
        <Node pos="r" depth="1" NCoef="0" IVar="6" Cut="4.3000000000000000e+01" cType="1" res="0.0000000000000000e+00" rms="0.0000000000000000e+00" purity="1.2175939232110977e-01" nType="0">
          <Node pos="l" depth="2" NCoef="0" IVar="-1" Cut="0.0000000000000000e+00" cType="1" res="-1.8968129530549049e-02" rms="3.7843182682991028e-01" purity="1.8395574390888214e-01" nType="-99"/>
          <Node pos="r" depth="2" NCoef="0" IVar="-1" Cut="0.0000000000000000e+00" cType="1" res="-5.3638689219951630e-02" rms="1.2365577369928360e-01" purity="1.5031646005809307e-02" nType="-99"/>
        </Node>
      </Node>
    </BinaryTree>
    <BinaryTree type="DecisionTree" boostWeight="1.0000000000000000e+00" itree="16">
      <Node pos="s" depth="0" NCoef="0" IVar="4" Cut="7.0000000000000000e+00" cType="1" res="9.0309780836105347e-01" rms="0.0000000000000000e+00" purity="4.9972438812255859e-01" nType="0">
        <Node pos="l" depth="1" NCoef="0" IVar="5" Cut="2.0000000000000000e+00" cType="1" res="5.1885500550270081e-02" rms="3.9226722717285156e-01" purity="6.9890362024307251e-01" nType="0">
          <Node pos="l" depth="2" NCoef="0" IVar="-1" Cut="0.0000000000000000e+00" cType="1" res="-3.4971311688423157e-02" rms="4.1322499513626099e-01" purity="4.5604395866394043e-01" nType="-99"/>
          <Node pos="r" depth="2" NCoef="0" IVar="-1" Cut="0.0000000000000000e+00" cType="1" res="1.6863282769918442e-02" rms="3.8902959227561951e-01" purity="7.1428573131561279e-01" nType="-99"/>
        </Node>
        <Node pos="r" depth="1" NCoef="0" IVar="3" Cut="1.2000000000000000e+01" cType="1" res="7.7702701091766357e-03" rms="6.5814241766929626e-02" purity="8.8513515889644623e-02" nType="0">
          <Node pos="l" depth="2" NCoef="0" IVar="-1" Cut="0.0000000000000000e+00" cType="1" res="-1.5698671340942383e-02" rms="3.6494094133377075e-01" purity="1.6477768123149872e-01" nType="-99"/>
          <Node pos="r" depth="2" NCoef="0" IVar="-1" Cut="0.0000000000000000e+00" cType="1" res="-4.4309668242931366e-02" rms="1.9036807119846344e-01" purity="4.0264755487442017e-02" nType="-99"/>
        </Node>
      </Node>
    </BinaryTree>
    <BinaryTree type="DecisionTree" boostWeight="1.0000000000000000e+00" itree="17">
      <Node pos="s" depth="0" NCoef="0" IVar="4" Cut="1.0000000000000000e+00" cType="1" res="0.0000000000000000e+00" rms="7.1965709328651428e-02" purity="5.0424242019653320e-01" nType="0">
        <Node pos="l" depth="1" NCoef="0" IVar="1" Cut="2.2366342544555664e+00" cType="1" res="8.7443567812442780e-02" rms="2.7936208248138428e-01" purity="9.1352939605712891e-01" nType="0">
          <Node pos="l" depth="2" NCoef="0" IVar="-1" Cut="0.0000000000000000e+00" cType="1" res="3.6418963223695755e-02" rms="2.5098934769630432e-01" purity="9.3209236860275269e-01" nType="-99"/>
          <Node pos="r" depth="2" NCoef="0" IVar="-1" Cut="0.0000000000000000e+00" cType="1" res="-1.6102876979857683e-03" rms="3.9436063170433044e-01" purity="8.0561119318008423e-01" nType="-99"/>
        </Node>
        <Node pos="r" depth="1" NCoef="0" IVar="4" Cut="1.5000000000000000e+01" cType="1" res="0.0000000000000000e+00" rms="0.0000000000000000e+00" purity="2.5903084874153137e-01" nType="0">
          <Node pos="l" depth="2" NCoef="0" IVar="-1" Cut="0.0000000000000000e+00" cType="1" res="-6.1578927561640739e-03" rms="4.5563209056854248e-01" purity="3.5557201504707336e-01" nType="-99"/>
          <Node pos="r" depth="2" NCoef="0" IVar="-1" Cut="0.0000000000000000e+00" cType="1" res="-4.9028750509023666e-02" rms="1.3496758043766022e-01" purity="1.9041769206523895e-02" nType="-99"/>
        </Node>
      </Node>
    </BinaryTree>
    <BinaryTree type="DecisionTree" boostWeight="1.0000000000000000e+00" itree="18">
      <Node pos="s" depth="0" NCoef="0" IVar="4" Cut="1.0000000000000000e+00" cType="1" res="5.7025343179702759e-02" rms="4.9088466167449951e-01" purity="4.9688750505447388e-01" nType="0">
        <Node pos="l" depth="1" NCoef="0" IVar="1" Cut="9.5763117074966431e-01" cType="1" res="7.1241721510887146e-02" rms="2.9033768177032471e-01" purity="9.0586799383163452e-01" nType="0">
          <Node pos="l" depth="2" NCoef="0" IVar="-1" Cut="0.0000000000000000e+00" cType="1" res="3.9954323321580887e-02" rms="2.2130084037780762e-01" purity="9.4820970296859741e-01" nType="-99"/>
          <Node pos="r" depth="2" NCoef="0" IVar="-1" Cut="0.0000000000000000e+00" cType="1" res="1.3734200038015842e-02" rms="3.3834022283554077e-01" purity="8.6709600687026978e-01" nType="-99"/>
        </Node>
        <Node pos="r" depth="1" NCoef="0" IVar="5" Cut="1.0000000000000000e+00" cType="1" res="-4.3435629457235336e-02" rms="3.9291790127754211e-01" purity="2.6310274004936218e-01" nType="0">
          <Node pos="l" depth="2" NCoef="0" IVar="-1" Cut="0.0000000000000000e+00" cType="1" res="-5.1221564412117004e-02" rms="3.2299682497978210e-01" purity="1.3656388223171234e-01" nType="-99"/>
          <Node pos="r" depth="2" NCoef="0" IVar="-1" Cut="0.0000000000000000e+00" cType="1" res="-9.8135750740766525e-03" rms="3.9552888274192810e-01" purity="2.6832818984985352e-01" nType="-99"/>
        </Node>
      </Node>
    </BinaryTree>
    <BinaryTree type="DecisionTree" boostWeight="1.0000000000000000e+00" itree="19">
      <Node pos="s" depth="0" NCoef="0" IVar="4" Cut="1.0000000000000000e+00" cType="1" res="0.0000000000000000e+00" rms="0.0000000000000000e+00" purity="5.0032961368560791e-01" nType="0">
        <Node pos="l" depth="1" NCoef="0" IVar="6" Cut="1.1000000000000000e+01" cType="1" res="2.5844696164131165e-01" rms="0.0000000000000000e+00" purity="9.2412567138671875e-01" nType="0">
          <Node pos="l" depth="2" NCoef="0" IVar="-1" Cut="0.0000000000000000e+00" cType="1" res="3.7773281335830688e-02" rms="2.2838984429836273e-01" purity="9.4397544860839844e-01" nType="-99"/>
          <Node pos="r" depth="2" NCoef="0" IVar="-1" Cut="0.0000000000000000e+00" cType="1" res="9.9254995584487915e-03" rms="3.4810674190521240e-01" purity="8.5677081346511841e-01" nType="-99"/>
        </Node>
        <Node pos="r" depth="1" NCoef="0" IVar="0" Cut="1.3379147052764893e+00" cType="1" res="-4.7088362276554108e-02" rms="3.8937002420425415e-01" purity="2.5069832801818848e-01" nType="0">
          <Node pos="l" depth="2" NCoef="0" IVar="-1" Cut="0.0000000000000000e+00" cType="1" res="-1.8596109002828598e-02" rms="3.6342710256576538e-01" purity="2.0394000411033630e-01" nType="-99"/>
          <Node pos="r" depth="2" NCoef="0" IVar="-1" Cut="0.0000000000000000e+00" cType="1" res="2.7643025387078524e-03" rms="4.6503058075904846e-01" purity="4.1633623838424683e-01" nType="-99"/>
        </Node>
      </Node>
    </BinaryTree>
    <BinaryTree type="DecisionTree" boostWeight="1.0000000000000000e+00" itree="20">
      <Node pos="s" depth="0" NCoef="0" IVar="4" Cut="6.0000000000000000e+00" cType="1" res="0.0000000000000000e+00" rms="0.0000000000000000e+00" purity="4.9967098236083984e-01" nType="0">
        <Node pos="l" depth="1" NCoef="0" IVar="5" Cut="1.0000000000000000e+00" cType="1" res="3.4786779433488846e-02" rms="3.8653689622879028e-01" purity="7.1127235889434814e-01" nType="0">
          <Node pos="l" depth="2" NCoef="0" IVar="-1" Cut="0.0000000000000000e+00" cType="1" res="-4.4331490993499756e-02" rms="4.0908378362655640e-01" purity="3.7280702590942383e-01" nType="-99"/>
          <Node pos="r" depth="2" NCoef="0" IVar="-1" Cut="0.0000000000000000e+00" cType="1" res="1.2456251308321953e-02" rms="3.8515102863311768e-01" purity="7.2481572628021240e-01" nType="-99"/>
        </Node>
        <Node pos="r" depth="1" NCoef="0" IVar="4" Cut="2.1000000000000000e+01" cType="1" res="0.0000000000000000e+00" rms="1.7699807882308960e-02" purity="1.0682957619428635e-01" nType="0">
          <Node pos="l" depth="2" NCoef="0" IVar="-1" Cut="0.0000000000000000e+00" cType="1" res="-1.4608683064579964e-02" rms="3.6326336860656738e-01" purity="1.6208250820636749e-01" nType="-99"/>
          <Node pos="r" depth="2" NCoef="0" IVar="-1" Cut="0.0000000000000000e+00" cType="1" res="-5.1181659102439880e-02" rms="9.5983833074569702e-02" purity="9.5155704766511917e-03" nType="-99"/>
        </Node>
      </Node>
    </BinaryTree>
    <BinaryTree type="DecisionTree" boostWeight="1.0000000000000000e+00" itree="21">
      <Node pos="s" depth="0" NCoef="0" IVar="1" Cut="1.8214111328125000e+00" cType="1" res="-5.3695059614256024e-04" rms="3.5924810171127319e-01" purity="4.9922344088554382e-01" nType="0">
        <Node pos="l" depth="1" NCoef="0" IVar="6" Cut="1.1000000000000000e+01" cType="1" res="2.9643183946609497e-01" rms="0.0000000000000000e+00" purity="7.8530037403106689e-01" nType="0">
          <Node pos="l" depth="2" NCoef="0" IVar="-1" Cut="0.0000000000000000e+00" cType="1" res="2.5167545303702354e-02" rms="3.1577652692794800e-01" purity="8.2802075147628784e-01" nType="-99"/>
          <Node pos="r" depth="2" NCoef="0" IVar="-1" Cut="0.0000000000000000e+00" cType="1" res="-2.6612738147377968e-03" rms="3.7389925122261047e-01" purity="5.8691912889480591e-01" nType="-99"/>
        </Node>
        <Node pos="r" depth="1" NCoef="0" IVar="6" Cut="4.3000000000000000e+01" cType="1" res="0.0000000000000000e+00" rms="0.0000000000000000e+00" purity="3.3565825223922729e-01" nType="0">
          <Node pos="l" depth="2" NCoef="0" IVar="-1" Cut="0.0000000000000000e+00" cType="1" res="-4.5583625324070454e-03" rms="4.1583546996116638e-01" purity="4.3115279078483582e-01" nType="-99"/>
          <Node pos="r" depth="2" NCoef="0" IVar="-1" Cut="0.0000000000000000e+00" cType="1" res="-4.7048673033714294e-02" rms="1.4632122218608856e-01" purity="2.9347028583288193e-02" nType="-99"/>
        </Node>
      </Node>
    </BinaryTree>
    <BinaryTree type="DecisionTree" boostWeight="1.0000000000000000e+00" itree="22">
      <Node pos="s" depth="0" NCoef="0" IVar="4" Cut="6.0000000000000000e+00" cType="1" res="6.2132474035024643e-02" rms="3.6800071597099304e-02" purity="5.0737822055816650e-01" nType="0">
        <Node pos="l" depth="1" NCoef="0" IVar="5" Cut="1.0000000000000000e+00" cType="1" res="4.6234842389822006e-02" rms="3.7914875149726868e-01" purity="7.2736662626266479e-01" nType="0">
          <Node pos="l" depth="2" NCoef="0" IVar="-1" Cut="0.0000000000000000e+00" cType="1" res="-2.8934732079505920e-02" rms="4.2126721143722534e-01" purity="3.9484977722167969e-01" nType="-99"/>
          <Node pos="r" depth="2" NCoef="0" IVar="-1" Cut="0.0000000000000000e+00" cType="1" res="1.5657830983400345e-02" rms="3.7672117352485657e-01" purity="7.4125874042510986e-01" nType="-99"/>
        </Node>
        <Node pos="r" depth="1" NCoef="0" IVar="4" Cut="1.9000000000000000e+01" cType="1" res="3.1220729579217732e-04" rms="0.0000000000000000e+00" purity="1.0833593457937241e-01" nType="0">
          <Node pos="l" depth="2" NCoef="0" IVar="-1" Cut="0.0000000000000000e+00" cType="1" res="-8.4841717034578323e-03" rms="3.7158286571502686e-01" purity="1.7741076648235321e-01" nType="-99"/>
          <Node pos="r" depth="2" NCoef="0" IVar="-1" Cut="0.0000000000000000e+00" cType="1" res="-4.9148902297019958e-02" rms="1.0092544555664062e-01" purity="1.0558069683611393e-02" nType="-99"/>
        </Node>
      </Node>
    </BinaryTree>
    <BinaryTree type="DecisionTree" boostWeight="1.0000000000000000e+00" itree="23">
      <Node pos="s" depth="0" NCoef="0" IVar="4" Cut="1.0000000000000000e+00" cType="1" res="0.0000000000000000e+00" rms="0.0000000000000000e+00" purity="5.0753712654113770e-01" nType="0">
        <Node pos="l" depth="1" NCoef="0" IVar="6" Cut="1.5000000000000000e+01" cType="1" res="2.4314659833908081e-01" rms="0.0000000000000000e+00" purity="9.1716331243515015e-01" nType="0">
          <Node pos="l" depth="2" NCoef="0" IVar="-1" Cut="0.0000000000000000e+00" cType="1" res="2.8023924678564072e-02" rms="2.5538933277130127e-01" purity="9.2878943681716919e-01" nType="-99"/>
          <Node pos="r" depth="2" NCoef="0" IVar="-1" Cut="0.0000000000000000e+00" cType="1" res="-1.0131215676665306e-03" rms="3.7229022383689880e-01" purity="8.3292382955551147e-01" nType="-99"/>
        </Node>
        <Node pos="r" depth="1" NCoef="0" IVar="3" Cut="7.0000000000000000e+00" cType="1" res="0.0000000000000000e+00" rms="0.0000000000000000e+00" purity="2.6491352915763855e-01" nType="0">
          <Node pos="l" depth="2" NCoef="0" IVar="-1" Cut="0.0000000000000000e+00" cType="1" res="4.6762931742705405e-04" rms="4.6110317111015320e-01" purity="3.8692906498908997e-01" nType="-99"/>
          <Node pos="r" depth="2" NCoef="0" IVar="-1" Cut="0.0000000000000000e+00" cType="1" res="-1.9391410052776337e-02" rms="3.2374870777130127e-01" purity="1.5438950061798096e-01" nType="-99"/>
        </Node>
      </Node>
    </BinaryTree>
    <BinaryTree type="DecisionTree" boostWeight="1.0000000000000000e+00" itree="24">
      <Node pos="s" depth="0" NCoef="0" IVar="6" Cut="1.0000000000000000e+01" cType="1" res="0.0000000000000000e+00" rms="0.0000000000000000e+00" purity="4.9862349033355713e-01" nType="0">
        <Node pos="l" depth="1" NCoef="0" IVar="5" Cut="2.0000000000000000e+00" cType="1" res="4.3648641556501389e-02" rms="3.4422457218170166e-01" purity="7.5119739770889282e-01" nType="0">
          <Node pos="l" depth="2" NCoef="0" IVar="-1" Cut="0.0000000000000000e+00" cType="1" res="-2.8511745855212212e-02" rms="3.7099528312683105e-01" purity="4.4999998807907104e-01" nType="-99"/>
          <Node pos="r" depth="2" NCoef="0" IVar="-1" Cut="0.0000000000000000e+00" cType="1" res="1.7934361472725868e-02" rms="3.4373405575752258e-01" purity="7.7583855390548706e-01" nType="-99"/>
        </Node>
        <Node pos="r" depth="1" NCoef="0" IVar="5" Cut="6.0000000000000000e+00" cType="1" res="-3.9774917066097260e-02" rms="3.5893756151199341e-01" purity="3.0269846320152283e-01" nType="0">
          <Node pos="l" depth="2" NCoef="0" IVar="-1" Cut="0.0000000000000000e+00" cType="1" res="-2.7879012748599052e-02" rms="4.0125408768653870e-01" purity="3.1828442215919495e-01" nType="-99"/>
          <Node pos="r" depth="2" NCoef="0" IVar="-1" Cut="0.0000000000000000e+00" cType="1" res="-1.1230668984353542e-02" rms="3.5523107647895813e-01" purity="3.0122029781341553e-01" nType="-99"/>
        </Node>
      </Node>
    </BinaryTree>
    <BinaryTree type="DecisionTree" boostWeight="1.0000000000000000e+00" itree="25">
      <Node pos="s" depth="0" NCoef="0" IVar="4" Cut="2.0000000000000000e+00" cType="1" res="0.0000000000000000e+00" rms="2.3860681056976318e-01" purity="5.0161236524581909e-01" nType="0">
        <Node pos="l" depth="1" NCoef="0" IVar="1" Cut="2.0418362617492676e+00" cType="1" res="4.1736714541912079e-02" rms="3.2564902305603027e-01" purity="8.5735440254211426e-01" nType="0">
          <Node pos="l" depth="2" NCoef="0" IVar="-1" Cut="0.0000000000000000e+00" cType="1" res="2.2162495180964470e-02" rms="2.8447854518890381e-01" purity="8.9719945192337036e-01" nType="-99"/>
          <Node pos="r" depth="2" NCoef="0" IVar="-1" Cut="0.0000000000000000e+00" cType="1" res="1.8435826059430838e-03" rms="4.1200557351112366e-01" purity="7.5355869531631470e-01" nType="-99"/>
        </Node>
        <Node pos="r" depth="1" NCoef="0" IVar="5" Cut="2.0000000000000000e+00" cType="1" res="-3.7011750042438507e-02" rms="3.7203592061996460e-01" purity="2.0987653732299805e-01" nType="0">
          <Node pos="l" depth="2" NCoef="0" IVar="-1" Cut="0.0000000000000000e+00" cType="1" res="-4.1972391307353973e-02" rms="3.1345102190971375e-01" purity="1.2173912674188614e-01" nType="-99"/>
          <Node pos="r" depth="2" NCoef="0" IVar="-1" Cut="0.0000000000000000e+00" cType="1" res="-9.4875320792198181e-03" rms="3.7481316924095154e-01" purity="2.1417957544326782e-01" nType="-99"/>
        </Node>
      </Node>
    </BinaryTree>
    <BinaryTree type="DecisionTree" boostWeight="1.0000000000000000e+00" itree="26">
      <Node pos="s" depth="0" NCoef="0" IVar="4" Cut="6.0000000000000000e+00" cType="1" res="0.0000000000000000e+00" rms="7.8723773360252380e-02" purity="4.9501991271972656e-01" nType="0">
        <Node pos="l" depth="1" NCoef="0" IVar="5" Cut="2.0000000000000000e+00" cType="1" res="2.0352497696876526e-02" rms="3.8762885332107544e-01" purity="7.0535260438919067e-01" nType="0">
          <Node pos="l" depth="2" NCoef="0" IVar="-1" Cut="0.0000000000000000e+00" cType="1" res="-2.2754142060875893e-02" rms="3.9393219351768494e-01" purity="4.5058140158653259e-01" nType="-99"/>
          <Node pos="r" depth="2" NCoef="0" IVar="-1" Cut="0.0000000000000000e+00" cType="1" res="7.9371267929673195e-03" rms="3.8798621296882629e-01" purity="7.2116947174072266e-01" nType="-99"/>
        </Node>
        <Node pos="r" depth="1" NCoef="0" IVar="4" Cut="1.7000000000000000e+01" cType="1" res="0.0000000000000000e+00" rms="2.5193633511662483e-02" purity="1.0218977928161621e-01" nType="0">
          <Node pos="l" depth="2" NCoef="0" IVar="-1" Cut="0.0000000000000000e+00" cType="1" res="-7.9809753224253654e-03" rms="3.7640777230262756e-01" purity="1.7977528274059296e-01" nType="-99"/>
          <Node pos="r" depth="2" NCoef="0" IVar="-1" Cut="0.0000000000000000e+00" cType="1" res="-4.6535521745681763e-02" rms="1.0978064686059952e-01" purity="1.2328767217695713e-02" nType="-99"/>
        </Node>
      </Node>
    </BinaryTree>
    <BinaryTree type="DecisionTree" boostWeight="1.0000000000000000e+00" itree="27">
      <Node pos="s" depth="0" NCoef="0" IVar="6" Cut="1.0000000000000000e+01" cType="1" res="0.0000000000000000e+00" rms="0.0000000000000000e+00" purity="5.0651538372039795e-01" nType="0">
        <Node pos="l" depth="1" NCoef="0" IVar="2" Cut="-5.4235595464706421e-01" cType="1" res="3.2542947679758072e-02" rms="3.5640111565589905e-01" purity="7.4437218904495239e-01" nType="0">
          <Node pos="l" depth="2" NCoef="0" IVar="-1" Cut="0.0000000000000000e+00" cType="1" res="1.4611557126045227e-02" rms="3.4341067075729370e-01" purity="7.7000284194946289e-01" nType="-99"/>
          <Node pos="r" depth="2" NCoef="0" IVar="-1" Cut="0.0000000000000000e+00" cType="1" res="-9.9068256095051765e-03" rms="4.2857468128204346e-01" purity="5.6947159767150879e-01" nType="-99"/>
        </Node>
        <Node pos="r" depth="1" NCoef="0" IVar="4" Cut="1.9000000000000000e+01" cType="1" res="0.0000000000000000e+00" rms="1.2621757341548800e-03" purity="3.1260195374488831e-01" nType="0">
          <Node pos="l" depth="2" NCoef="0" IVar="-1" Cut="0.0000000000000000e+00" cType="1" res="-3.2723725307732821e-03" rms="4.1423264145851135e-01" purity="4.1249999403953552e-01" nType="-99"/>
          <Node pos="r" depth="2" NCoef="0" IVar="-1" Cut="0.0000000000000000e+00" cType="1" res="-4.5042179524898529e-02" rms="1.0908866673707962e-01" purity="1.2254902161657810e-02" nType="-99"/>
        </Node>
      </Node>
    </BinaryTree>
    <BinaryTree type="DecisionTree" boostWeight="1.0000000000000000e+00" itree="28">
      <Node pos="s" depth="0" NCoef="0" IVar="6" Cut="1.1000000000000000e+01" cType="1" res="0.0000000000000000e+00" rms="0.0000000000000000e+00" purity="4.9977684020996094e-01" nType="0">
        <Node pos="l" depth="1" NCoef="0" IVar="5" Cut="3.0000000000000000e+00" cType="1" res="3.5126499831676483e-02" rms="3.5981038212776184e-01" purity="7.3996675014495850e-01" nType="0">
          <Node pos="l" depth="2" NCoef="0" IVar="-1" Cut="0.0000000000000000e+00" cType="1" res="-8.8121686130762100e-03" rms="4.0665781497955322e-01" purity="5.5605381727218628e-01" nType="-99"/>
          <Node pos="r" depth="2" NCoef="0" IVar="-1" Cut="0.0000000000000000e+00" cType="1" res="1.4001561328768730e-02" rms="3.5645702481269836e-01" purity="7.6175296306610107e-01" nType="-99"/>
        </Node>
        <Node pos="r" depth="1" NCoef="0" IVar="6" Cut="4.3000000000000000e+01" cType="1" res="0.0000000000000000e+00" rms="0.0000000000000000e+00" purity="2.8688696026802063e-01" nType="0">
          <Node pos="l" depth="2" NCoef="0" IVar="-1" Cut="0.0000000000000000e+00" cType="1" res="-2.6404445525258780e-03" rms="4.0406826138496399e-01" purity="3.9129146933555603e-01" nType="-99"/>
          <Node pos="r" depth="2" NCoef="0" IVar="-1" Cut="0.0000000000000000e+00" cType="1" res="-4.0416348725557327e-02" rms="1.5371260046958923e-01" purity="3.0545454472303391e-02" nType="-99"/>
        </Node>
      </Node>
    </BinaryTree>
    <BinaryTree type="DecisionTree" boostWeight="1.0000000000000000e+00" itree="29">
      <Node pos="s" depth="0" NCoef="0" IVar="4" Cut="1.0000000000000000e+00" cType="1" res="4.6848028564453125e+02" rms="0.0000000000000000e+00" purity="4.9536469578742981e-01" nType="0">
        <Node pos="l" depth="1" NCoef="0" IVar="5" Cut="5.0000000000000000e+00" cType="1" res="2.4847205728292465e-02" rms="2.9468625783920288e-01" purity="8.9963722229003906e-01" nType="0">
          <Node pos="l" depth="2" NCoef="0" IVar="-1" Cut="0.0000000000000000e+00" cType="1" res="-2.5698443874716759e-02" rms="3.9543345570564270e-01" purity="7.9954952001571655e-01" nType="-99"/>
          <Node pos="r" depth="2" NCoef="0" IVar="-1" Cut="0.0000000000000000e+00" cType="1" res="1.7426669597625732e-02" rms="2.7602520585060120e-01" purity="9.1515362262725830e-01" nType="-99"/>
        </Node>
        <Node pos="r" depth="1" NCoef="0" IVar="0" Cut="1.3379147052764893e+00" cType="1" res="-2.7345828711986542e-02" rms="3.9210018515586853e-01" purity="2.5845882296562195e-01" nType="0">
          <Node pos="l" depth="2" NCoef="0" IVar="-1" Cut="0.0000000000000000e+00" cType="1" res="-1.2096239253878593e-02" rms="3.6910280585289001e-01" purity="2.1015958487987518e-01" nType="-99"/>
          <Node pos="r" depth="2" NCoef="0" IVar="-1" Cut="0.0000000000000000e+00" cType="1" res="2.3310119286179543e-03" rms="4.6589344739913940e-01" purity="4.3812710046768188e-01" nType="-99"/>
        </Node>
      </Node>
    </BinaryTree>
    <BinaryTree type="DecisionTree" boostWeight="1.0000000000000000e+00" itree="30">
      <Node pos="s" depth="0" NCoef="0" IVar="4" Cut="1.0000000000000000e+00" cType="1" res="3.7436616210937500e+03" rms="0.0000000000000000e+00" purity="4.8755997419357300e-01" nType="0">
        <Node pos="l" depth="1" NCoef="0" IVar="1" Cut="1.2112830877304077e+00" cType="1" res="2.6904530823230743e-02" rms="2.8990095853805542e-01" purity="9.0501403808593750e-01" nType="0">
          <Node pos="l" depth="2" NCoef="0" IVar="-1" Cut="0.0000000000000000e+00" cType="1" res="2.4297792464494705e-02" rms="2.3801933228969574e-01" purity="9.3935859203338623e-01" nType="-99"/>
          <Node pos="r" depth="2" NCoef="0" IVar="-1" Cut="0.0000000000000000e+00" cType="1" res="1.9572908058762550e-03" rms="3.3840060234069824e-01" purity="8.6564171314239502e-01" nType="-99"/>
        </Node>
        <Node pos="r" depth="1" NCoef="0" IVar="5" Cut="2.0000000000000000e+00" cType="1" res="-2.2825010120868683e-02" rms="3.8631236553192139e-01" purity="2.5452017784118652e-01" nType="0">
          <Node pos="l" depth="2" NCoef="0" IVar="-1" Cut="0.0000000000000000e+00" cType="1" res="-2.9025657102465630e-02" rms="3.4923735260963440e-01" purity="1.7437721788883209e-01" nType="-99"/>
          <Node pos="r" depth="2" NCoef="0" IVar="-1" Cut="0.0000000000000000e+00" cType="1" res="-5.9011746197938919e-03" rms="3.8943281769752502e-01" purity="2.5863644480705261e-01" nType="-99"/>
        </Node>
      </Node>
    </BinaryTree>
    <BinaryTree type="DecisionTree" boostWeight="1.0000000000000000e+00" itree="31">
      <Node pos="s" depth="0" NCoef="0" IVar="4" Cut="2.0000000000000000e+00" cType="1" res="0.0000000000000000e+00" rms="9.2321989359334111e-04" purity="4.9978181719779968e-01" nType="0">
        <Node pos="l" depth="1" NCoef="0" IVar="5" Cut="5.0000000000000000e+00" cType="1" res="2.9513569548726082e-02" rms="3.2457610964775085e-01" purity="8.5800969600677490e-01" nType="0">
          <Node pos="l" depth="2" NCoef="0" IVar="-1" Cut="0.0000000000000000e+00" cType="1" res="-6.1690011061728001e-03" rms="3.9159333705902100e-01" purity="7.7068966627120972e-01" nType="-99"/>
          <Node pos="r" depth="2" NCoef="0" IVar="-1" Cut="0.0000000000000000e+00" cType="1" res="1.4821167103946209e-02" rms="3.1356036663055420e-01" purity="8.7231636047363281e-01" nType="-99"/>
        </Node>
        <Node pos="r" depth="1" NCoef="0" IVar="0" Cut="1.2878713607788086e+00" cType="1" res="-2.5813775137066841e-02" rms="3.6985516548156738e-01" purity="2.0729289948940277e-01" nType="0">
          <Node pos="l" depth="2" NCoef="0" IVar="-1" Cut="0.0000000000000000e+00" cType="1" res="-1.3162429444491863e-02" rms="3.4014692902565002e-01" purity="1.6405276954174042e-01" nType="-99"/>
          <Node pos="r" depth="2" NCoef="0" IVar="-1" Cut="0.0000000000000000e+00" cType="1" res="4.0919375605881214e-03" rms="4.6557974815368652e-01" purity="3.7609329819679260e-01" nType="-99"/>
        </Node>
      </Node>
    </BinaryTree>
    <BinaryTree type="DecisionTree" boostWeight="1.0000000000000000e+00" itree="32">
      <Node pos="s" depth="0" NCoef="0" IVar="1" Cut="1.3020104169845581e+00" cType="1" res="-7.7384180622175336e-04" rms="3.5986372828483582e-01" purity="4.9520978331565857e-01" nType="0">
        <Node pos="l" depth="1" NCoef="0" IVar="4" Cut="1.0000000000000000e+00" cType="1" res="6.3802880048751831e-01" rms="0.0000000000000000e+00" purity="8.5128653049468994e-01" nType="0">
          <Node pos="l" depth="2" NCoef="0" IVar="-1" Cut="0.0000000000000000e+00" cType="1" res="2.8206890448927879e-02" rms="2.1693181991577148e-01" purity="9.5002716779708862e-01" nType="-99"/>
          <Node pos="r" depth="2" NCoef="0" IVar="-1" Cut="0.0000000000000000e+00" cType="1" res="-2.6315546710975468e-04" rms="4.9042522907257080e-01" purity="4.4911503791809082e-01" nType="-99"/>
        </Node>
        <Node pos="r" depth="1" NCoef="0" IVar="5" Cut="2.0000000000000000e+00" cType="1" res="-1.3911470770835876e-02" rms="3.7735217809677124e-01" purity="3.7492632865905762e-01" nType="0">
          <Node pos="l" depth="2" NCoef="0" IVar="-1" Cut="0.0000000000000000e+00" cType="1" res="-2.9892819002270699e-02" rms="3.4936961531639099e-01" purity="2.9084968566894531e-01" nType="-99"/>
          <Node pos="r" depth="2" NCoef="0" IVar="-1" Cut="0.0000000000000000e+00" cType="1" res="-3.5178342368453741e-03" rms="3.7967923283576965e-01" purity="3.7889540195465088e-01" nType="-99"/>
        </Node>
      </Node>
    </BinaryTree>
    <BinaryTree type="DecisionTree" boostWeight="1.0000000000000000e+00" itree="33">
      <Node pos="s" depth="0" NCoef="0" IVar="4" Cut="1.0000000000000000e+00" cType="1" res="5.5735144764184952e-02" rms="4.8625430464744568e-01" purity="4.9559691548347473e-01" nType="0">
        <Node pos="l" depth="1" NCoef="0" IVar="1" Cut="2.2152888774871826e+00" cType="1" res="2.8243230655789375e-02" rms="2.7805384993553162e-01" purity="9.1261839866638184e-01" nType="0">
          <Node pos="l" depth="2" NCoef="0" IVar="-1" Cut="0.0000000000000000e+00" cType="1" res="2.0600259304046631e-02" rms="2.5053319334983826e-01" purity="9.3167030811309814e-01" nType="-99"/>
          <Node pos="r" depth="2" NCoef="0" IVar="-1" Cut="0.0000000000000000e+00" cType="1" res="-1.2127396650612354e-02" rms="3.9031741023063660e-01" purity="8.0867850780487061e-01" nType="-99"/>
        </Node>
        <Node pos="r" depth="1" NCoef="0" IVar="5" Cut="6.0000000000000000e+00" cType="1" res="-1.8338875845074654e-02" rms="3.8643747568130493e-01" purity="2.5605475902557373e-01" nType="0">
          <Node pos="l" depth="2" NCoef="0" IVar="-1" Cut="0.0000000000000000e+00" cType="1" res="-1.6134699806571007e-02" rms="4.2265006899833679e-01" purity="2.8608247637748718e-01" nType="-99"/>
          <Node pos="r" depth="2" NCoef="0" IVar="-1" Cut="0.0000000000000000e+00" cType="1" res="-3.5262268502265215e-03" rms="3.8151669502258301e-01" purity="2.5132060050964355e-01" nType="-99"/>
        </Node>
      </Node>
    </BinaryTree>
    <BinaryTree type="DecisionTree" boostWeight="1.0000000000000000e+00" itree="34">
      <Node pos="s" depth="0" NCoef="0" IVar="6" Cut="1.0000000000000000e+01" cType="1" res="0.0000000000000000e+00" rms="0.0000000000000000e+00" purity="4.9844822287559509e-01" nType="0">
        <Node pos="l" depth="1" NCoef="0" IVar="2" Cut="-7.8322589397430420e-01" cType="1" res="2.1116228774189949e-02" rms="3.5267329216003418e-01" purity="7.4936515092849731e-01" nType="0">
          <Node pos="l" depth="2" NCoef="0" IVar="-1" Cut="0.0000000000000000e+00" cType="1" res="1.2066803872585297e-02" rms="3.4053808450698853e-01" purity="7.8297364711761475e-01" nType="-99"/>
          <Node pos="r" depth="2" NCoef="0" IVar="-1" Cut="0.0000000000000000e+00" cType="1" res="-1.1896086856722832e-02" rms="4.0787169337272644e-01" purity="5.6312292814254761e-01" nType="-99"/>
        </Node>
        <Node pos="r" depth="1" NCoef="0" IVar="3" Cut="2.5000000000000000e+01" cType="1" res="0.0000000000000000e+00" rms="0.0000000000000000e+00" purity="3.0409127473831177e-01" nType="0">
          <Node pos="l" depth="2" NCoef="0" IVar="-1" Cut="0.0000000000000000e+00" cType="1" res="-3.5798796452581882e-03" rms="3.8878500461578369e-01" purity="3.7228259444236755e-01" nType="-99"/>
          <Node pos="r" depth="2" NCoef="0" IVar="-1" Cut="0.0000000000000000e+00" cType="1" res="-4.1271675378084183e-02" rms="1.5348702669143677e-01" purity="3.7644788622856140e-02" nType="-99"/>
        </Node>
      </Node>
    </BinaryTree>
    <BinaryTree type="DecisionTree" boostWeight="1.0000000000000000e+00" itree="35">
      <Node pos="s" depth="0" NCoef="0" IVar="4" Cut="1.9000000000000000e+01" cType="1" res="0.0000000000000000e+00" rms="0.0000000000000000e+00" purity="5.0775665044784546e-01" nType="0">
        <Node pos="l" depth="1" NCoef="0" IVar="5" Cut="2.0000000000000000e+00" cType="1" res="1.4031406491994858e-02" rms="3.7913426756858826e-01" purity="5.8735632896423340e-01" nType="0">
          <Node pos="l" depth="2" NCoef="0" IVar="-1" Cut="0.0000000000000000e+00" cType="1" res="-1.8348215147852898e-02" rms="4.0770980715751648e-01" purity="3.9088729023933411e-01" nType="-99"/>
          <Node pos="r" depth="2" NCoef="0" IVar="-1" Cut="0.0000000000000000e+00" cType="1" res="5.8877104893326759e-03" rms="3.7803944945335388e-01" purity="5.9840822219848633e-01" nType="-99"/>
        </Node>
        <Node pos="r" depth="1" NCoef="0" IVar="2" Cut="-2.2239959239959717e+00" cType="1" res="-4.5852482318878174e-02" rms="1.1095949262380600e-01" purity="1.2708499096333981e-02" nType="0">
          <Node pos="l" depth="2" NCoef="0" IVar="-1" Cut="0.0000000000000000e+00" cType="1" res="-3.8482572883367538e-02" rms="1.2111273407936096e-01" purity="1.5367727726697922e-02" nType="-99"/>
          <Node pos="r" depth="2" NCoef="0" IVar="-1" Cut="0.0000000000000000e+00" cType="1" res="-4.9097672104835510e-02" rms="7.6628677546977997e-02" purity="5.7471264153718948e-03" nType="-99"/>
        </Node>
      </Node>
    </BinaryTree>
    <BinaryTree type="DecisionTree" boostWeight="1.0000000000000000e+00" itree="36">
      <Node pos="s" depth="0" NCoef="0" IVar="4" Cut="6.0000000000000000e+00" cType="1" res="6.5042465925216675e-02" rms="1.5483865514397621e-02" purity="5.0145286321640015e-01" nType="0">
        <Node pos="l" depth="1" NCoef="0" IVar="6" Cut="2.1000000000000000e+01" cType="1" res="1.4471656084060669e-01" rms="0.0000000000000000e+00" purity="7.1467715501785278e-01" nType="0">
          <Node pos="l" depth="2" NCoef="0" IVar="-1" Cut="0.0000000000000000e+00" cType="1" res="4.2223762720823288e-03" rms="3.7479376792907715e-01" purity="7.2665405273437500e-01" nType="-99"/>
          <Node pos="r" depth="2" NCoef="0" IVar="-1" Cut="0.0000000000000000e+00" cType="1" res="2.0684262737631798e-02" rms="4.5875427126884460e-01" purity="5.9927141666412354e-01" nType="-99"/>
        </Node>
        <Node pos="r" depth="1" NCoef="0" IVar="6" Cut="3.4000000000000000e+01" cType="1" res="0.0000000000000000e+00" rms="0.0000000000000000e+00" purity="1.0099710524082184e-01" nType="0">
          <Node pos="l" depth="2" NCoef="0" IVar="-1" Cut="0.0000000000000000e+00" cType="1" res="-5.0841914489865303e-03" rms="3.7563368678092957e-01" purity="1.7797695100307465e-01" nType="-99"/>
          <Node pos="r" depth="2" NCoef="0" IVar="-1" Cut="0.0000000000000000e+00" cType="1" res="-3.7916410714387894e-02" rms="1.4650803804397583e-01" purity="2.3270847275853157e-02" nType="-99"/>
        </Node>
      </Node>
    </BinaryTree>
    <BinaryTree type="DecisionTree" boostWeight="1.0000000000000000e+00" itree="37">
      <Node pos="s" depth="0" NCoef="0" IVar="5" Cut="2.0000000000000000e+00" cType="1" res="1.5848860493861139e-04" rms="3.5065117478370667e-01" purity="4.9932989478111267e-01" nType="0">
        <Node pos="l" depth="1" NCoef="0" IVar="-1" Cut="0.0000000000000000e+00" cType="1" res="-2.4357650429010391e-02" rms="3.7508729100227356e-01" purity="3.7977528572082520e-01" nType="-99"/>
        <Node pos="r" depth="1" NCoef="0" IVar="6" Cut="1.5000000000000000e+01" cType="1" res="3.9434057617187500e+03" rms="0.0000000000000000e+00" purity="5.0558233261108398e-01" nType="0">
          <Node pos="l" depth="2" NCoef="0" IVar="-1" Cut="0.0000000000000000e+00" cType="1" res="7.4624610133469105e-03" rms="3.6674728989601135e-01" purity="7.1323829889297485e-01" nType="-99"/>
          <Node pos="r" depth="2" NCoef="0" IVar="-1" Cut="0.0000000000000000e+00" cType="1" res="-8.2539021968841553e-03" rms="3.2412478327751160e-01" purity="2.2228397428989410e-01" nType="-99"/>
        </Node>
      </Node>
    </BinaryTree>
    <BinaryTree type="DecisionTree" boostWeight="1.0000000000000000e+00" itree="38">
      <Node pos="s" depth="0" NCoef="0" IVar="4" Cut="1.9000000000000000e+01" cType="1" res="6.8742327392101288e-02" rms="0.0000000000000000e+00" purity="5.0697469711303711e-01" nType="0">
        <Node pos="l" depth="1" NCoef="0" IVar="6" Cut="5.0000000000000000e+00" cType="1" res="0.0000000000000000e+00" rms="0.0000000000000000e+00" purity="5.8897697925567627e-01" nType="0">
          <Node pos="l" depth="2" NCoef="0" IVar="-1" Cut="0.0000000000000000e+00" cType="1" res="1.5527098439633846e-02" rms="3.1361183524131775e-01" purity="8.2735425233840942e-01" nType="-99"/>
          <Node pos="r" depth="2" NCoef="0" IVar="-1" Cut="0.0000000000000000e+00" cType="1" res="1.0857161832973361e-03" rms="4.0131619572639465e-01" purity="5.1700794696807861e-01" nType="-99"/>
        </Node>
        <Node pos="r" depth="1" NCoef="0" IVar="2" Cut="-2.1776039600372314e+00" cType="1" res="-4.0346130728721619e-02" rms="9.5960043370723724e-02" purity="9.4637228175997734e-03" nType="0">
          <Node pos="l" depth="2" NCoef="0" IVar="-1" Cut="0.0000000000000000e+00" cType="1" res="-4.0519367903470993e-02" rms="1.0312957316637039e-01" purity="1.1055276729166508e-02" nType="-99"/>
          <Node pos="r" depth="2" NCoef="0" IVar="-1" Cut="0.0000000000000000e+00" cType="1" res="-4.9866467714309692e-02" rms="6.1684198677539825e-02" purity="3.6630036775022745e-03" nType="-99"/>
        </Node>
      </Node>
    </BinaryTree>
    <BinaryTree type="DecisionTree" boostWeight="1.0000000000000000e+00" itree="39">
      <Node pos="s" depth="0" NCoef="0" IVar="5" Cut="1.0000000000000000e+00" cType="1" res="-2.2416473366320133e-03" rms="3.5736712813377380e-01" purity="4.9563854932785034e-01" nType="0">
        <Node pos="l" depth="1" NCoef="0" IVar="-1" Cut="0.0000000000000000e+00" cType="1" res="-3.0809020623564720e-02" rms="3.4555849432945251e-01" purity="2.6621159911155701e-01" nType="-99"/>
        <Node pos="r" depth="1" NCoef="0" IVar="4" Cut="1.9000000000000000e+01" cType="1" res="0.0000000000000000e+00" rms="9.5041247550398111e-04" purity="5.0341081619262695e-01" nType="0">
          <Node pos="l" depth="2" NCoef="0" IVar="-1" Cut="0.0000000000000000e+00" cType="1" res="2.5543323718011379e-03" rms="3.8578248023986816e-01" purity="5.8880913257598877e-01" nType="-99"/>
          <Node pos="r" depth="2" NCoef="0" IVar="-1" Cut="0.0000000000000000e+00" cType="1" res="-4.5439496636390686e-02" rms="7.9120948910713196e-02" purity="6.3091483898460865e-03" nType="-99"/>
        </Node>
      </Node>
    </BinaryTree>
    <BinaryTree type="DecisionTree" boostWeight="1.0000000000000000e+00" itree="40">
      <Node pos="s" depth="0" NCoef="0" IVar="1" Cut="5.7125616073608398e-01" cType="1" res="-1.8140387255698442e-03" rms="3.5539117455482483e-01" purity="4.9382716417312622e-01" nType="0">
        <Node pos="l" depth="1" NCoef="0" IVar="1" Cut="-1.0782150551676750e-02" cType="1" res="3.4046262502670288e-02" rms="2.6224043965339661e-01" purity="8.9143228530883789e-01" nType="0">
          <Node pos="l" depth="2" NCoef="0" IVar="-1" Cut="0.0000000000000000e+00" cType="1" res="1.3206463307142258e-02" rms="2.5732567906379700e-01" purity="8.9454871416091919e-01" nType="-99"/>
          <Node pos="r" depth="2" NCoef="0" IVar="-1" Cut="0.0000000000000000e+00" cType="1" res="2.7527442201972008e-02" rms="2.7334806323051453e-01" purity="8.8292682170867920e-01" nType="-99"/>
        </Node>
        <Node pos="r" depth="1" NCoef="0" IVar="0" Cut="1.1760154962539673e+00" cType="1" res="-9.1619882732629776e-03" rms="3.7117940187454224e-01" purity="4.1235592961311340e-01" nType="0">
          <Node pos="l" depth="2" NCoef="0" IVar="-1" Cut="0.0000000000000000e+00" cType="1" res="-7.6940921135246754e-03" rms="3.5201051831245422e-01" purity="3.0251070857048035e-01" nType="-99"/>
          <Node pos="r" depth="2" NCoef="0" IVar="-1" Cut="0.0000000000000000e+00" cType="1" res="3.3195374999195337e-03" rms="4.0451672673225403e-01" purity="6.2231761217117310e-01" nType="-99"/>
        </Node>
      </Node>
    </BinaryTree>
    <BinaryTree type="DecisionTree" boostWeight="1.0000000000000000e+00" itree="41">
      <Node pos="s" depth="0" NCoef="0" IVar="4" Cut="1.0000000000000000e+00" cType="1" res="0.0000000000000000e+00" rms="0.0000000000000000e+00" purity="4.9347287416458130e-01" nType="0">
        <Node pos="l" depth="1" NCoef="0" IVar="2" Cut="-1.8716211318969727e+00" cType="1" res="1.8552519381046295e-02" rms="2.8142061829566956e-01" purity="9.1053920984268188e-01" nType="0">
          <Node pos="l" depth="2" NCoef="0" IVar="-1" Cut="0.0000000000000000e+00" cType="1" res="1.6180364415049553e-02" rms="2.6213419437408447e-01" purity="9.2286115884780884e-01" nType="-99"/>
          <Node pos="r" depth="2" NCoef="0" IVar="-1" Cut="0.0000000000000000e+00" cType="1" res="-2.4111762177199125e-03" rms="3.1354722380638123e-01" purity="8.8711112737655640e-01" nType="-99"/>
        </Node>
        <Node pos="r" depth="1" NCoef="0" IVar="3" Cut="2.0000000000000000e+00" cType="1" res="0.0000000000000000e+00" rms="0.0000000000000000e+00" purity="2.5133404135704041e-01" nType="0">
          <Node pos="l" depth="2" NCoef="0" IVar="-1" Cut="0.0000000000000000e+00" cType="1" res="7.9012578353285789e-03" rms="4.5210203528404236e-01" purity="4.1477951407432556e-01" nType="-99"/>
          <Node pos="r" depth="2" NCoef="0" IVar="-1" Cut="0.0000000000000000e+00" cType="1" res="-8.7909819558262825e-03" rms="3.7423175573348999e-01" purity="2.2266359627246857e-01" nType="-99"/>
        </Node>
      </Node>
    </BinaryTree>
    <BinaryTree type="DecisionTree" boostWeight="1.0000000000000000e+00" itree="42">
      <Node pos="s" depth="0" NCoef="0" IVar="1" Cut="1.0423099994659424e+00" cType="1" res="-7.1323855081573129e-04" rms="3.4999930858612061e-01" purity="4.9671748280525208e-01" nType="0">
        <Node pos="l" depth="1" NCoef="0" IVar="2" Cut="-1.5577032566070557e+00" cType="1" res="3.4896906465291977e-02" rms="2.7818855643272400e-01" purity="8.8006228208541870e-01" nType="0">
          <Node pos="l" depth="2" NCoef="0" IVar="-1" Cut="0.0000000000000000e+00" cType="1" res="2.3646730929613113e-02" rms="2.5281924009323120e-01" purity="9.0050375461578369e-01" nType="-99"/>
          <Node pos="r" depth="2" NCoef="0" IVar="-1" Cut="0.0000000000000000e+00" cType="1" res="-3.7094897124916315e-03" rms="3.7193360924720764e-01" purity="7.8402364253997803e-01" nType="-99"/>
        </Node>
        <Node pos="r" depth="1" NCoef="0" IVar="5" Cut="1.0000000000000000e+00" cType="1" res="-1.0113453492522240e-02" rms="3.6514601111412048e-01" purity="3.9215409755706787e-01" nType="0">
          <Node pos="l" depth="2" NCoef="0" IVar="-1" Cut="0.0000000000000000e+00" cType="1" res="-2.8787868097424507e-02" rms="3.5682648420333862e-01" purity="2.5954198837280273e-01" nType="-99"/>
          <Node pos="r" depth="2" NCoef="0" IVar="-1" Cut="0.0000000000000000e+00" cType="1" res="-2.4900261778384447e-03" rms="3.6650842428207397e-01" purity="3.9726430177688599e-01" nType="-99"/>
        </Node>
      </Node>
    </BinaryTree>
    <BinaryTree type="DecisionTree" boostWeight="1.0000000000000000e+00" itree="43">
      <Node pos="s" depth="0" NCoef="0" IVar="1" Cut="1.3034830093383789e+00" cType="1" res="-1.6384955961257219e-04" rms="3.5208874940872192e-01" purity="4.9607095122337341e-01" nType="0">
        <Node pos="l" depth="1" NCoef="0" IVar="5" Cut="8.0000000000000000e+00" cType="1" res="2.9276089742779732e-02" rms="2.8118261694908142e-01" purity="8.5975331068038940e-01" nType="0">
          <Node pos="l" depth="2" NCoef="0" IVar="-1" Cut="0.0000000000000000e+00" cType="1" res="2.3553414270281792e-02" rms="3.1963697075843811e-01" purity="8.4653466939926147e-01" nType="-99"/>
          <Node pos="r" depth="2" NCoef="0" IVar="-1" Cut="0.0000000000000000e+00" cType="1" res="1.0228991508483887e-02" rms="2.6766750216484070e-01" purity="8.6481362581253052e-01" nType="-99"/>
        </Node>
        <Node pos="r" depth="1" NCoef="0" IVar="5" Cut="2.0000000000000000e+00" cType="1" res="-9.3833468854427338e-03" rms="3.7005215883255005e-01" purity="3.7758594751358032e-01" nType="0">
          <Node pos="l" depth="2" NCoef="0" IVar="-1" Cut="0.0000000000000000e+00" cType="1" res="-2.6618080213665962e-02" rms="3.5979509353637695e-01" purity="2.7009645104408264e-01" nType="-99"/>
          <Node pos="r" depth="2" NCoef="0" IVar="-1" Cut="0.0000000000000000e+00" cType="1" res="-2.0951142068952322e-03" rms="3.7134206295013428e-01" purity="3.8280275464057922e-01" nType="-99"/>
        </Node>
      </Node>
    </BinaryTree>
    <BinaryTree type="DecisionTree" boostWeight="1.0000000000000000e+00" itree="44">
      <Node pos="s" depth="0" NCoef="0" IVar="6" Cut="4.0000000000000000e+00" cType="1" res="0.0000000000000000e+00" rms="2.3840798437595367e-01" purity="5.0055503845214844e-01" nType="0">
        <Node pos="l" depth="1" NCoef="0" IVar="5" Cut="5.0000000000000000e+00" cType="1" res="4.0257871150970459e-02" rms="2.8537055850028992e-01" purity="8.5151761770248413e-01" nType="0">
          <Node pos="l" depth="2" NCoef="0" IVar="-1" Cut="0.0000000000000000e+00" cType="1" res="3.6703015211969614e-03" rms="3.5200878977775574e-01" purity="7.4000000953674316e-01" nType="-99"/>
          <Node pos="r" depth="2" NCoef="0" IVar="-1" Cut="0.0000000000000000e+00" cType="1" res="2.4340119212865829e-02" rms="2.6910558342933655e-01" purity="8.8792163133621216e-01" nType="-99"/>
        </Node>
        <Node pos="r" depth="1" NCoef="0" IVar="0" Cut="2.3511567115783691e+00" cType="1" res="-6.6278954036533833e-03" rms="3.6531934142112732e-01" purity="4.4562846422195435e-01" nType="0">
          <Node pos="l" depth="2" NCoef="0" IVar="-1" Cut="0.0000000000000000e+00" cType="1" res="-1.6528279520571232e-03" rms="3.6257496476173401e-01" purity="4.4118428230285645e-01" nType="-99"/>
          <Node pos="r" depth="2" NCoef="0" IVar="-1" Cut="0.0000000000000000e+00" cType="1" res="-1.9726609811186790e-02" rms="4.3386861681938171e-01" purity="5.7587546110153198e-01" nType="-99"/>
        </Node>
      </Node>
    </BinaryTree>
    <BinaryTree type="DecisionTree" boostWeight="1.0000000000000000e+00" itree="45">
      <Node pos="s" depth="0" NCoef="0" IVar="2" Cut="-8.5172724723815918e-01" cType="1" res="5.2877254784107208e-03" rms="3.5531556606292725e-01" purity="5.1077300310134888e-01" nType="0">
        <Node pos="l" depth="1" NCoef="0" IVar="4" Cut="1.9000000000000000e+01" cType="1" res="0.0000000000000000e+00" rms="3.1817972183227539e+01" purity="5.0893074274063110e-01" nType="0">
          <Node pos="l" depth="2" NCoef="0" IVar="-1" Cut="0.0000000000000000e+00" cType="1" res="5.3723985329270363e-03" rms="3.7737742066383362e-01" purity="5.9591370820999146e-01" nType="-99"/>
          <Node pos="r" depth="2" NCoef="0" IVar="-1" Cut="0.0000000000000000e+00" cType="1" res="-3.4559976309537888e-02" rms="1.1520595103502274e-01" purity="1.3731825165450573e-02" nType="-99"/>
        </Node>
        <Node pos="r" depth="1" NCoef="0" IVar="3" Cut="3.0000000000000000e+00" cType="1" res="0.0000000000000000e+00" rms="0.0000000000000000e+00" purity="5.3203344345092773e-01" nType="0">
          <Node pos="l" depth="2" NCoef="0" IVar="-1" Cut="0.0000000000000000e+00" cType="1" res="-1.0482262587174773e-03" rms="3.7344855070114136e-01" purity="5.6769597530364990e-01" nType="-99"/>
          <Node pos="r" depth="2" NCoef="0" IVar="-1" Cut="0.0000000000000000e+00" cType="1" res="-2.8885267674922943e-02" rms="4.2124694585800171e-01" purity="4.8148149251937866e-01" nType="-99"/>
        </Node>
      </Node>
    </BinaryTree>
    <BinaryTree type="DecisionTree" boostWeight="1.0000000000000000e+00" itree="46">
      <Node pos="s" depth="0" NCoef="0" IVar="4" Cut="7.0000000000000000e+00" cType="1" res="3.6942023925781250e+03" rms="0.0000000000000000e+00" purity="5.0600022077560425e-01" nType="0">
        <Node pos="l" depth="1" NCoef="0" IVar="6" Cut="3.1000000000000000e+01" cType="1" res="1.2419931590557098e-02" rms="0.0000000000000000e+00" purity="6.9585329294204712e-01" nType="0">
          <Node pos="l" depth="2" NCoef="0" IVar="-1" Cut="0.0000000000000000e+00" cType="1" res="2.8936448507010937e-03" rms="3.8170665502548218e-01" purity="7.0345169305801392e-01" nType="-99"/>
          <Node pos="r" depth="2" NCoef="0" IVar="-1" Cut="0.0000000000000000e+00" cType="1" res="2.3035207763314247e-02" rms="4.6156340837478638e-01" purity="5.0819671154022217e-01" nType="-99"/>
        </Node>
        <Node pos="r" depth="1" NCoef="0" IVar="1" Cut="1.9857378005981445e+00" cType="1" res="-1.8492918461561203e-02" rms="2.6394391059875488e-01" purity="8.2829721271991730e-02" nType="0">
          <Node pos="l" depth="2" NCoef="0" IVar="-1" Cut="0.0000000000000000e+00" cType="1" res="1.2968269176781178e-02" rms="3.9294958114624023e-01" purity="2.0059880614280701e-01" nType="-99"/>
          <Node pos="r" depth="2" NCoef="0" IVar="-1" Cut="0.0000000000000000e+00" cType="1" res="-1.6206448897719383e-02" rms="2.4046500027179718e-01" purity="6.6962487995624542e-02" nType="-99"/>
        </Node>
      </Node>
    </BinaryTree>
    <BinaryTree type="DecisionTree" boostWeight="1.0000000000000000e+00" itree="47">
      <Node pos="s" depth="0" NCoef="0" IVar="6" Cut="4.5000000000000000e+01" cType="1" res="8.6517184172407724e-07" rms="0.0000000000000000e+00" purity="4.9490585923194885e-01" nType="0">
        <Node pos="l" depth="1" NCoef="0" IVar="0" Cut="6.7356634140014648e-01" cType="1" res="2.6214625686407089e-03" rms="3.8219535350799561e-01" purity="5.7207322120666504e-01" nType="0">
          <Node pos="l" depth="2" NCoef="0" IVar="-1" Cut="0.0000000000000000e+00" cType="1" res="1.2139896862208843e-02" rms="3.3426666259765625e-01" purity="5.6387662887573242e-01" nType="-99"/>
          <Node pos="r" depth="2" NCoef="0" IVar="-1" Cut="0.0000000000000000e+00" cType="1" res="-1.7257092986255884e-03" rms="3.9534732699394226e-01" purity="5.7457911968231201e-01" nType="-99"/>
        </Node>
        <Node pos="r" depth="1" NCoef="0" IVar="3" Cut="3.0000000000000000e+01" cType="1" res="1.9623233005404472e-02" rms="0.0000000000000000e+00" purity="2.5117740035057068e-02" nType="0">
          <Node pos="l" depth="2" NCoef="0" IVar="-1" Cut="0.0000000000000000e+00" cType="1" res="-3.7609826773405075e-02" rms="1.6158495843410492e-01" purity="3.1456954777240753e-02" nType="-99"/>
          <Node pos="r" depth="2" NCoef="0" IVar="-1" Cut="0.0000000000000000e+00" cType="1" res="-3.0866336077451706e-02" rms="1.1601664125919342e-01" purity="1.9402984529733658e-02" nType="-99"/>
        </Node>
      </Node>
    </BinaryTree>
    <BinaryTree type="DecisionTree" boostWeight="1.0000000000000000e+00" itree="48">
      <Node pos="s" depth="0" NCoef="0" IVar="6" Cut="4.5000000000000000e+01" cType="1" res="0.0000000000000000e+00" rms="0.0000000000000000e+00" purity="4.9793642759323120e-01" nType="0">
        <Node pos="l" depth="1" NCoef="0" IVar="5" Cut="2.0000000000000000e+00" cType="1" res="4.6747373417019844e-03" rms="3.7822899222373962e-01" purity="5.7455343008041382e-01" nType="0">
          <Node pos="l" depth="2" NCoef="0" IVar="-1" Cut="0.0000000000000000e+00" cType="1" res="-1.4194602146744728e-02" rms="3.7190186977386475e-01" purity="3.9379474520683289e-01" nType="-99"/>
          <Node pos="r" depth="2" NCoef="0" IVar="-1" Cut="0.0000000000000000e+00" cType="1" res="2.5880991015583277e-03" rms="3.7957593798637390e-01" purity="5.8491855859756470e-01" nType="-99"/>
        </Node>
        <Node pos="r" depth="1" NCoef="0" IVar="1" Cut="2.4215369224548340e+00" cType="1" res="-2.7041351422667503e-02" rms="1.2324849516153336e-01" purity="2.0177561789751053e-02" nType="0">
          <Node pos="l" depth="2" NCoef="0" IVar="-1" Cut="0.0000000000000000e+00" cType="1" res="-1.9503599032759666e-02" rms="1.5843628346920013e-01" purity="3.6563072353601456e-02" nType="-99"/>
          <Node pos="r" depth="2" NCoef="0" IVar="-1" Cut="0.0000000000000000e+00" cType="1" res="-4.5001816004514694e-02" rms="8.5006780922412872e-02" purity="7.2254333645105362e-03" nType="-99"/>
        </Node>
      </Node>
    </BinaryTree>
    <BinaryTree type="DecisionTree" boostWeight="1.0000000000000000e+00" itree="49">
      <Node pos="s" depth="0" NCoef="0" IVar="3" Cut="1.8000000000000000e+01" cType="1" res="1.8836002796888351e-02" rms="3.8348704576492310e-01" purity="5.0124067068099976e-01" nType="0">
        <Node pos="l" depth="1" NCoef="0" IVar="2" Cut="-3.0821606516838074e-01" cType="1" res="1.1488871648907661e-02" rms="3.7422025203704834e-01" purity="5.8357328176498413e-01" nType="0">
          <Node pos="l" depth="2" NCoef="0" IVar="-1" Cut="0.0000000000000000e+00" cType="1" res="5.2502807229757309e-03" rms="3.7383398413658142e-01" purity="5.8754920959472656e-01" nType="-99"/>
          <Node pos="r" depth="2" NCoef="0" IVar="-1" Cut="0.0000000000000000e+00" cType="1" res="-1.2924422509968281e-02" rms="3.7584388256072998e-01" purity="5.2073734998703003e-01" nType="-99"/>
        </Node>
        <Node pos="r" depth="1" NCoef="0" IVar="1" Cut="2.1629316806793213e+00" cType="1" res="-2.5786997750401497e-02" rms="2.2235713899135590e-01" purity="1.1951684951782227e-01" nType="0">
          <Node pos="l" depth="2" NCoef="0" IVar="-1" Cut="0.0000000000000000e+00" cType="1" res="-3.7657167762517929e-02" rms="3.0405744910240173e-01" purity="3.0281689763069153e-01" nType="-99"/>
          <Node pos="r" depth="2" NCoef="0" IVar="-1" Cut="0.0000000000000000e+00" cType="1" res="-1.2876984663307667e-02" rms="1.9854839146137238e-01" purity="7.9131111502647400e-02" nType="-99"/>
        </Node>
      </Node>
    </BinaryTree>
    <BinaryTree type="DecisionTree" boostWeight="1.0000000000000000e+00" itree="50">
      <Node pos="s" depth="0" NCoef="0" IVar="4" Cut="1.0000000000000000e+00" cType="1" res="0.0000000000000000e+00" rms="6.1110507965087891e+01" purity="5.0094604492187500e-01" nType="0">
        <Node pos="l" depth="1" NCoef="0" IVar="1" Cut="1.4748799800872803e+00" cType="1" res="1.6348510980606079e-02" rms="2.7251592278480530e-01" purity="9.1661667823791504e-01" nType="0">
          <Node pos="l" depth="2" NCoef="0" IVar="-1" Cut="0.0000000000000000e+00" cType="1" res="1.8756264820694923e-02" rms="2.1899093687534332e-01" purity="9.4840884208679199e-01" nType="-99"/>
          <Node pos="r" depth="2" NCoef="0" IVar="-1" Cut="0.0000000000000000e+00" cType="1" res="-5.0631124759092927e-04" rms="3.4216305613517761e-01" purity="8.6428570747375488e-01" nType="-99"/>
        </Node>
        <Node pos="r" depth="1" NCoef="0" IVar="1" Cut="1.7274774312973022e+00" cType="1" res="-1.1033289134502411e-02" rms="3.8818418979644775e-01" purity="2.5570696592330933e-01" nType="0">
          <Node pos="l" depth="2" NCoef="0" IVar="-1" Cut="0.0000000000000000e+00" cType="1" res="-1.3572254218161106e-02" rms="4.5217537879943848e-01" purity="3.7587821483612061e-01" nType="-99"/>
          <Node pos="r" depth="2" NCoef="0" IVar="-1" Cut="0.0000000000000000e+00" cType="1" res="-8.4277120186015964e-04" rms="3.7499886751174927e-01" purity="2.3431311547756195e-01" nType="-99"/>
        </Node>
      </Node>
    </BinaryTree>
    <BinaryTree type="DecisionTree" boostWeight="1.0000000000000000e+00" itree="51">
      <Node pos="s" depth="0" NCoef="0" IVar="3" Cut="2.0000000000000000e+01" cType="1" res="0.0000000000000000e+00" rms="0.0000000000000000e+00" purity="4.9883681535720825e-01" nType="0">
        <Node pos="l" depth="1" NCoef="0" IVar="5" Cut="1.0000000000000000e+00" cType="1" res="3.5904690157622099e-03" rms="3.7194332480430603e-01" purity="5.6923478841781616e-01" nType="0">
          <Node pos="l" depth="2" NCoef="0" IVar="-1" Cut="0.0000000000000000e+00" cType="1" res="-1.6827432438731194e-02" rms="3.6835983395576477e-01" purity="3.2323232293128967e-01" nType="-99"/>
          <Node pos="r" depth="2" NCoef="0" IVar="-1" Cut="0.0000000000000000e+00" cType="1" res="1.7975020455196500e-03" rms="3.7294358015060425e-01" purity="5.7912546396255493e-01" nType="-99"/>
        </Node>
        <Node pos="r" depth="1" NCoef="0" IVar="6" Cut="3.1000000000000000e+01" cType="1" res="0.0000000000000000e+00" rms="0.0000000000000000e+00" purity="9.6053607761859894e-02" nType="0">
          <Node pos="l" depth="2" NCoef="0" IVar="-1" Cut="0.0000000000000000e+00" cType="1" res="-8.2999299047514796e-04" rms="3.8855025172233582e-01" purity="4.3913042545318604e-01" nType="-99"/>
          <Node pos="r" depth="2" NCoef="0" IVar="-1" Cut="0.0000000000000000e+00" cType="1" res="-3.6326888948678970e-02" rms="1.4862726628780365e-01" purity="2.5157231837511063e-02" nType="-99"/>
        </Node>
      </Node>
    </BinaryTree>
    <BinaryTree type="DecisionTree" boostWeight="1.0000000000000000e+00" itree="52">
      <Node pos="s" depth="0" NCoef="0" IVar="5" Cut="1.6000000000000000e+01" cType="1" res="3.9633167907595634e-03" rms="3.5143890976905823e-01" purity="5.0800132751464844e-01" nType="0">
        <Node pos="l" depth="1" NCoef="0" IVar="5" Cut="1.0000000000000000e+00" cType="1" res="1.4873445034027100e-02" rms="3.7136238813400269e-01" purity="5.8415693044662476e-01" nType="0">
          <Node pos="l" depth="2" NCoef="0" IVar="-1" Cut="0.0000000000000000e+00" cType="1" res="-1.4481420628726482e-02" rms="3.7471041083335876e-01" purity="3.4146341681480408e-01" nType="-99"/>
          <Node pos="r" depth="2" NCoef="0" IVar="-1" Cut="0.0000000000000000e+00" cType="1" res="6.0410751029849052e-03" rms="3.7291646003723145e-01" purity="5.9523051977157593e-01" nType="-99"/>
        </Node>
        <Node pos="r" depth="1" NCoef="0" IVar="4" Cut="1.0000000000000000e+00" cType="1" res="3.2979066371917725e+00" rms="0.0000000000000000e+00" purity="3.0636072158813477e-01" nType="0">
          <Node pos="l" depth="2" NCoef="0" IVar="-1" Cut="0.0000000000000000e+00" cType="1" res="1.3453999534249306e-02" rms="2.5489088892936707e-01" purity="9.2807018756866455e-01" nType="-99"/>
          <Node pos="r" depth="2" NCoef="0" IVar="-1" Cut="0.0000000000000000e+00" cType="1" res="-1.8751440569758415e-02" rms="2.9629313945770264e-01" purity="1.2121212482452393e-01" nType="-99"/>
        </Node>
      </Node>
    </BinaryTree>
    <BinaryTree type="DecisionTree" boostWeight="1.0000000000000000e+00" itree="53">
      <Node pos="s" depth="0" NCoef="0" IVar="4" Cut="2.1000000000000000e+01" cType="1" res="0.0000000000000000e+00" rms="0.0000000000000000e+00" purity="5.0658774375915527e-01" nType="0">
        <Node pos="l" depth="1" NCoef="0" IVar="0" Cut="2.3131344318389893e+00" cType="1" res="4.7023496590554714e-03" rms="3.7652388215065002e-01" purity="5.7896757125854492e-01" nType="0">
          <Node pos="l" depth="2" NCoef="0" IVar="-1" Cut="0.0000000000000000e+00" cType="1" res="2.4677254259586334e-03" rms="3.7328985333442688e-01" purity="5.7352739572525024e-01" nType="-99"/>
          <Node pos="r" depth="2" NCoef="0" IVar="-1" Cut="0.0000000000000000e+00" cType="1" res="-1.0146417655050755e-02" rms="4.2177906632423401e-01" purity="6.6315788030624390e-01" nType="-99"/>
        </Node>
        <Node pos="r" depth="1" NCoef="0" IVar="4" Cut="2.8000000000000000e+01" cType="1" res="2.6548672467470169e-03" rms="3.7391972541809082e-01" purity="5.3097344934940338e-03" nType="0">
          <Node pos="l" depth="2" NCoef="0" IVar="-1" Cut="0.0000000000000000e+00" cType="1" res="-4.3938137590885162e-02" rms="7.4829995632171631e-02" purity="5.6818183511495590e-03" nType="-99"/>
          <Node pos="r" depth="2" NCoef="0" IVar="-1" Cut="0.0000000000000000e+00" cType="1" res="-4.2078588157892227e-02" rms="7.0146709680557251e-02" purity="5.1413881592452526e-03" nType="-99"/>
        </Node>
      </Node>
    </BinaryTree>
    <BinaryTree type="DecisionTree" boostWeight="1.0000000000000000e+00" itree="54">
      <Node pos="s" depth="0" NCoef="0" IVar="5" Cut="1.0000000000000000e+00" cType="1" res="6.4508020877838135e-03" rms="3.5979422926902771e-01" purity="5.0625067949295044e-01" nType="0">
        <Node pos="l" depth="1" NCoef="0" IVar="-1" Cut="0.0000000000000000e+00" cType="1" res="-1.7236795276403427e-02" rms="3.6632820963859558e-01" purity="3.1879195570945740e-01" nType="-99"/>
        <Node pos="r" depth="1" NCoef="0" IVar="3" Cut="2.0000000000000000e+00" cType="1" res="1.6359684988856316e-02" rms="0.0000000000000000e+00" purity="5.1264154911041260e-01" nType="0">
          <Node pos="l" depth="2" NCoef="0" IVar="-1" Cut="0.0000000000000000e+00" cType="1" res="1.3450550846755505e-02" rms="3.6509972810745239e-01" purity="7.3354429006576538e-01" nType="-99"/>
          <Node pos="r" depth="2" NCoef="0" IVar="-1" Cut="0.0000000000000000e+00" cType="1" res="6.6812412114813924e-04" rms="3.5857111215591431e-01" purity="4.6390169858932495e-01" nType="-99"/>
        </Node>
      </Node>
    </BinaryTree>
    <BinaryTree type="DecisionTree" boostWeight="1.0000000000000000e+00" itree="55">
      <Node pos="s" depth="0" NCoef="0" IVar="2" Cut="-5.6300735473632812e-01" cType="1" res="-9.4224186614155769e-04" rms="3.5219359397888184e-01" purity="4.9614536762237549e-01" nType="0">
        <Node pos="l" depth="1" NCoef="0" IVar="6" Cut="5.0000000000000000e+00" cType="1" res="-inf" rms="0.0000000000000000e+00" purity="4.9510785937309265e-01" nType="0">
          <Node pos="l" depth="2" NCoef="0" IVar="-1" Cut="0.0000000000000000e+00" cType="1" res="1.3882705010473728e-02" rms="2.9470697045326233e-01" purity="8.6616337299346924e-01" nType="-99"/>
          <Node pos="r" depth="2" NCoef="0" IVar="-1" Cut="0.0000000000000000e+00" cType="1" res="-1.2601448688656092e-03" rms="3.5997968912124634e-01" purity="4.1816112399101257e-01" nType="-99"/>
        </Node>
        <Node pos="r" depth="1" NCoef="0" IVar="0" Cut="7.0790398120880127e-01" cType="1" res="-4.4310737401247025e-02" rms="3.8142347335815430e-01" purity="5.1088780164718628e-01" nType="0">
          <Node pos="l" depth="2" NCoef="0" IVar="-1" Cut="0.0000000000000000e+00" cType="1" res="-2.8382346034049988e-02" rms="3.7224015593528748e-01" purity="4.3824702501296997e-01" nType="-99"/>
          <Node pos="r" depth="2" NCoef="0" IVar="-1" Cut="0.0000000000000000e+00" cType="1" res="-3.5123897250741720e-03" rms="3.8466531038284302e-01" purity="5.6358379125595093e-01" nType="-99"/>
        </Node>
      </Node>
    </BinaryTree>
    <BinaryTree type="DecisionTree" boostWeight="1.0000000000000000e+00" itree="56">
      <Node pos="s" depth="0" NCoef="0" IVar="2" Cut="-2.6221616268157959e+00" cType="1" res="-3.2252570963464677e-04" rms="3.5516113042831421e-01" purity="4.9569454789161682e-01" nType="0">
        <Node pos="l" depth="1" NCoef="0" IVar="-1" Cut="0.0000000000000000e+00" cType="1" res="3.7293229252099991e-02" rms="3.2314389944076538e-01" purity="3.4615385532379150e-01" nType="-99"/>
        <Node pos="r" depth="1" NCoef="0" IVar="2" Cut="-9.3600803613662720e-01" cType="1" res="-2.0845348481088877e-03" rms="3.5582831501960754e-01" purity="4.9976721405982971e-01" nType="0">
          <Node pos="l" depth="2" NCoef="0" IVar="-1" Cut="0.0000000000000000e+00" cType="1" res="3.8267989293672144e-04" rms="3.5091847181320190e-01" purity="4.9644398689270020e-01" nType="-99"/>
          <Node pos="r" depth="2" NCoef="0" IVar="-1" Cut="0.0000000000000000e+00" cType="1" res="-1.0785285383462906e-02" rms="4.0428000688552856e-01" purity="5.3621166944503784e-01" nType="-99"/>
        </Node>
      </Node>
    </BinaryTree>
    <BinaryTree type="DecisionTree" boostWeight="1.0000000000000000e+00" itree="57">
      <Node pos="s" depth="0" NCoef="0" IVar="1" Cut="2.0749440193176270e+00" cType="1" res="-3.6592604592442513e-03" rms="3.5177084803581238e-01" purity="4.9644166231155396e-01" nType="0">
        <Node pos="l" depth="1" NCoef="0" IVar="3" Cut="1.4000000000000000e+01" cType="1" res="0.0000000000000000e+00" rms="5.7135902345180511e-02" purity="7.1451282501220703e-01" nType="0">
          <Node pos="l" depth="2" NCoef="0" IVar="-1" Cut="0.0000000000000000e+00" cType="1" res="5.5757532827556133e-03" rms="3.4334355592727661e-01" purity="7.4085140228271484e-01" nType="-99"/>
          <Node pos="r" depth="2" NCoef="0" IVar="-1" Cut="0.0000000000000000e+00" cType="1" res="-2.6558505371212959e-02" rms="3.1574642658233643e-01" purity="4.4041451811790466e-01" nType="-99"/>
        </Node>
        <Node pos="r" depth="1" NCoef="0" IVar="5" Cut="1.4000000000000000e+01" cType="1" res="-1.2612998485565186e-02" rms="3.5789239406585693e-01" purity="2.9932251572608948e-01" nType="0">
          <Node pos="l" depth="2" NCoef="0" IVar="-1" Cut="0.0000000000000000e+00" cType="1" res="-9.5880534499883652e-03" rms="4.0229657292366028e-01" purity="3.8450962305068970e-01" nType="-99"/>
          <Node pos="r" depth="2" NCoef="0" IVar="-1" Cut="0.0000000000000000e+00" cType="1" res="3.9728515548631549e-04" rms="3.2165160775184631e-01" purity="2.3019710183143616e-01" nType="-99"/>
        </Node>
      </Node>
    </BinaryTree>
    <BinaryTree type="DecisionTree" boostWeight="1.0000000000000000e+00" itree="58">
      <Node pos="s" depth="0" NCoef="0" IVar="6" Cut="6.2000000000000000e+01" cType="1" res="0.0000000000000000e+00" rms="0.0000000000000000e+00" purity="5.0033301115036011e-01" nType="0">
        <Node pos="l" depth="1" NCoef="0" IVar="0" Cut="2.3129167556762695e+00" cType="1" res="5.4849223233759403e-03" rms="3.6708447337150574e-01" purity="5.4884284734725952e-01" nType="0">
          <Node pos="l" depth="2" NCoef="0" IVar="-1" Cut="0.0000000000000000e+00" cType="1" res="2.7509587816894054e-03" rms="3.6327263712882996e-01" purity="5.4324185848236084e-01" nType="-99"/>
          <Node pos="r" depth="2" NCoef="0" IVar="-1" Cut="0.0000000000000000e+00" cType="1" res="-8.1177921965718269e-03" rms="4.2175620794296265e-01" purity="6.3786005973815918e-01" nType="-99"/>
        </Node>
        <Node pos="r" depth="1" NCoef="0" IVar="4" Cut="2.7000000000000000e+01" cType="1" res="0.0000000000000000e+00" rms="0.0000000000000000e+00" purity="1.2531328247860074e-03" nType="0">
          <Node pos="l" depth="2" NCoef="0" IVar="-1" Cut="0.0000000000000000e+00" cType="1" res="-4.9705035984516144e-02" rms="4.9123469740152359e-02" purity="4.2553190141916275e-03" nType="-99"/>
          <Node pos="r" depth="2" NCoef="0" IVar="-1" Cut="0.0000000000000000e+00" cType="1" res="-5.1169719547033310e-02" rms="1.8844256410375237e-03" purity="0.0000000000000000e+00" nType="-99"/>
        </Node>
      </Node>
    </BinaryTree>
    <BinaryTree type="DecisionTree" boostWeight="1.0000000000000000e+00" itree="59">
      <Node pos="s" depth="0" NCoef="0" IVar="2" Cut="-8.4541058540344238e-01" cType="1" res="3.2268213108181953e-03" rms="3.5333889722824097e-01" purity="5.0742328166961670e-01" nType="0">
        <Node pos="l" depth="1" NCoef="0" IVar="2" Cut="-1.3361084461212158e+00" cType="1" res="6.0233883559703827e-03" rms="3.5103574395179749e-01" purity="5.0323742628097534e-01" nType="0">
          <Node pos="l" depth="2" NCoef="0" IVar="-1" Cut="0.0000000000000000e+00" cType="1" res="1.1089283507317305e-03" rms="3.4903806447982788e-01" purity="4.8945686221122742e-01" nType="-99"/>
          <Node pos="r" depth="2" NCoef="0" IVar="-1" Cut="0.0000000000000000e+00" cType="1" res="1.8904937431216240e-02" rms="3.7661865353584290e-01" purity="7.1262133121490479e-01" nType="-99"/>
        </Node>
        <Node pos="r" depth="1" NCoef="0" IVar="3" Cut="3.0000000000000000e+00" cType="1" res="0.0000000000000000e+00" rms="0.0000000000000000e+00" purity="5.5378484725952148e-01" nType="0">
          <Node pos="l" depth="2" NCoef="0" IVar="-1" Cut="0.0000000000000000e+00" cType="1" res="3.2512161415070295e-03" rms="3.5361069440841675e-01" purity="6.0633486509323120e-01" nType="-99"/>
          <Node pos="r" depth="2" NCoef="0" IVar="-1" Cut="0.0000000000000000e+00" cType="1" res="-2.5166418403387070e-02" rms="4.0074282884597778e-01" purity="4.7909969091415405e-01" nType="-99"/>
        </Node>
      </Node>
    </BinaryTree>
    <BinaryTree type="DecisionTree" boostWeight="1.0000000000000000e+00" itree="60">
      <Node pos="s" depth="0" NCoef="0" IVar="0" Cut="2.3129167556762695e+00" cType="1" res="-4.9937856383621693e-03" rms="3.5566908121109009e-01" purity="4.9386265873908997e-01" nType="0">
        <Node pos="l" depth="1" NCoef="0" IVar="6" Cut="1.1000000000000000e+01" cType="1" res="0.0000000000000000e+00" rms="0.0000000000000000e+00" purity="4.8750293254852295e-01" nType="0">
          <Node pos="l" depth="2" NCoef="0" IVar="-1" Cut="0.0000000000000000e+00" cType="1" res="2.3425207473337650e-03" rms="3.5358858108520508e-01" purity="7.3807024955749512e-01" nType="-99"/>
          <Node pos="r" depth="2" NCoef="0" IVar="-1" Cut="0.0000000000000000e+00" cType="1" res="-4.1239908896386623e-03" rms="3.5084947943687439e-01" purity="2.8622576594352722e-01" nType="-99"/>
        </Node>
        <Node pos="r" depth="1" NCoef="0" IVar="1" Cut="2.0636682510375977e+00" cType="1" res="-3.9386861026287079e-02" rms="4.1155368089675903e-01" purity="6.0706859827041626e-01" nType="0">
          <Node pos="l" depth="2" NCoef="0" IVar="-1" Cut="0.0000000000000000e+00" cType="1" res="9.2706205323338509e-03" rms="3.7088572978973389e-01" purity="7.7155172824859619e-01" nType="-99"/>
          <Node pos="r" depth="2" NCoef="0" IVar="-1" Cut="0.0000000000000000e+00" cType="1" res="-2.6256078854203224e-02" rms="4.3737521767616272e-01" purity="4.5381525158882141e-01" nType="-99"/>
        </Node>
      </Node>
    </BinaryTree>
    <BinaryTree type="DecisionTree" boostWeight="1.0000000000000000e+00" itree="61">
      <Node pos="s" depth="0" NCoef="0" IVar="3" Cut="8.0000000000000000e+00" cType="1" res="0.0000000000000000e+00" rms="0.0000000000000000e+00" purity="4.9672418832778931e-01" nType="0">
        <Node pos="l" depth="1" NCoef="0" IVar="2" Cut="-8.8277214765548706e-01" cType="1" res="1.1346071027219296e-02" rms="3.7468248605728149e-01" purity="6.3377988338470459e-01" nType="0">
          <Node pos="l" depth="2" NCoef="0" IVar="-1" Cut="0.0000000000000000e+00" cType="1" res="5.8591472916305065e-03" rms="3.7271103262901306e-01" purity="6.4486175775527954e-01" nType="-99"/>
          <Node pos="r" depth="2" NCoef="0" IVar="-1" Cut="0.0000000000000000e+00" cType="1" res="-8.6489235982298851e-03" rms="3.8614881038665771e-01" purity="5.5457228422164917e-01" nType="-99"/>
        </Node>
        <Node pos="r" depth="1" NCoef="0" IVar="6" Cut="6.0000000000000000e+00" cType="1" res="0.0000000000000000e+00" rms="0.0000000000000000e+00" purity="2.8838744759559631e-01" nType="0">
          <Node pos="l" depth="2" NCoef="0" IVar="-1" Cut="0.0000000000000000e+00" cType="1" res="-4.5837908983230591e-02" rms="3.3685049414634705e-01" purity="7.4910396337509155e-01" nType="-99"/>
          <Node pos="r" depth="2" NCoef="0" IVar="-1" Cut="0.0000000000000000e+00" cType="1" res="-5.1525626331567764e-03" rms="3.0505898594856262e-01" purity="2.5007450580596924e-01" nType="-99"/>
        </Node>
      </Node>
    </BinaryTree>
    <BinaryTree type="DecisionTree" boostWeight="1.0000000000000000e+00" itree="62">
      <Node pos="s" depth="0" NCoef="0" IVar="4" Cut="1.9000000000000000e+01" cType="1" res="0.0000000000000000e+00" rms="3.0470590591430664e+01" purity="5.0138348340988159e-01" nType="0">
        <Node pos="l" depth="1" NCoef="0" IVar="6" Cut="3.2000000000000000e+01" cType="1" res="0.0000000000000000e+00" rms="0.0000000000000000e+00" purity="5.8336555957794189e-01" nType="0">
          <Node pos="l" depth="2" NCoef="0" IVar="-1" Cut="0.0000000000000000e+00" cType="1" res="-5.1237491425126791e-04" rms="3.8364607095718384e-01" purity="6.2013405561447144e-01" nType="-99"/>
          <Node pos="r" depth="2" NCoef="0" IVar="-1" Cut="0.0000000000000000e+00" cType="1" res="2.0299509167671204e-02" rms="3.8310185074806213e-01" purity="2.3584905266761780e-01" nType="-99"/>
        </Node>
        <Node pos="r" depth="1" NCoef="0" IVar="2" Cut="-2.3166201114654541e+00" cType="1" res="-2.3792104795575142e-02" rms="6.7866042256355286e-02" purity="4.6875001862645149e-03" nType="0">
          <Node pos="l" depth="2" NCoef="0" IVar="-1" Cut="0.0000000000000000e+00" cType="1" res="-3.8050793111324310e-02" rms="7.8674800693988800e-02" purity="6.5359477885067463e-03" nType="-99"/>
          <Node pos="r" depth="2" NCoef="0" IVar="-1" Cut="0.0000000000000000e+00" cType="1" res="-4.9148730933666229e-02" rms="4.6377945691347122e-02" purity="1.9417476141825318e-03" nType="-99"/>
        </Node>
      </Node>
    </BinaryTree>
    <BinaryTree type="DecisionTree" boostWeight="1.0000000000000000e+00" itree="63">
      <Node pos="s" depth="0" NCoef="0" IVar="3" Cut="1.0000000000000000e+00" cType="1" res="0.0000000000000000e+00" rms="0.0000000000000000e+00" purity="4.9379295110702515e-01" nType="0">
        <Node pos="l" depth="1" NCoef="0" IVar="6" Cut="6.0000000000000000e+00" cType="1" res="1.8742460524663329e-03" rms="3.0010959506034851e-01" purity="5.9468823671340942e-01" nType="0">
          <Node pos="l" depth="2" NCoef="0" IVar="-1" Cut="0.0000000000000000e+00" cType="1" res="2.3766106460243464e-03" rms="3.1666946411132812e-01" purity="7.3122531175613403e-01" nType="-99"/>
          <Node pos="r" depth="2" NCoef="0" IVar="-1" Cut="0.0000000000000000e+00" cType="1" res="-2.8487714007496834e-02" rms="3.5709208250045776e-01" purity="4.0277779102325439e-01" nType="-99"/>
        </Node>
        <Node pos="r" depth="1" NCoef="0" IVar="3" Cut="5.0000000000000000e+00" cType="1" res="0.0000000000000000e+00" rms="0.0000000000000000e+00" purity="4.8307994008064270e-01" nType="0">
          <Node pos="l" depth="2" NCoef="0" IVar="-1" Cut="0.0000000000000000e+00" cType="1" res="4.0396731346845627e-03" rms="3.8502213358879089e-01" purity="6.5478706359863281e-01" nType="-99"/>
          <Node pos="r" depth="2" NCoef="0" IVar="-1" Cut="0.0000000000000000e+00" cType="1" res="-3.6453208886086941e-03" rms="3.2848840951919556e-01" purity="3.6573788523674011e-01" nType="-99"/>
        </Node>
      </Node>
    </BinaryTree>
    <BinaryTree type="DecisionTree" boostWeight="1.0000000000000000e+00" itree="64">
