<?xml version="1.0"?>
<MethodSetup Method="BDT::BDTG">
  <GeneralInfo>
    <Info name="TMVA Release" value="4.2.1 [262657]"/>
    <Info name="ROOT Release" value="6.04/16 [394256]"/>
    <Info name="Creator" value="lxadmin"/>
    <Info name="Date" value="Tue Jan 17 16:45:37 2017"/>
    <Info name="Host" value="Linux lxadmin-ThinkPad-L540 3.13.0-76-generic #120-Ubuntu SMP Mon Jan 18 15:59:10 UTC 2016 x86_64 x86_64 x86_64 GNU/Linux"/>
    <Info name="Dir" value="/home/lxadmin/MyRoot/root/tutorials/tmva/DiffractiveANAwithTMVA"/>
    <Info name="Training events" value="10000"/>
    <Info name="TrainingTime" value="1.59214559e+01"/>
    <Info name="AnalysisType" value="Classification"/>
  </GeneralInfo>
  <Options>
    <Option name="V" modified="Yes">False</Option>
    <Option name="VerbosityLevel" modified="No">Default</Option>
    <Option name="VarTransform" modified="No">None</Option>
    <Option name="H" modified="Yes">False</Option>
    <Option name="CreateMVAPdfs" modified="No">False</Option>
    <Option name="IgnoreNegWeightsInTraining" modified="No">False</Option>
    <Option name="NTrees" modified="Yes">1000</Option>
    <Option name="MaxDepth" modified="Yes">2</Option>
    <Option name="MinNodeSize" modified="Yes">2.5%</Option>
    <Option name="nCuts" modified="Yes">20</Option>
    <Option name="BoostType" modified="Yes">Grad</Option>
    <Option name="AdaBoostR2Loss" modified="No">quadratic</Option>
    <Option name="UseBaggedBoost" modified="Yes">True</Option>
    <Option name="Shrinkage" modified="Yes">1.000000e-01</Option>
    <Option name="AdaBoostBeta" modified="No">5.000000e-01</Option>
    <Option name="UseRandomisedTrees" modified="No">False</Option>
    <Option name="UseNvars" modified="No">3</Option>
    <Option name="UsePoissonNvars" modified="No">True</Option>
    <Option name="BaggedSampleFraction" modified="Yes">9.000000e-01</Option>
    <Option name="UseYesNoLeaf" modified="No">True</Option>
    <Option name="NegWeightTreatment" modified="No">ignorenegweightsintraining</Option>
    <Option name="Css" modified="No">1.000000e+00</Option>
    <Option name="Cts_sb" modified="No">1.000000e+00</Option>
    <Option name="Ctb_ss" modified="No">1.000000e+00</Option>
    <Option name="Cbb" modified="No">1.000000e+00</Option>
    <Option name="NodePurityLimit" modified="No">5.000000e-01</Option>
    <Option name="SeparationType" modified="No">giniindex</Option>
    <Option name="DoBoostMonitor" modified="No">False</Option>
    <Option name="UseFisherCuts" modified="No">False</Option>
    <Option name="MinLinCorrForFisher" modified="No">8.000000e-01</Option>
    <Option name="UseExclusiveVars" modified="No">False</Option>
    <Option name="DoPreselection" modified="No">False</Option>
    <Option name="SigToBkgFraction" modified="No">1.000000e+00</Option>
    <Option name="PruneMethod" modified="No">nopruning</Option>
    <Option name="PruneStrength" modified="No">0.000000e+00</Option>
    <Option name="PruningValFraction" modified="No">5.000000e-01</Option>
    <Option name="nEventsMin" modified="No">0</Option>
    <Option name="UseBaggedGrad" modified="No">False</Option>
    <Option name="GradBaggingFraction" modified="No">9.000000e-01</Option>
    <Option name="UseNTrainEvents" modified="No">0</Option>
    <Option name="NNodesMax" modified="No">0</Option>
  </Options>
  <Variables NVar="7">
    <Variable VarIndex="0" Expression="deltazero" Label="deltazero" Title="deltazero" Unit="units" Internal="deltazero" Type="F" Min="7.07924017e-04" Max="4.83680391e+00"/>
    <Variable VarIndex="1" Expression="etamax" Label="etamax" Title="etamax" Unit="units" Internal="etamax" Type="F" Min="-2.20175767e+00" Max="2.88499165e+00"/>
    <Variable VarIndex="2" Expression="etamin" Label="etamin" Title="etamin" Unit="units" Internal="etamin" Type="F" Min="-2.83054662e+00" Max="2.70095706e+00"/>
    <Variable VarIndex="3" Expression="HFminusNtowers" Label="HFminusNtowers" Title="HFminusNtowers" Unit="units" Internal="HFminusNtowers" Type="I" Min="0.00000000e+00" Max="9.60000000e+01"/>
    <Variable VarIndex="4" Expression="HFplusNtowers" Label="HFplusNtowers" Title="HFplusNtowers" Unit="units" Internal="HFplusNtowers" Type="I" Min="0.00000000e+00" Max="1.07000000e+02"/>
    <Variable VarIndex="5" Expression="CastorNtowers" Label="CastorNtowers" Title="CastorNtowers" Unit="units" Internal="CastorNtowers" Type="I" Min="0.00000000e+00" Max="1.60000000e+01"/>
    <Variable VarIndex="6" Expression="Ntracks" Label="Ntracks" Title="Ntracks" Unit="units" Internal="Ntracks" Type="I" Min="2.00000000e+00" Max="1.85000000e+02"/>
  </Variables>
  <Spectators NSpec="0"/>
  <Classes NClass="2">
    <Class Name="Signal" Index="0"/>
    <Class Name="Background" Index="1"/>
  </Classes>
  <Transformations NTransformations="0"/>
  <MVAPdfs/>
  <Weights NTrees="1000" AnalysisType="1">
    <BinaryTree type="DecisionTree" boostWeight="1.0000000000000000e+00" itree="0">
      <Node pos="s" depth="0" NCoef="0" IVar="3" Cut="1.0000000000000000e+00" cType="1" res="7.3718307539820671e-03" rms="1.1358787864446640e-01" purity="4.9525299668312073e-01" nType="0">
        <Node pos="l" depth="1" NCoef="0" IVar="5" Cut="1.0000000000000000e+00" cType="1" res="4.4527471065521240e-01" rms="2.2574584186077118e-01" purity="9.4681316614151001e-01" nType="0">
          <Node pos="l" depth="2" NCoef="0" IVar="-1" Cut="0.0000000000000000e+00" cType="1" res="9.5513574779033661e-02" rms="1.4808414876461029e-01" purity="9.7756791114807129e-01" nType="-99"/>
          <Node pos="r" depth="2" NCoef="0" IVar="-1" Cut="0.0000000000000000e+00" cType="1" res="6.6666668280959129e-03" rms="4.9888765811920166e-01" purity="5.3333336114883423e-01" nType="-99"/>
        </Node>
        <Node pos="r" depth="1" NCoef="0" IVar="5" Cut="1.0000000000000000e+00" cType="1" res="-4.7058823704719543e-01" rms="1.6607667505741119e-01" purity="2.8616853058338165e-02" nType="0">
          <Node pos="l" depth="2" NCoef="0" IVar="-1" Cut="0.0000000000000000e+00" cType="1" res="-9.7345132380723953e-03" rms="4.9762535095214844e-01" purity="4.5132744312286377e-01" nType="-99"/>
          <Node pos="r" depth="2" NCoef="0" IVar="-1" Cut="0.0000000000000000e+00" cType="1" res="-9.8850846290588379e-02" rms="7.5582645833492279e-02" purity="5.7457503862679005e-03" nType="-99"/>
        </Node>
      </Node>
    </BinaryTree>
    <BinaryTree type="DecisionTree" boostWeight="1.0000000000000000e+00" itree="1">
      <Node pos="s" depth="0" NCoef="0" IVar="3" Cut="1.0000000000000000e+00" cType="1" res="8.3599165081977844e-03" rms="1.2381421029567719e-01" purity="5.0203496217727661e-01" nType="0">
        <Node pos="l" depth="1" NCoef="0" IVar="5" Cut="2.0000000000000000e+00" cType="1" res="3.9706784486770630e-01" rms="2.2661510109901428e-01" purity="9.4348841905593872e-01" nType="0">
          <Node pos="l" depth="2" NCoef="0" IVar="-1" Cut="0.0000000000000000e+00" cType="1" res="8.6515925824642181e-02" rms="1.5460330247879028e-01" purity="9.7540253400802612e-01" nType="-99"/>
          <Node pos="r" depth="2" NCoef="0" IVar="-1" Cut="0.0000000000000000e+00" cType="1" res="-3.3434096723794937e-02" rms="4.7239792346954346e-01" purity="3.3617022633552551e-01" nType="-99"/>
        </Node>
        <Node pos="r" depth="1" NCoef="0" IVar="5" Cut="1.0000000000000000e+00" cType="1" res="-4.2500525712966919e-01" rms="1.5952491760253906e-01" purity="2.8056569397449493e-02" nType="0">
          <Node pos="l" depth="2" NCoef="0" IVar="-1" Cut="0.0000000000000000e+00" cType="1" res="-1.9491748884320259e-02" rms="4.8941934108734131e-01" purity="3.9768341183662415e-01" nType="-99"/>
          <Node pos="r" depth="2" NCoef="0" IVar="-1" Cut="0.0000000000000000e+00" cType="1" res="-9.0051531791687012e-02" rms="6.9462053477764130e-02" purity="4.8484848812222481e-03" nType="-99"/>
        </Node>
      </Node>
    </BinaryTree>
    <BinaryTree type="DecisionTree" boostWeight="1.0000000000000000e+00" itree="2">
      <Node pos="s" depth="0" NCoef="0" IVar="5" Cut="2.0000000000000000e+00" cType="1" res="-2.4368630256503820e-03" rms="4.1637006402015686e-01" purity="4.9879571795463562e-01" nType="0">
        <Node pos="l" depth="1" NCoef="0" IVar="3" Cut="1.0000000000000000e+00" cType="1" res="3.4032025933265686e-01" rms="2.3774401843547821e-01" purity="9.3338882923126221e-01" nType="0">
          <Node pos="l" depth="2" NCoef="0" IVar="-1" Cut="0.0000000000000000e+00" cType="1" res="7.9721726477146149e-02" rms="1.5611051023006439e-01" purity="9.7495526075363159e-01" nType="-99"/>
          <Node pos="r" depth="2" NCoef="0" IVar="-1" Cut="0.0000000000000000e+00" cType="1" res="-1.9442442804574966e-02" rms="4.7819963097572327e-01" purity="3.7349396944046021e-01" nType="-99"/>
        </Node>
        <Node pos="r" depth="1" NCoef="0" IVar="3" Cut="2.0000000000000000e+00" cType="1" res="1.8013857305049896e-02" rms="1.1721549555659294e-02" purity="1.6628175973892212e-02" nType="0">
          <Node pos="l" depth="2" NCoef="0" IVar="-1" Cut="0.0000000000000000e+00" cType="1" res="-5.5898018181324005e-02" rms="3.7039828300476074e-01" purity="1.7380352318286896e-01" nType="-99"/>
          <Node pos="r" depth="2" NCoef="0" IVar="-1" Cut="0.0000000000000000e+00" cType="1" res="-8.4110148251056671e-02" rms="2.7607874944806099e-02" purity="7.6277652988210320e-04" nType="-99"/>
        </Node>
      </Node>
    </BinaryTree>
    <BinaryTree type="DecisionTree" boostWeight="1.0000000000000000e+00" itree="3">
      <Node pos="s" depth="0" NCoef="0" IVar="5" Cut="2.0000000000000000e+00" cType="1" res="-8.7088085711002350e-03" rms="3.8136720657348633e-01" purity="4.8954722285270691e-01" nType="0">
        <Node pos="l" depth="1" NCoef="0" IVar="3" Cut="1.0000000000000000e+00" cType="1" res="3.0969282984733582e-01" rms="2.2444614768028259e-01" purity="9.3735045194625854e-01" nType="0">
          <Node pos="l" depth="2" NCoef="0" IVar="-1" Cut="0.0000000000000000e+00" cType="1" res="7.4081376194953918e-02" rms="1.6069656610488892e-01" purity="9.7337347269058228e-01" nType="-99"/>
          <Node pos="r" depth="2" NCoef="0" IVar="-1" Cut="0.0000000000000000e+00" cType="1" res="-1.7102863639593124e-02" rms="4.7883069515228271e-01" purity="3.7769785523414612e-01" nType="-99"/>
        </Node>
        <Node pos="r" depth="1" NCoef="0" IVar="5" Cut="6.0000000000000000e+00" cType="1" res="-3.5345011949539185e-01" rms="1.2013804167509079e-01" purity="1.6099356114864349e-02" nType="0">
          <Node pos="l" depth="2" NCoef="0" IVar="-1" Cut="0.0000000000000000e+00" cType="1" res="-5.2111037075519562e-02" rms="3.3110630512237549e-01" purity="1.4322251081466675e-01" nType="-99"/>
          <Node pos="r" depth="2" NCoef="0" IVar="-1" Cut="0.0000000000000000e+00" cType="1" res="-7.8647024929523468e-02" rms="5.6531690061092377e-02" purity="3.5380339249968529e-03" nType="-99"/>
        </Node>
      </Node>
    </BinaryTree>
    <BinaryTree type="DecisionTree" boostWeight="1.0000000000000000e+00" itree="4">
      <Node pos="s" depth="0" NCoef="0" IVar="3" Cut="1.0000000000000000e+00" cType="1" res="0.0000000000000000e+00" rms="0.0000000000000000e+00" purity="4.9640944600105286e-01" nType="0">
        <Node pos="l" depth="1" NCoef="0" IVar="5" Cut="1.0000000000000000e+00" cType="1" res="2.9436385631561279e-01" rms="2.0199045538902283e-01" purity="9.4682753086090088e-01" nType="0">
          <Node pos="l" depth="2" NCoef="0" IVar="-1" Cut="0.0000000000000000e+00" cType="1" res="6.9864548742771149e-02" rms="1.5738397836685181e-01" purity="9.7458434104919434e-01" nType="-99"/>
          <Node pos="r" depth="2" NCoef="0" IVar="-1" Cut="0.0000000000000000e+00" cType="1" res="3.7265471182763577e-03" rms="4.5750531554222107e-01" purity="5.0751876831054688e-01" nType="-99"/>
        </Node>
        <Node pos="r" depth="1" NCoef="0" IVar="5" Cut="2.0000000000000000e+00" cType="1" res="-3.1266766786575317e-01" rms="1.4780081808567047e-01" purity="2.7228299528360367e-02" nType="0">
          <Node pos="l" depth="2" NCoef="0" IVar="-1" Cut="0.0000000000000000e+00" cType="1" res="-1.9714446738362312e-02" rms="4.7452485561370850e-01" purity="3.5494881868362427e-01" nType="-99"/>
          <Node pos="r" depth="2" NCoef="0" IVar="-1" Cut="0.0000000000000000e+00" cType="1" res="-7.4190281331539154e-02" rms="5.6239016354084015e-02" purity="3.2467532437294722e-03" nType="-99"/>
        </Node>
      </Node>
    </BinaryTree>
    <BinaryTree type="DecisionTree" boostWeight="1.0000000000000000e+00" itree="5">
      <Node pos="s" depth="0" NCoef="0" IVar="5" Cut="2.0000000000000000e+00" cType="1" res="2.7938925195485353e-03" rms="3.2420876622200012e-01" purity="5.0692272186279297e-01" nType="0">
        <Node pos="l" depth="1" NCoef="0" IVar="3" Cut="1.0000000000000000e+00" cType="1" res="2.5514128804206848e-01" rms="2.0909470319747925e-01" purity="9.4182127714157104e-01" nType="0">
          <Node pos="l" depth="2" NCoef="0" IVar="-1" Cut="0.0000000000000000e+00" cType="1" res="6.6121853888034821e-02" rms="1.6084478795528412e-01" purity="9.7302716970443726e-01" nType="-99"/>
          <Node pos="r" depth="2" NCoef="0" IVar="-1" Cut="0.0000000000000000e+00" cType="1" res="-9.2457765713334084e-03" rms="4.8579290509223938e-01" purity="3.9922481775283813e-01" nType="-99"/>
        </Node>
        <Node pos="r" depth="1" NCoef="0" IVar="3" Cut="2.0000000000000000e+00" cType="1" res="1.1870845220983028e-02" rms="1.8273390829563141e-02" purity="1.7094017937779427e-02" nType="0">
          <Node pos="l" depth="2" NCoef="0" IVar="-1" Cut="0.0000000000000000e+00" cType="1" res="-4.1977819055318832e-02" rms="3.6688125133514404e-01" purity="1.7875647544860840e-01" nType="-99"/>
          <Node pos="r" depth="2" NCoef="0" IVar="-1" Cut="0.0000000000000000e+00" cType="1" res="-7.1223296225070953e-02" rms="2.7830455452203751e-02" purity="7.8410870628431439e-04" nType="-99"/>
        </Node>
      </Node>
    </BinaryTree>
    <BinaryTree type="DecisionTree" boostWeight="1.0000000000000000e+00" itree="6">
      <Node pos="s" depth="0" NCoef="0" IVar="5" Cut="2.0000000000000000e+00" cType="1" res="8.2824053242802620e-03" rms="3.0290028452873230e-01" purity="5.1379072666168213e-01" nType="0">
        <Node pos="l" depth="1" NCoef="0" IVar="3" Cut="1.0000000000000000e+00" cType="1" res="2.3009738326072693e-01" rms="2.0613922178745270e-01" purity="9.4009804725646973e-01" nType="0">
          <Node pos="l" depth="2" NCoef="0" IVar="-1" Cut="0.0000000000000000e+00" cType="1" res="6.3783079385757446e-02" rms="1.5159901976585388e-01" purity="9.7634750604629517e-01" nType="-99"/>
          <Node pos="r" depth="2" NCoef="0" IVar="-1" Cut="0.0000000000000000e+00" cType="1" res="-7.9131526872515678e-03" rms="4.8331046104431152e-01" purity="3.9795917272567749e-01" nType="-99"/>
        </Node>
        <Node pos="r" depth="1" NCoef="0" IVar="3" Cut="1.0000000000000000e+00" cType="1" res="5.1432768814265728e-03" rms="0.0000000000000000e+00" purity="2.4001959711313248e-02" nType="0">
          <Node pos="l" depth="2" NCoef="0" IVar="-1" Cut="0.0000000000000000e+00" cType="1" res="-1.3998137786984444e-02" rms="4.7073820233345032e-01" purity="3.4024897217750549e-01" nType="-99"/>
          <Node pos="r" depth="2" NCoef="0" IVar="-1" Cut="0.0000000000000000e+00" cType="1" res="-6.7635819315910339e-02" rms="6.3456013798713684e-02" purity="4.1644978336989880e-03" nType="-99"/>
        </Node>
      </Node>
    </BinaryTree>
    <BinaryTree type="DecisionTree" boostWeight="1.0000000000000000e+00" itree="7">
      <Node pos="s" depth="0" NCoef="0" IVar="3" Cut="1.0000000000000000e+00" cType="1" res="9.9076032638549805e-03" rms="1.4394074678421021e-01" purity="4.9638205766677856e-01" nType="0">
        <Node pos="l" depth="1" NCoef="0" IVar="5" Cut="1.0000000000000000e+00" cType="1" res="2.1628411114215851e-01" rms="1.8845877051353455e-01" purity="9.4554132223129272e-01" nType="0">
          <Node pos="l" depth="2" NCoef="0" IVar="-1" Cut="0.0000000000000000e+00" cType="1" res="6.1821930110454559e-02" rms="1.4060288667678833e-01" purity="9.7982376813888550e-01" nType="-99"/>
          <Node pos="r" depth="2" NCoef="0" IVar="-1" Cut="0.0000000000000000e+00" cType="1" res="-7.8325355425477028e-03" rms="4.3795534968376160e-01" purity="4.4781145453453064e-01" nType="-99"/>
        </Node>
        <Node pos="r" depth="1" NCoef="0" IVar="3" Cut="2.0000000000000000e+00" cType="1" res="1.5317786484956741e-02" rms="3.6955799907445908e-02" purity="2.3090992122888565e-02" nType="0">
          <Node pos="l" depth="2" NCoef="0" IVar="-1" Cut="0.0000000000000000e+00" cType="1" res="-2.1762793883681297e-02" rms="3.8950708508491516e-01" purity="2.5263157486915588e-01" nType="-99"/>
          <Node pos="r" depth="2" NCoef="0" IVar="-1" Cut="0.0000000000000000e+00" cType="1" res="-6.5376907587051392e-02" rms="7.9803206026554108e-02" purity="7.0921983569860458e-03" nType="-99"/>
        </Node>
      </Node>
    </BinaryTree>
    <BinaryTree type="DecisionTree" boostWeight="1.0000000000000000e+00" itree="8">
      <Node pos="s" depth="0" NCoef="0" IVar="5" Cut="2.0000000000000000e+00" cType="1" res="-1.8940381705760956e-03" rms="2.5951802730560303e-01" purity="4.9672767519950867e-01" nType="0">
        <Node pos="l" depth="1" NCoef="0" IVar="3" Cut="1.0000000000000000e+00" cType="1" res="1.8786263465881348e-01" rms="1.9362717866897583e-01" purity="9.3987208604812622e-01" nType="0">
          <Node pos="l" depth="2" NCoef="0" IVar="-1" Cut="0.0000000000000000e+00" cType="1" res="5.9312436729669571e-02" rms="1.4479549229145050e-01" purity="9.7842377424240112e-01" nType="-99"/>
          <Node pos="r" depth="2" NCoef="0" IVar="-1" Cut="0.0000000000000000e+00" cType="1" res="-1.3191392645239830e-02" rms="4.6743389964103699e-01" purity="3.4843206405639648e-01" nType="-99"/>
        </Node>
        <Node pos="r" depth="1" NCoef="0" IVar="5" Cut="5.0000000000000000e+00" cType="1" res="-2.1365980803966522e-01" rms="1.1310385912656784e-01" purity="1.6184970736503601e-02" nType="0">
          <Node pos="l" depth="2" NCoef="0" IVar="-1" Cut="0.0000000000000000e+00" cType="1" res="-3.1928248703479767e-02" rms="3.3309140801429749e-01" purity="1.5501520037651062e-01" nType="-99"/>
          <Node pos="r" depth="2" NCoef="0" IVar="-1" Cut="0.0000000000000000e+00" cType="1" res="-6.3574165105819702e-02" rms="6.4585261046886444e-02" purity="4.7547547146677971e-03" nType="-99"/>
        </Node>
      </Node>
    </BinaryTree>
    <BinaryTree type="DecisionTree" boostWeight="1.0000000000000000e+00" itree="9">
      <Node pos="s" depth="0" NCoef="0" IVar="5" Cut="2.0000000000000000e+00" cType="1" res="-5.1610662922030315e-05" rms="2.4320374429225922e-01" purity="5.0010913610458374e-01" nType="0">
        <Node pos="l" depth="1" NCoef="0" IVar="6" Cut="1.0000000000000000e+01" cType="1" res="6.6621541976928711e-02" rms="0.0000000000000000e+00" purity="9.4181436300277710e-01" nType="0">
          <Node pos="l" depth="2" NCoef="0" IVar="-1" Cut="0.0000000000000000e+00" cType="1" res="5.6900899857282639e-02" rms="1.5804108977317810e-01" purity="9.6370434761047363e-01" nType="-99"/>
          <Node pos="r" depth="2" NCoef="0" IVar="-1" Cut="0.0000000000000000e+00" cType="1" res="-2.3373452946543694e-02" rms="3.7351772189140320e-01" purity="5.4216867685317993e-01" nType="-99"/>
        </Node>
        <Node pos="r" depth="1" NCoef="0" IVar="5" Cut="5.0000000000000000e+00" cType="1" res="-1.9456975162029266e-01" rms="1.1079160124063492e-01" purity="1.5113350003957748e-02" nType="0">
          <Node pos="l" depth="2" NCoef="0" IVar="-1" Cut="0.0000000000000000e+00" cType="1" res="-2.9698034748435020e-02" rms="3.3309873938560486e-01" purity="1.5680474042892456e-01" nType="-99"/>
          <Node pos="r" depth="2" NCoef="0" IVar="-1" Cut="0.0000000000000000e+00" cType="1" res="-6.2334604561328888e-02" rms="5.8037735521793365e-02" purity="3.2266071066260338e-03" nType="-99"/>
        </Node>
      </Node>
    </BinaryTree>
    <BinaryTree type="DecisionTree" boostWeight="1.0000000000000000e+00" itree="10">
      <Node pos="s" depth="0" NCoef="0" IVar="3" Cut="2.0000000000000000e+00" cType="1" res="0.0000000000000000e+00" rms="1.3494473695755005e-01" purity="4.9900066852569580e-01" nType="0">
        <Node pos="l" depth="1" NCoef="0" IVar="6" Cut="1.1000000000000000e+01" cType="1" res="3.2574022770859301e-04" rms="1.3331946730613708e-01" purity="9.0325188636779785e-01" nType="0">
          <Node pos="l" depth="2" NCoef="0" IVar="-1" Cut="0.0000000000000000e+00" cType="1" res="5.1944632083177567e-02" rms="1.8630157411098480e-01" purity="9.3256753683090210e-01" nType="-99"/>
          <Node pos="r" depth="2" NCoef="0" IVar="-1" Cut="0.0000000000000000e+00" cType="1" res="-4.5283608138561249e-02" rms="3.3922055363655090e-01" purity="3.5199999809265137e-01" nType="-99"/>
        </Node>
        <Node pos="r" depth="1" NCoef="0" IVar="5" Cut="5.0000000000000000e+00" cType="1" res="-1.8506504595279694e-01" rms="6.9322228431701660e-02" purity="5.4254005663096905e-03" nType="0">
          <Node pos="l" depth="2" NCoef="0" IVar="-1" Cut="0.0000000000000000e+00" cType="1" res="-5.8298368006944656e-02" rms="2.3930250108242035e-01" purity="6.4705885946750641e-02" nType="-99"/>
          <Node pos="r" depth="2" NCoef="0" IVar="-1" Cut="0.0000000000000000e+00" cType="1" res="-6.1036083847284317e-02" rms="1.1235816637054086e-03" purity="0.0000000000000000e+00" nType="-99"/>
        </Node>
      </Node>
    </BinaryTree>
    <BinaryTree type="DecisionTree" boostWeight="1.0000000000000000e+00" itree="11">
      <Node pos="s" depth="0" NCoef="0" IVar="3" Cut="1.0000000000000000e+00" cType="1" res="0.0000000000000000e+00" rms="1.1282870918512344e-01" purity="5.0240087509155273e-01" nType="0">
        <Node pos="l" depth="1" NCoef="0" IVar="5" Cut="2.0000000000000000e+00" cType="1" res="1.4963160455226898e-01" rms="1.7355160415172577e-01" purity="9.4597500562667847e-01" nType="0">
          <Node pos="l" depth="2" NCoef="0" IVar="-1" Cut="0.0000000000000000e+00" cType="1" res="5.4557342082262039e-02" rms="1.3639214634895325e-01" purity="9.8049885034561157e-01" nType="-99"/>
          <Node pos="r" depth="2" NCoef="0" IVar="-1" Cut="0.0000000000000000e+00" cType="1" res="-1.3683279976248741e-02" rms="4.4287258386611938e-01" purity="3.0084747076034546e-01" nType="-99"/>
        </Node>
        <Node pos="r" depth="1" NCoef="0" IVar="6" Cut="5.0000000000000000e+00" cType="1" res="-1.2369444593787193e-03" rms="1.4899874106049538e-02" purity="2.4135529994964600e-02" nType="0">
          <Node pos="l" depth="2" NCoef="0" IVar="-1" Cut="0.0000000000000000e+00" cType="1" res="-2.0605761557817459e-02" rms="3.1595665216445923e-01" purity="1.8207283318042755e-01" nType="-99"/>
          <Node pos="r" depth="2" NCoef="0" IVar="-1" Cut="0.0000000000000000e+00" cType="1" res="-5.8565594255924225e-02" rms="8.9423626661300659e-02" purity="9.8684206604957581e-03" nType="-99"/>
        </Node>
      </Node>
    </BinaryTree>
    <BinaryTree type="DecisionTree" boostWeight="1.0000000000000000e+00" itree="12">
      <Node pos="s" depth="0" NCoef="0" IVar="5" Cut="1.0000000000000000e+00" cType="1" res="2.0554161164909601e-04" rms="2.0939537882804871e-01" purity="5.0588238239288330e-01" nType="0">
        <Node pos="l" depth="1" NCoef="0" IVar="2" Cut="-1.6685212850570679e+00" cType="1" res="1.3484199345111847e-01" rms="1.8397291004657745e-01" purity="9.5015108585357666e-01" nType="0">
          <Node pos="l" depth="2" NCoef="0" IVar="-1" Cut="0.0000000000000000e+00" cType="1" res="1.4203684404492378e-02" rms="3.2255619764328003e-01" purity="8.0963569879531860e-01" nType="-99"/>
          <Node pos="r" depth="2" NCoef="0" IVar="-1" Cut="0.0000000000000000e+00" cType="1" res="5.5703170597553253e-02" rms="1.2558902800083160e-01" purity="9.8176050186157227e-01" nType="-99"/>
        </Node>
        <Node pos="r" depth="1" NCoef="0" IVar="3" Cut="1.0000000000000000e+00" cType="1" res="4.5703840442001820e-03" rms="1.4409399591386318e-02" purity="3.5420473664999008e-02" nType="0">
          <Node pos="l" depth="2" NCoef="0" IVar="-1" Cut="0.0000000000000000e+00" cType="1" res="-2.9586746823042631e-03" rms="4.1059863567352295e-01" purity="4.8239436745643616e-01" nType="-99"/>
          <Node pos="r" depth="2" NCoef="0" IVar="-1" Cut="0.0000000000000000e+00" cType="1" res="-5.7730842381715775e-02" rms="6.2261331826448441e-02" purity="4.3988269753754139e-03" nType="-99"/>
        </Node>
      </Node>
    </BinaryTree>
    <BinaryTree type="DecisionTree" boostWeight="1.0000000000000000e+00" itree="13">
      <Node pos="s" depth="0" NCoef="0" IVar="3" Cut="1.0000000000000000e+00" cType="1" res="7.9400092363357544e-03" rms="1.2663936614990234e-01" purity="5.0286722183227539e-01" nType="0">
        <Node pos="l" depth="1" NCoef="0" IVar="6" Cut="1.0000000000000000e+01" cType="1" res="4.5936681330204010e-02" rms="0.0000000000000000e+00" purity="9.5068609714508057e-01" nType="0">
          <Node pos="l" depth="2" NCoef="0" IVar="-1" Cut="0.0000000000000000e+00" cType="1" res="5.0014480948448181e-02" rms="1.5610475838184357e-01" purity="9.6494799852371216e-01" nType="-99"/>
          <Node pos="r" depth="2" NCoef="0" IVar="-1" Cut="0.0000000000000000e+00" cType="1" res="-5.1910025067627430e-03" rms="3.5698571801185608e-01" purity="6.9008266925811768e-01" nType="-99"/>
        </Node>
        <Node pos="r" depth="1" NCoef="0" IVar="6" Cut="7.0000000000000000e+00" cType="1" res="0.0000000000000000e+00" rms="0.0000000000000000e+00" purity="2.8610354289412498e-02" nType="0">
          <Node pos="l" depth="2" NCoef="0" IVar="-1" Cut="0.0000000000000000e+00" cType="1" res="-1.3120684772729874e-02" rms="2.9931318759918213e-01" purity="1.8852458894252777e-01" nType="-99"/>
          <Node pos="r" depth="2" NCoef="0" IVar="-1" Cut="0.0000000000000000e+00" cType="1" res="-5.8343429118394852e-02" rms="6.1621829867362976e-02" purity="2.8993147425353527e-03" nType="-99"/>
        </Node>
      </Node>
    </BinaryTree>
    <BinaryTree type="DecisionTree" boostWeight="1.0000000000000000e+00" itree="14">
      <Node pos="s" depth="0" NCoef="0" IVar="5" Cut="2.0000000000000000e+00" cType="1" res="-1.0352958925068378e-03" rms="1.9572716951370239e-01" purity="5.0111854076385498e-01" nType="0">
        <Node pos="l" depth="1" NCoef="0" IVar="2" Cut="-1.7071460485458374e+00" cType="1" res="1.0628218203783035e-01" rms="1.9378700852394104e-01" purity="9.3310755491256714e-01" nType="0">
          <Node pos="l" depth="2" NCoef="0" IVar="-1" Cut="0.0000000000000000e+00" cType="1" res="1.7615561373531818e-03" rms="3.2629317045211792e-01" purity="7.5164836645126343e-01" nType="-99"/>
          <Node pos="r" depth="2" NCoef="0" IVar="-1" Cut="0.0000000000000000e+00" cType="1" res="5.2689988166093826e-02" rms="1.3451439142227173e-01" purity="9.7640269994735718e-01" nType="-99"/>
        </Node>
        <Node pos="r" depth="1" NCoef="0" IVar="5" Cut="5.0000000000000000e+00" cType="1" res="-1.2003087997436523e-01" rms="1.1059298366308212e-01" purity="1.7077798023819923e-02" nType="0">
          <Node pos="l" depth="2" NCoef="0" IVar="-1" Cut="0.0000000000000000e+00" cType="1" res="-2.1356131881475449e-02" rms="3.1863722205162048e-01" purity="1.5887850522994995e-01" nType="-99"/>
          <Node pos="r" depth="2" NCoef="0" IVar="-1" Cut="0.0000000000000000e+00" cType="1" res="-5.5965114384889603e-02" rms="6.9092787802219391e-02" purity="5.3915274329483509e-03" nType="-99"/>
        </Node>
      </Node>
    </BinaryTree>
    <BinaryTree type="DecisionTree" boostWeight="1.0000000000000000e+00" itree="15">
      <Node pos="s" depth="0" NCoef="0" IVar="3" Cut="2.0000000000000000e+00" cType="1" res="1.9141988595947623e-03" rms="7.2722300887107849e-02" purity="4.9791690707206726e-01" nType="0">
        <Node pos="l" depth="1" NCoef="0" IVar="5" Cut="4.0000000000000000e+00" cType="1" res="9.3148075044155121e-02" rms="1.9879564642906189e-01" purity="9.0651500225067139e-01" nType="0">
          <Node pos="l" depth="2" NCoef="0" IVar="-1" Cut="0.0000000000000000e+00" cType="1" res="4.4510796666145325e-02" rms="1.8305078148841858e-01" purity="9.5183885097503662e-01" nType="-99"/>
          <Node pos="r" depth="2" NCoef="0" IVar="-1" Cut="0.0000000000000000e+00" cType="1" res="-3.1571902334690094e-02" rms="3.1430652737617493e-01" purity="1.3108614087104797e-01" nType="-99"/>
        </Node>
        <Node pos="r" depth="1" NCoef="0" IVar="6" Cut="5.0000000000000000e+00" cType="1" res="0.0000000000000000e+00" rms="0.0000000000000000e+00" purity="9.6391495317220688e-03" nType="0">
          <Node pos="l" depth="2" NCoef="0" IVar="-1" Cut="0.0000000000000000e+00" cType="1" res="-2.7759902179241180e-02" rms="2.5181648135185242e-01" purity="1.0424710065126419e-01" nType="-99"/>
          <Node pos="r" depth="2" NCoef="0" IVar="-1" Cut="0.0000000000000000e+00" cType="1" res="-5.6013863533735275e-02" rms="5.7920094579458237e-02" purity="3.1687351875007153e-03" nType="-99"/>
        </Node>
      </Node>
    </BinaryTree>
    <BinaryTree type="DecisionTree" boostWeight="1.0000000000000000e+00" itree="16">
      <Node pos="s" depth="0" NCoef="0" IVar="5" Cut="1.0000000000000000e+00" cType="1" res="-1.2822145363315940e-03" rms="1.8031533062458038e-01" purity="5.0622862577438354e-01" nType="0">
        <Node pos="l" depth="1" NCoef="0" IVar="6" Cut="8.0000000000000000e+00" cType="1" res="3.9097897708415985e-02" rms="0.0000000000000000e+00" purity="9.4864112138748169e-01" nType="0">
          <Node pos="l" depth="2" NCoef="0" IVar="-1" Cut="0.0000000000000000e+00" cType="1" res="4.6898312866687775e-02" rms="1.5047699213027954e-01" purity="9.7000485658645630e-01" nType="-99"/>
          <Node pos="r" depth="2" NCoef="0" IVar="-1" Cut="0.0000000000000000e+00" cType="1" res="9.7700227343011647e-05" rms="2.9743269085884094e-01" purity="7.8478664159774780e-01" nType="-99"/>
        </Node>
        <Node pos="r" depth="1" NCoef="0" IVar="5" Cut="3.0000000000000000e+00" cType="1" res="-9.7285650670528412e-02" rms="1.2456163763999939e-01" purity="3.6152794957160950e-02" nType="0">
          <Node pos="l" depth="2" NCoef="0" IVar="-1" Cut="0.0000000000000000e+00" cType="1" res="-2.0149766933172941e-03" rms="3.5836368799209595e-01" purity="4.2700728774070740e-01" nType="-99"/>
          <Node pos="r" depth="2" NCoef="0" IVar="-1" Cut="0.0000000000000000e+00" cType="1" res="-5.2571799606084824e-02" rms="8.9066311717033386e-02" purity="1.0184287093579769e-02" nType="-99"/>
        </Node>
      </Node>
    </BinaryTree>
    <BinaryTree type="DecisionTree" boostWeight="1.0000000000000000e+00" itree="17">
      <Node pos="s" depth="0" NCoef="0" IVar="3" Cut="1.0000000000000000e+00" cType="1" res="7.4931131675839424e-03" rms="1.1945259571075439e-01" purity="4.9741047620773315e-01" nType="0">
        <Node pos="l" depth="1" NCoef="0" IVar="6" Cut="1.0000000000000000e+01" cType="1" res="3.6559347063302994e-02" rms="0.0000000000000000e+00" purity="9.4750428199768066e-01" nType="0">
          <Node pos="l" depth="2" NCoef="0" IVar="-1" Cut="0.0000000000000000e+00" cType="1" res="4.5129183679819107e-02" rms="1.5355676412582397e-01" purity="9.6439099311828613e-01" nType="-99"/>
          <Node pos="r" depth="2" NCoef="0" IVar="-1" Cut="0.0000000000000000e+00" cType="1" res="-1.5233618207275867e-02" rms="3.4099844098091125e-01" purity="6.3598328828811646e-01" nType="-99"/>
        </Node>
        <Node pos="r" depth="1" NCoef="0" IVar="2" Cut="-7.7002561092376709e-01" cType="1" res="-9.1069258749485016e-02" rms="1.1795545369386673e-01" purity="2.4847526103258133e-02" nType="0">
          <Node pos="l" depth="2" NCoef="0" IVar="-1" Cut="0.0000000000000000e+00" cType="1" res="-5.1856022328138351e-02" rms="9.6733562648296356e-02" purity="1.4182692393660545e-02" nType="-99"/>
          <Node pos="r" depth="2" NCoef="0" IVar="-1" Cut="0.0000000000000000e+00" cType="1" res="-2.1112200338393450e-03" rms="2.7766680717468262e-01" purity="1.9101123511791229e-01" nType="-99"/>
        </Node>
      </Node>
    </BinaryTree>
    <BinaryTree type="DecisionTree" boostWeight="1.0000000000000000e+00" itree="18">
      <Node pos="s" depth="0" NCoef="0" IVar="3" Cut="1.0000000000000000e+00" cType="1" res="7.2254333645105362e-03" rms="1.2978518009185791e-01" purity="4.9899956583976746e-01" nType="0">
        <Node pos="l" depth="1" NCoef="0" IVar="2" Cut="-1.8937854766845703e+00" cType="1" res="7.4460618197917938e-02" rms="1.7767117917537689e-01" purity="9.4523501396179199e-01" nType="0">
          <Node pos="l" depth="2" NCoef="0" IVar="-1" Cut="0.0000000000000000e+00" cType="1" res="-4.2207366786897182e-03" rms="3.3271524310112000e-01" purity="7.8956836462020874e-01" nType="-99"/>
          <Node pos="r" depth="2" NCoef="0" IVar="-1" Cut="0.0000000000000000e+00" cType="1" res="4.4808290898799896e-02" rms="1.4026416838169098e-01" purity="9.6643799543380737e-01" nType="-99"/>
        </Node>
        <Node pos="r" depth="1" NCoef="0" IVar="6" Cut="6.0000000000000000e+00" cType="1" res="0.0000000000000000e+00" rms="0.0000000000000000e+00" purity="2.4093620479106903e-02" nType="0">
          <Node pos="l" depth="2" NCoef="0" IVar="-1" Cut="0.0000000000000000e+00" cType="1" res="-9.3671837821602821e-03" rms="2.8619283437728882e-01" purity="1.8367347121238708e-01" nType="-99"/>
          <Node pos="r" depth="2" NCoef="0" IVar="-1" Cut="0.0000000000000000e+00" cType="1" res="-5.3669035434722900e-02" rms="7.8031450510025024e-02" purity="6.1271381564438343e-03" nType="-99"/>
        </Node>
      </Node>
    </BinaryTree>
    <BinaryTree type="DecisionTree" boostWeight="1.0000000000000000e+00" itree="19">
      <Node pos="s" depth="0" NCoef="0" IVar="5" Cut="1.0000000000000000e+00" cType="1" res="3.1980680068954825e-04" rms="1.6459779441356659e-01" purity="5.0109863281250000e-01" nType="0">
        <Node pos="l" depth="1" NCoef="0" IVar="6" Cut="9.0000000000000000e+00" cType="1" res="9.0442935470491648e-04" rms="7.0191416889429092e-03" purity="9.5013010501861572e-01" nType="0">
          <Node pos="l" depth="2" NCoef="0" IVar="-1" Cut="0.0000000000000000e+00" cType="1" res="4.4411521404981613e-02" rms="1.4522051811218262e-01" purity="9.6883785724639893e-01" nType="-99"/>
          <Node pos="r" depth="2" NCoef="0" IVar="-1" Cut="0.0000000000000000e+00" cType="1" res="-1.1234734207391739e-02" rms="3.2497045397758484e-01" purity="7.1802324056625366e-01" nType="-99"/>
        </Node>
        <Node pos="r" depth="1" NCoef="0" IVar="5" Cut="4.0000000000000000e+00" cType="1" res="-7.3138058185577393e-02" rms="1.2306465953588486e-01" purity="3.9866369217634201e-02" nType="0">
          <Node pos="l" depth="2" NCoef="0" IVar="-1" Cut="0.0000000000000000e+00" cType="1" res="-1.7278454033657908e-03" rms="3.3595490455627441e-01" purity="3.8903394341468811e-01" nType="-99"/>
          <Node pos="r" depth="2" NCoef="0" IVar="-1" Cut="0.0000000000000000e+00" cType="1" res="-5.1530994474887848e-02" rms="7.7696382999420166e-02" purity="7.3046018369495869e-03" nType="-99"/>
        </Node>
      </Node>
    </BinaryTree>
    <BinaryTree type="DecisionTree" boostWeight="1.0000000000000000e+00" itree="20">
      <Node pos="s" depth="0" NCoef="0" IVar="3" Cut="2.0000000000000000e+00" cType="1" res="0.0000000000000000e+00" rms="0.0000000000000000e+00" purity="4.9769687652587891e-01" nType="0">
        <Node pos="l" depth="1" NCoef="0" IVar="5" Cut="6.0000000000000000e+00" cType="1" res="6.0234654694795609e-02" rms="1.9235040247440338e-01" purity="8.9910268783569336e-01" nType="0">
          <Node pos="l" depth="2" NCoef="0" IVar="-1" Cut="0.0000000000000000e+00" cType="1" res="3.7937588989734650e-02" rms="1.8484435975551605e-01" purity="9.4112718105316162e-01" nType="-99"/>
          <Node pos="r" depth="2" NCoef="0" IVar="-1" Cut="0.0000000000000000e+00" cType="1" res="-4.1000276803970337e-02" rms="2.4522620439529419e-01" purity="7.0247933268547058e-02" nType="-99"/>
        </Node>
        <Node pos="r" depth="1" NCoef="0" IVar="5" Cut="4.0000000000000000e+00" cType="1" res="-7.2649933397769928e-02" rms="7.5399033725261688e-02" purity="7.0679988712072372e-03" nType="0">
          <Node pos="l" depth="2" NCoef="0" IVar="-1" Cut="0.0000000000000000e+00" cType="1" res="-3.9624352008104324e-02" rms="2.7597272396087646e-01" purity="9.8540149629116058e-02" nType="-99"/>
          <Node pos="r" depth="2" NCoef="0" IVar="-1" Cut="0.0000000000000000e+00" cType="1" res="-5.3364936262369156e-02" rms="2.3359563201665878e-02" purity="5.2232958842068911e-04" nType="-99"/>
        </Node>
      </Node>
    </BinaryTree>
    <BinaryTree type="DecisionTree" boostWeight="1.0000000000000000e+00" itree="21">
      <Node pos="s" depth="0" NCoef="0" IVar="5" Cut="1.0000000000000000e+00" cType="1" res="-8.6697260849177837e-04" rms="1.6458915174007416e-01" purity="4.9988907575607300e-01" nType="0">
        <Node pos="l" depth="1" NCoef="0" IVar="6" Cut="8.0000000000000000e+00" cType="1" res="3.3913359045982361e-02" rms="0.0000000000000000e+00" purity="9.4723010063171387e-01" nType="0">
          <Node pos="l" depth="2" NCoef="0" IVar="-1" Cut="0.0000000000000000e+00" cType="1" res="4.2341161519289017e-02" rms="1.4897842705249786e-01" purity="9.7119647264480591e-01" nType="-99"/>
          <Node pos="r" depth="2" NCoef="0" IVar="-1" Cut="0.0000000000000000e+00" cType="1" res="-1.0430443100631237e-02" rms="3.0512490868568420e-01" purity="7.5445544719696045e-01" nType="-99"/>
        </Node>
        <Node pos="r" depth="1" NCoef="0" IVar="2" Cut="-6.8096351623535156e-01" cType="1" res="-6.0097083449363708e-02" rms="1.2840740382671356e-01" purity="4.0476724505424500e-02" nType="0">
          <Node pos="l" depth="2" NCoef="0" IVar="-1" Cut="0.0000000000000000e+00" cType="1" res="-4.7332040965557098e-02" rms="1.0311262309551239e-01" purity="2.1922428160905838e-02" nType="-99"/>
          <Node pos="r" depth="2" NCoef="0" IVar="-1" Cut="0.0000000000000000e+00" cType="1" res="8.2219177857041359e-03" rms="3.0289027094841003e-01" purity="3.0067569017410278e-01" nType="-99"/>
        </Node>
      </Node>
    </BinaryTree>
    <BinaryTree type="DecisionTree" boostWeight="1.0000000000000000e+00" itree="22">
      <Node pos="s" depth="0" NCoef="0" IVar="3" Cut="2.0000000000000000e+00" cType="1" res="0.0000000000000000e+00" rms="6.1015518188476562e+01" purity="5.1414620876312256e-01" nType="0">
        <Node pos="l" depth="1" NCoef="0" IVar="6" Cut="1.1000000000000000e+01" cType="1" res="1.3461399066727608e-04" rms="4.2037047445774078e-02" purity="9.0320044755935669e-01" nType="0">
          <Node pos="l" depth="2" NCoef="0" IVar="-1" Cut="0.0000000000000000e+00" cType="1" res="3.4220632165670395e-02" rms="1.7553335428237915e-01" purity="9.2759901285171509e-01" nType="-99"/>
          <Node pos="r" depth="2" NCoef="0" IVar="-1" Cut="0.0000000000000000e+00" cType="1" res="-3.4366454929113388e-02" rms="3.3064782619476318e-01" purity="4.2040815949440002e-01" nType="-99"/>
        </Node>
        <Node pos="r" depth="1" NCoef="0" IVar="3" Cut="3.0000000000000000e+00" cType="1" res="0.0000000000000000e+00" rms="1.5971913933753967e-02" purity="8.6734695360064507e-03" nType="0">
          <Node pos="l" depth="2" NCoef="0" IVar="-1" Cut="0.0000000000000000e+00" cType="1" res="-1.0484550148248672e-02" rms="2.4951694905757904e-01" purity="9.6026487648487091e-02" nType="-99"/>
          <Node pos="r" depth="2" NCoef="0" IVar="-1" Cut="0.0000000000000000e+00" cType="1" res="-5.3692921996116638e-02" rms="4.7712337225675583e-02" purity="1.3819789746776223e-03" nType="-99"/>
        </Node>
      </Node>
    </BinaryTree>
    <BinaryTree type="DecisionTree" boostWeight="1.0000000000000000e+00" itree="23">
      <Node pos="s" depth="0" NCoef="0" IVar="5" Cut="3.0000000000000000e+00" cType="1" res="-2.3699378289165907e-05" rms="1.5968899428844452e-01" purity="5.0088673830032349e-01" nType="0">
        <Node pos="l" depth="1" NCoef="0" IVar="6" Cut="1.0000000000000000e+01" cType="1" res="3.7991676479578018e-02" rms="0.0000000000000000e+00" purity="9.1884118318557739e-01" nType="0">
          <Node pos="l" depth="2" NCoef="0" IVar="-1" Cut="0.0000000000000000e+00" cType="1" res="3.6039937287569046e-02" rms="1.7326602339744568e-01" purity="9.4860529899597168e-01" nType="-99"/>
          <Node pos="r" depth="2" NCoef="0" IVar="-1" Cut="0.0000000000000000e+00" cType="1" res="-2.7389183640480042e-02" rms="3.2868412137031555e-01" purity="4.8726114630699158e-01" nType="-99"/>
        </Node>
        <Node pos="r" depth="1" NCoef="0" IVar="4" Cut="4.0000000000000000e+00" cType="1" res="0.0000000000000000e+00" rms="0.0000000000000000e+00" purity="1.1311672627925873e-02" nType="0">
          <Node pos="l" depth="2" NCoef="0" IVar="-1" Cut="0.0000000000000000e+00" cType="1" res="-4.1855730116367340e-02" rms="1.4271186292171478e-01" purity="2.8776979073882103e-02" nType="-99"/>
          <Node pos="r" depth="2" NCoef="0" IVar="-1" Cut="0.0000000000000000e+00" cType="1" res="-4.7748960554599762e-02" rms="7.0641420781612396e-02" purity="6.9256247952580452e-03" nType="-99"/>
        </Node>
      </Node>
    </BinaryTree>
    <BinaryTree type="DecisionTree" boostWeight="1.0000000000000000e+00" itree="24">
      <Node pos="s" depth="0" NCoef="0" IVar="3" Cut="1.0000000000000000e+00" cType="1" res="9.0298429131507874e-03" rms="1.2383564561605453e-01" purity="4.9190616607666016e-01" nType="0">
        <Node pos="l" depth="1" NCoef="0" IVar="2" Cut="-2.0050063133239746e+00" cType="1" res="4.2857456952333450e-02" rms="1.7459350824356079e-01" purity="9.4536352157592773e-01" nType="0">
          <Node pos="l" depth="2" NCoef="0" IVar="-1" Cut="0.0000000000000000e+00" cType="1" res="-5.8237104676663876e-03" rms="2.9833576083183289e-01" purity="7.9909706115722656e-01" nType="-99"/>
          <Node pos="r" depth="2" NCoef="0" IVar="-1" Cut="0.0000000000000000e+00" cType="1" res="3.5123422741889954e-02" rms="1.5453845262527466e-01" purity="9.6097326278686523e-01" nType="-99"/>
        </Node>
        <Node pos="r" depth="1" NCoef="0" IVar="6" Cut="4.0000000000000000e+00" cType="1" res="0.0000000000000000e+00" rms="1.4928699471056461e-02" purity="2.7635391801595688e-02" nType="0">
          <Node pos="l" depth="2" NCoef="0" IVar="-1" Cut="0.0000000000000000e+00" cType="1" res="4.8317192122340202e-03" rms="2.9562947154045105e-01" purity="2.7459016442298889e-01" nType="-99"/>
          <Node pos="r" depth="2" NCoef="0" IVar="-1" Cut="0.0000000000000000e+00" cType="1" res="-4.6303197741508484e-02" rms="9.5191709697246552e-02" purity="1.3433891348540783e-02" nType="-99"/>
        </Node>
      </Node>
    </BinaryTree>
    <BinaryTree type="DecisionTree" boostWeight="1.0000000000000000e+00" itree="25">
      <Node pos="s" depth="0" NCoef="0" IVar="3" Cut="2.0000000000000000e+00" cType="1" res="6.2270653434097767e-03" rms="1.1241775006055832e-01" purity="5.0706106424331665e-01" nType="0">
        <Node pos="l" depth="1" NCoef="0" IVar="6" Cut="1.1000000000000000e+01" cType="1" res="1.3826045324094594e-04" rms="6.1631660908460617e-02" purity="9.0583765506744385e-01" nType="0">
          <Node pos="l" depth="2" NCoef="0" IVar="-1" Cut="0.0000000000000000e+00" cType="1" res="3.5269957035779953e-02" rms="1.6903428733348846e-01" purity="9.3810731172561646e-01" nType="-99"/>
          <Node pos="r" depth="2" NCoef="0" IVar="-1" Cut="0.0000000000000000e+00" cType="1" res="-3.9827477186918259e-02" rms="2.8532084822654724e-01" purity="3.3582088351249695e-01" nType="-99"/>
        </Node>
        <Node pos="r" depth="1" NCoef="0" IVar="5" Cut="5.0000000000000000e+00" cType="1" res="-4.6216458082199097e-02" rms="7.4637897312641144e-02" purity="7.2663491591811180e-03" nType="0">
          <Node pos="l" depth="2" NCoef="0" IVar="-1" Cut="0.0000000000000000e+00" cType="1" res="-3.0006883665919304e-02" rms="2.5230517983436584e-01" purity="8.2621082663536072e-02" nType="-99"/>
          <Node pos="r" depth="2" NCoef="0" IVar="-1" Cut="0.0000000000000000e+00" cType="1" res="-5.2342154085636139e-02" rms="5.7148621417582035e-03" purity="0.0000000000000000e+00" nType="-99"/>
        </Node>
      </Node>
    </BinaryTree>
    <BinaryTree type="DecisionTree" boostWeight="1.0000000000000000e+00" itree="26">
      <Node pos="s" depth="0" NCoef="0" IVar="5" Cut="1.0000000000000000e+00" cType="1" res="-4.3300821562297642e-04" rms="1.5223205089569092e-01" purity="5.0409471988677979e-01" nType="0">
        <Node pos="l" depth="1" NCoef="0" IVar="2" Cut="-1.7252056598663330e+00" cType="1" res="3.7876646965742111e-02" rms="1.6801349818706512e-01" purity="9.5029431581497192e-01" nType="0">
          <Node pos="l" depth="2" NCoef="0" IVar="-1" Cut="0.0000000000000000e+00" cType="1" res="-1.4102176763117313e-02" rms="2.9649186134338379e-01" purity="8.0628269910812378e-01" nType="-99"/>
          <Node pos="r" depth="2" NCoef="0" IVar="-1" Cut="0.0000000000000000e+00" cType="1" res="4.2103543877601624e-02" rms="1.2366160750389099e-01" purity="9.7907400131225586e-01" nType="-99"/>
        </Node>
        <Node pos="r" depth="1" NCoef="0" IVar="6" Cut="6.0000000000000000e+00" cType="1" res="0.0000000000000000e+00" rms="0.0000000000000000e+00" purity="4.4054843485355377e-02" nType="0">
          <Node pos="l" depth="2" NCoef="0" IVar="-1" Cut="0.0000000000000000e+00" cType="1" res="-4.7783952322788537e-04" rms="2.7249899506568909e-01" purity="2.7097901701927185e-01" nType="-99"/>
          <Node pos="r" depth="2" NCoef="0" IVar="-1" Cut="0.0000000000000000e+00" cType="1" res="-5.0550393760204315e-02" rms="7.6903559267520905e-02" purity="1.0575187392532825e-02" nType="-99"/>
        </Node>
      </Node>
    </BinaryTree>
    <BinaryTree type="DecisionTree" boostWeight="1.0000000000000000e+00" itree="27">
      <Node pos="s" depth="0" NCoef="0" IVar="3" Cut="1.0000000000000000e+00" cType="1" res="9.5484163612127304e-03" rms="1.4028422534465790e-01" purity="5.0000000000000000e-01" nType="0">
        <Node pos="l" depth="1" NCoef="0" IVar="2" Cut="-1.9473391771316528e+00" cType="1" res="3.8093648850917816e-02" rms="1.6651549935340881e-01" purity="9.4866752624511719e-01" nType="0">
          <Node pos="l" depth="2" NCoef="0" IVar="-1" Cut="0.0000000000000000e+00" cType="1" res="-3.3884509466588497e-03" rms="2.8993123769760132e-01" purity="7.9330706596374512e-01" nType="-99"/>
          <Node pos="r" depth="2" NCoef="0" IVar="-1" Cut="0.0000000000000000e+00" cType="1" res="3.6973144859075546e-02" rms="1.4287243783473969e-01" purity="9.6805894374847412e-01" nType="-99"/>
        </Node>
        <Node pos="r" depth="1" NCoef="0" IVar="6" Cut="4.0000000000000000e+00" cType="1" res="0.0000000000000000e+00" rms="0.0000000000000000e+00" purity="2.4976873770356178e-02" nType="0">
          <Node pos="l" depth="2" NCoef="0" IVar="-1" Cut="0.0000000000000000e+00" cType="1" res="-4.1825701482594013e-03" rms="2.5632256269454956e-01" purity="2.1052631735801697e-01" nType="-99"/>
          <Node pos="r" depth="2" NCoef="0" IVar="-1" Cut="0.0000000000000000e+00" cType="1" res="-4.4104792177677155e-02" rms="9.5260664820671082e-02" purity="1.4648437500000000e-02" nType="-99"/>
        </Node>
      </Node>
    </BinaryTree>
    <BinaryTree type="DecisionTree" boostWeight="1.0000000000000000e+00" itree="28">
      <Node pos="s" depth="0" NCoef="0" IVar="5" Cut="5.0000000000000000e+00" cType="1" res="1.0645082220435143e-03" rms="1.4875116944313049e-01" purity="5.0714129209518433e-01" nType="0">
        <Node pos="l" depth="1" NCoef="0" IVar="6" Cut="9.0000000000000000e+00" cType="1" res="2.2542738588526845e-04" rms="9.5894739031791687e-02" purity="8.8573664426803589e-01" nType="0">
          <Node pos="l" depth="2" NCoef="0" IVar="-1" Cut="0.0000000000000000e+00" cType="1" res="3.3194322139024734e-02" rms="1.6569276154041290e-01" purity="9.3698209524154663e-01" nType="-99"/>
          <Node pos="r" depth="2" NCoef="0" IVar="-1" Cut="0.0000000000000000e+00" cType="1" res="-2.8701074421405792e-02" rms="2.7989763021469116e-01" purity="4.3809524178504944e-01" nType="-99"/>
        </Node>
        <Node pos="r" depth="1" NCoef="0" IVar="3" Cut="2.0000000000000000e+00" cType="1" res="1.3243313878774643e-02" rms="0.0000000000000000e+00" purity="4.6741105616092682e-03" nType="0">
          <Node pos="l" depth="2" NCoef="0" IVar="-1" Cut="0.0000000000000000e+00" cType="1" res="-4.0121067315340042e-02" rms="2.2976328432559967e-01" purity="6.4257025718688965e-02" nType="-99"/>
          <Node pos="r" depth="2" NCoef="0" IVar="-1" Cut="0.0000000000000000e+00" cType="1" res="-5.0961475819349289e-02" rms="2.4332340806722641e-02" purity="5.5524706840515137e-04" nType="-99"/>
        </Node>
      </Node>
    </BinaryTree>
    <BinaryTree type="DecisionTree" boostWeight="1.0000000000000000e+00" itree="29">
      <Node pos="s" depth="0" NCoef="0" IVar="5" Cut="4.0000000000000000e+00" cType="1" res="-5.5887177586555481e-04" rms="1.4651814103126526e-01" purity="4.9960908293724060e-01" nType="0">
        <Node pos="l" depth="1" NCoef="0" IVar="6" Cut="9.0000000000000000e+00" cType="1" res="2.3316082661040127e-04" rms="8.8035799562931061e-02" purity="9.0617990493774414e-01" nType="0">
          <Node pos="l" depth="2" NCoef="0" IVar="-1" Cut="0.0000000000000000e+00" cType="1" res="3.1731594353914261e-02" rms="1.6435277462005615e-01" purity="9.4647258520126343e-01" nType="-99"/>
          <Node pos="r" depth="2" NCoef="0" IVar="-1" Cut="0.0000000000000000e+00" cType="1" res="-2.6350218802690506e-02" rms="2.9841205477714539e-01" purity="4.9543377757072449e-01" nType="-99"/>
        </Node>
        <Node pos="r" depth="1" NCoef="0" IVar="3" Cut="2.0000000000000000e+00" cType="1" res="1.4320987276732922e-02" rms="1.6992246732115746e-02" purity="7.4074072763323784e-03" nType="0">
          <Node pos="l" depth="2" NCoef="0" IVar="-1" Cut="0.0000000000000000e+00" cType="1" res="-2.9556965455412865e-02" rms="2.5410270690917969e-01" purity="8.9230768382549286e-02" nType="-99"/>
          <Node pos="r" depth="2" NCoef="0" IVar="-1" Cut="0.0000000000000000e+00" cType="1" res="-5.1207207143306732e-02" rms="1.7027731984853745e-02" purity="2.6845638058148324e-04" nType="-99"/>
        </Node>
      </Node>
    </BinaryTree>
    <BinaryTree type="DecisionTree" boostWeight="1.0000000000000000e+00" itree="30">
      <Node pos="s" depth="0" NCoef="0" IVar="5" Cut="1.0000000000000000e+00" cType="1" res="-4.1914544999599457e-04" rms="1.4629648625850677e-01" purity="4.9659711122512817e-01" nType="0">
        <Node pos="l" depth="1" NCoef="0" IVar="2" Cut="-1.9855681657791138e+00" cType="1" res="2.7580246329307556e-02" rms="1.6320873796939850e-01" purity="9.5229601860046387e-01" nType="0">
          <Node pos="l" depth="2" NCoef="0" IVar="-1" Cut="0.0000000000000000e+00" cType="1" res="-1.1215410195291042e-02" rms="2.8870633244514465e-01" purity="8.0088496208190918e-01" nType="-99"/>
          <Node pos="r" depth="2" NCoef="0" IVar="-1" Cut="0.0000000000000000e+00" cType="1" res="3.2361581921577454e-02" rms="1.4136615395545959e-01" purity="9.6926128864288330e-01" nType="-99"/>
        </Node>
        <Node pos="r" depth="1" NCoef="0" IVar="2" Cut="-7.0479226112365723e-01" cType="1" res="-2.7788113802671432e-02" rms="1.2232714146375656e-01" purity="3.9982132613658905e-02" nType="0">
          <Node pos="l" depth="2" NCoef="0" IVar="-1" Cut="0.0000000000000000e+00" cType="1" res="-3.9642486721277237e-02" rms="1.0598292201757431e-01" purity="2.3900574073195457e-02" nType="-99"/>
          <Node pos="r" depth="2" NCoef="0" IVar="-1" Cut="0.0000000000000000e+00" cType="1" res="6.1265672557055950e-03" rms="2.5812447071075439e-01" purity="2.6962456107139587e-01" nType="-99"/>
        </Node>
      </Node>
    </BinaryTree>
    <BinaryTree type="DecisionTree" boostWeight="1.0000000000000000e+00" itree="31">
      <Node pos="s" depth="0" NCoef="0" IVar="3" Cut="1.0000000000000000e+00" cType="1" res="1.0364389978349209e-02" rms="1.2664599716663361e-01" purity="4.8887193202972412e-01" nType="0">
        <Node pos="l" depth="1" NCoef="0" IVar="4" Cut="6.0000000000000000e+00" cType="1" res="2.7090324088931084e-02" rms="0.0000000000000000e+00" purity="9.4009912014007568e-01" nType="0">
          <Node pos="l" depth="2" NCoef="0" IVar="-1" Cut="0.0000000000000000e+00" cType="1" res="2.5532508268952370e-02" rms="1.6787129640579224e-01" purity="9.5092934370040894e-01" nType="-99"/>
          <Node pos="r" depth="2" NCoef="0" IVar="-1" Cut="0.0000000000000000e+00" cType="1" res="-1.5732074156403542e-02" rms="2.5684544444084167e-01" purity="8.6798679828643799e-01" nType="-99"/>
        </Node>
        <Node pos="r" depth="1" NCoef="0" IVar="5" Cut="1.0000000000000000e+00" cType="1" res="-2.7356488630175591e-02" rms="1.1080589145421982e-01" purity="2.6077348738908768e-02" nType="0">
          <Node pos="l" depth="2" NCoef="0" IVar="-1" Cut="0.0000000000000000e+00" cType="1" res="-1.5807770192623138e-02" rms="3.8779562711715698e-01" purity="3.7398374080657959e-01" nType="-99"/>
          <Node pos="r" depth="2" NCoef="0" IVar="-1" Cut="0.0000000000000000e+00" cType="1" res="-4.2721983045339584e-02" rms="6.8060815334320068e-02" purity="6.0761859640479088e-03" nType="-99"/>
        </Node>
      </Node>
    </BinaryTree>
    <BinaryTree type="DecisionTree" boostWeight="1.0000000000000000e+00" itree="32">
      <Node pos="s" depth="0" NCoef="0" IVar="6" Cut="7.0000000000000000e+00" cType="1" res="1.1774073354899883e-03" rms="0.0000000000000000e+00" purity="4.9311751127243042e-01" nType="0">
        <Node pos="l" depth="1" NCoef="0" IVar="5" Cut="6.0000000000000000e+00" cType="1" res="2.0144911482930183e-02" rms="1.6561304032802582e-01" purity="8.5084819793701172e-01" nType="0">
          <Node pos="l" depth="2" NCoef="0" IVar="-1" Cut="0.0000000000000000e+00" cType="1" res="2.7345586568117142e-02" rms="1.6791017353534698e-01" purity="9.4044423103332520e-01" nType="-99"/>
          <Node pos="r" depth="2" NCoef="0" IVar="-1" Cut="0.0000000000000000e+00" cType="1" res="-4.2842186987400055e-02" rms="1.3524040579795837e-01" purity="2.0361991599202156e-02" nType="-99"/>
        </Node>
        <Node pos="r" depth="1" NCoef="0" IVar="2" Cut="-1.7057141065597534e+00" cType="1" res="-2.6442075148224831e-02" rms="1.2525643408298492e-01" purity="1.3562306761741638e-01" nType="0">
          <Node pos="l" depth="2" NCoef="0" IVar="-1" Cut="0.0000000000000000e+00" cType="1" res="-4.6971090137958527e-02" rms="1.1308178305625916e-01" purity="5.1876381039619446e-02" nType="-99"/>
          <Node pos="r" depth="2" NCoef="0" IVar="-1" Cut="0.0000000000000000e+00" cType="1" res="-7.0255747996270657e-03" rms="1.6342918574810028e-01" purity="4.6623092889785767e-01" nType="-99"/>
        </Node>
      </Node>
    </BinaryTree>
    <BinaryTree type="DecisionTree" boostWeight="1.0000000000000000e+00" itree="33">
      <Node pos="s" depth="0" NCoef="0" IVar="3" Cut="1.0000000000000000e+00" cType="1" res="3.1211681198328733e-03" rms="5.2697397768497467e-02" purity="5.0930774211883545e-01" nType="0">
        <Node pos="l" depth="1" NCoef="0" IVar="1" Cut="3.2643702626228333e-01" cType="1" res="2.1878605708479881e-02" rms="1.6928344964981079e-01" purity="9.4555509090423584e-01" nType="0">
          <Node pos="l" depth="2" NCoef="0" IVar="-1" Cut="0.0000000000000000e+00" cType="1" res="-4.5561488717794418e-02" rms="2.6480537652969360e-01" purity="8.5658913850784302e-01" nType="-99"/>
          <Node pos="r" depth="2" NCoef="0" IVar="-1" Cut="0.0000000000000000e+00" cType="1" res="2.5643743574619293e-02" rms="1.6096113622188568e-01" purity="9.5072007179260254e-01" nType="-99"/>
        </Node>
        <Node pos="r" depth="1" NCoef="0" IVar="2" Cut="-1.2739336490631104e+00" cType="1" res="-2.3507120087742805e-02" rms="1.1347556859254837e-01" purity="2.8812367469072342e-02" nType="0">
          <Node pos="l" depth="2" NCoef="0" IVar="-1" Cut="0.0000000000000000e+00" cType="1" res="-4.0749028325080872e-02" rms="8.8213510811328888e-02" purity="1.4866979792714119e-02" nType="-99"/>
          <Node pos="r" depth="2" NCoef="0" IVar="-1" Cut="0.0000000000000000e+00" cType="1" res="-1.0685963789001107e-03" rms="2.3927091062068939e-01" purity="1.5172414481639862e-01" nType="-99"/>
        </Node>
      </Node>
    </BinaryTree>
    <BinaryTree type="DecisionTree" boostWeight="1.0000000000000000e+00" itree="34">
      <Node pos="s" depth="0" NCoef="0" IVar="2" Cut="-1.5421805381774902e+00" cType="1" res="-2.0702213805634528e-04" rms="1.4876189827919006e-01" purity="5.0144094228744507e-01" nType="0">
        <Node pos="l" depth="1" NCoef="0" IVar="0" Cut="1.6528217792510986e+00" cType="1" res="-1.9169583916664124e-02" rms="1.4036439359188080e-01" purity="1.8833892047405243e-01" nType="0">
          <Node pos="l" depth="2" NCoef="0" IVar="-1" Cut="0.0000000000000000e+00" cType="1" res="-3.5851873457431793e-02" rms="1.1667748540639877e-01" purity="1.0640496015548706e-01" nType="-99"/>
          <Node pos="r" depth="2" NCoef="0" IVar="-1" Cut="0.0000000000000000e+00" cType="1" res="5.8019859716296196e-04" rms="2.1336215734481812e-01" purity="5.4241073131561279e-01" nType="-99"/>
        </Node>
        <Node pos="r" depth="1" NCoef="0" IVar="3" Cut="3.0000000000000000e+00" cType="1" res="5.3014210425317287e-04" rms="3.5628509521484375e-01" purity="8.5237425565719604e-01" nType="0">
          <Node pos="l" depth="2" NCoef="0" IVar="-1" Cut="0.0000000000000000e+00" cType="1" res="2.8971726074814796e-02" rms="1.5889397263526917e-01" purity="9.3738681077957153e-01" nType="-99"/>
          <Node pos="r" depth="2" NCoef="0" IVar="-1" Cut="0.0000000000000000e+00" cType="1" res="-5.1826134324073792e-02" rms="8.4619164466857910e-02" purity="7.7120824716985226e-03" nType="-99"/>
        </Node>
      </Node>
    </BinaryTree>
    <BinaryTree type="DecisionTree" boostWeight="1.0000000000000000e+00" itree="35">
      <Node pos="s" depth="0" NCoef="0" IVar="3" Cut="1.0000000000000000e+00" cType="1" res="8.1417094916105270e-03" rms="1.1651857197284698e-01" purity="5.0522607564926147e-01" nType="0">
        <Node pos="l" depth="1" NCoef="0" IVar="5" Cut="1.0000000000000000e+00" cType="1" res="1.8671495839953423e-02" rms="1.6615022718906403e-01" purity="9.4762510061264038e-01" nType="0">
          <Node pos="l" depth="2" NCoef="0" IVar="-1" Cut="0.0000000000000000e+00" cType="1" res="2.7354961261153221e-02" rms="1.3906291127204895e-01" purity="9.7917139530181885e-01" nType="-99"/>
          <Node pos="r" depth="2" NCoef="0" IVar="-1" Cut="0.0000000000000000e+00" cType="1" res="-7.6073994860053062e-03" rms="3.8428592681884766e-01" purity="4.8160535097122192e-01" nType="-99"/>
        </Node>
        <Node pos="r" depth="1" NCoef="0" IVar="6" Cut="4.0000000000000000e+00" cType="1" res="6.2214722856879234e-04" rms="0.0000000000000000e+00" purity="2.8127143159508705e-02" nType="0">
          <Node pos="l" depth="2" NCoef="0" IVar="-1" Cut="0.0000000000000000e+00" cType="1" res="8.3469748497009277e-03" rms="2.8565183281898499e-01" purity="2.6839825510978699e-01" nType="-99"/>
          <Node pos="r" depth="2" NCoef="0" IVar="-1" Cut="0.0000000000000000e+00" cType="1" res="-3.8918789476156235e-02" rms="9.2353284358978271e-02" purity="1.4727184548974037e-02" nType="-99"/>
        </Node>
      </Node>
    </BinaryTree>
    <BinaryTree type="DecisionTree" boostWeight="1.0000000000000000e+00" itree="36">
      <Node pos="s" depth="0" NCoef="0" IVar="2" Cut="-1.5459188222885132e+00" cType="1" res="1.5085206832736731e-03" rms="1.4637139439582825e-01" purity="5.0000000000000000e-01" nType="0">
        <Node pos="l" depth="1" NCoef="0" IVar="6" Cut="8.0000000000000000e+00" cType="1" res="-1.4954333892092109e-03" rms="5.4534457623958588e-02" purity="1.7936170101165771e-01" nType="0">
          <Node pos="l" depth="2" NCoef="0" IVar="-1" Cut="0.0000000000000000e+00" cType="1" res="6.4578140154480934e-03" rms="2.2636815905570984e-01" purity="6.2488561868667603e-01" nType="-99"/>
          <Node pos="r" depth="2" NCoef="0" IVar="-1" Cut="0.0000000000000000e+00" cType="1" res="-4.3454762548208237e-02" rms="9.5263861119747162e-02" purity="4.4358193874359131e-02" nType="-99"/>
        </Node>
        <Node pos="r" depth="1" NCoef="0" IVar="3" Cut="3.0000000000000000e+00" cType="1" res="2.2232736228033900e-04" rms="9.3327015638351440e-02" purity="8.5475516319274902e-01" nType="0">
          <Node pos="l" depth="2" NCoef="0" IVar="-1" Cut="0.0000000000000000e+00" cType="1" res="3.0659783631563187e-02" rms="1.5523681044578552e-01" purity="9.4080996513366699e-01" nType="-99"/>
          <Node pos="r" depth="2" NCoef="0" IVar="-1" Cut="0.0000000000000000e+00" cType="1" res="-3.8194403052330017e-02" rms="1.1255636811256409e-01" purity="1.7676766961812973e-02" nType="-99"/>
        </Node>
      </Node>
    </BinaryTree>
    <BinaryTree type="DecisionTree" boostWeight="1.0000000000000000e+00" itree="37">
      <Node pos="s" depth="0" NCoef="0" IVar="5" Cut="2.0000000000000000e+00" cType="1" res="-3.4476197324693203e-03" rms="1.4904296398162842e-01" purity="4.9061870574951172e-01" nType="0">
        <Node pos="l" depth="1" NCoef="0" IVar="4" Cut="6.0000000000000000e+00" cType="1" res="3.1376853585243225e-02" rms="0.0000000000000000e+00" purity="9.2612421512603760e-01" nType="0">
          <Node pos="l" depth="2" NCoef="0" IVar="-1" Cut="0.0000000000000000e+00" cType="1" res="2.0836735144257545e-02" rms="1.6642311215400696e-01" purity="9.4707936048507690e-01" nType="-99"/>
          <Node pos="r" depth="2" NCoef="0" IVar="-1" Cut="0.0000000000000000e+00" cType="1" res="-2.7872748672962189e-02" rms="2.4734272062778473e-01" purity="7.9969877004623413e-01" nType="-99"/>
        </Node>
        <Node pos="r" depth="1" NCoef="0" IVar="6" Cut="5.0000000000000000e+00" cType="1" res="6.3487893203273416e-04" rms="0.0000000000000000e+00" purity="1.5873016789555550e-02" nType="0">
          <Node pos="l" depth="2" NCoef="0" IVar="-1" Cut="0.0000000000000000e+00" cType="1" res="-3.5457700490951538e-02" rms="2.2165444493293762e-01" purity="8.6053416132926941e-02" nType="-99"/>
          <Node pos="r" depth="2" NCoef="0" IVar="-1" Cut="0.0000000000000000e+00" cType="1" res="-3.5936411470174789e-02" rms="8.1322669982910156e-02" purity="9.8809218034148216e-03" nType="-99"/>
        </Node>
      </Node>
    </BinaryTree>
    <BinaryTree type="DecisionTree" boostWeight="1.0000000000000000e+00" itree="38">
      <Node pos="s" depth="0" NCoef="0" IVar="6" Cut="6.0000000000000000e+00" cType="1" res="0.0000000000000000e+00" rms="4.5212529599666595e-02" purity="5.0150650739669800e-01" nType="0">
        <Node pos="l" depth="1" NCoef="0" IVar="5" Cut="7.0000000000000000e+00" cType="1" res="2.0033463835716248e-02" rms="1.4717110991477966e-01" purity="8.7716656923294067e-01" nType="0">
          <Node pos="l" depth="2" NCoef="0" IVar="-1" Cut="0.0000000000000000e+00" cType="1" res="3.0060172080993652e-02" rms="1.4935715496540070e-01" purity="9.4420367479324341e-01" nType="-99"/>
          <Node pos="r" depth="2" NCoef="0" IVar="-1" Cut="0.0000000000000000e+00" cType="1" res="-3.8901798427104950e-02" rms="1.2054314464330673e-01" purity="2.0761245861649513e-02" nType="-99"/>
        </Node>
        <Node pos="r" depth="1" NCoef="0" IVar="4" Cut="3.0000000000000000e+00" cType="1" res="6.0622489452362061e-01" rms="0.0000000000000000e+00" purity="2.0120482146739960e-01" nType="0">
          <Node pos="l" depth="2" NCoef="0" IVar="-1" Cut="0.0000000000000000e+00" cType="1" res="1.0310861282050610e-02" rms="1.6694398224353790e-01" purity="5.0968396663665771e-01" nType="-99"/>
          <Node pos="r" depth="2" NCoef="0" IVar="-1" Cut="0.0000000000000000e+00" cType="1" res="-4.2434211820363998e-02" rms="1.2972332537174225e-01" purity="1.2553137540817261e-01" nType="-99"/>
        </Node>
      </Node>
    </BinaryTree>
    <BinaryTree type="DecisionTree" boostWeight="1.0000000000000000e+00" itree="39">
      <Node pos="s" depth="0" NCoef="0" IVar="3" Cut="2.0000000000000000e+00" cType="1" res="0.0000000000000000e+00" rms="0.0000000000000000e+00" purity="5.1297247409820557e-01" nType="0">
        <Node pos="l" depth="1" NCoef="0" IVar="6" Cut="1.1000000000000000e+01" cType="1" res="1.3768242206424475e-04" rms="6.7667700350284576e-02" purity="9.0842127799987793e-01" nType="0">
          <Node pos="l" depth="2" NCoef="0" IVar="-1" Cut="0.0000000000000000e+00" cType="1" res="2.0880976691842079e-02" rms="1.6826267540454865e-01" purity="9.3433398008346558e-01" nType="-99"/>
          <Node pos="r" depth="2" NCoef="0" IVar="-1" Cut="0.0000000000000000e+00" cType="1" res="-2.3005921393632889e-02" rms="2.5823926925659180e-01" purity="3.5840708017349243e-01" nType="-99"/>
        </Node>
        <Node pos="r" depth="1" NCoef="0" IVar="5" Cut="4.0000000000000000e+00" cType="1" res="-1.5974862501025200e-02" rms="6.6816538572311401e-02" purity="6.1240112408995628e-03" nType="0">
          <Node pos="l" depth="2" NCoef="0" IVar="-1" Cut="0.0000000000000000e+00" cType="1" res="-2.1895447745919228e-02" rms="2.5792914628982544e-01" purity="9.0534977614879608e-02" nType="-99"/>
          <Node pos="r" depth="2" NCoef="0" IVar="-1" Cut="0.0000000000000000e+00" cType="1" res="-4.8964947462081909e-02" rms="2.3499639704823494e-02" purity="5.4406962590292096e-04" nType="-99"/>
        </Node>
      </Node>
    </BinaryTree>
    <BinaryTree type="DecisionTree" boostWeight="1.0000000000000000e+00" itree="40">
      <Node pos="s" depth="0" NCoef="0" IVar="2" Cut="-1.7769268751144409e+00" cType="1" res="-2.2366652265191078e-03" rms="1.4131735265254974e-01" purity="5.0472694635391235e-01" nType="0">
        <Node pos="l" depth="1" NCoef="0" IVar="5" Cut="3.0000000000000000e+00" cType="1" res="-1.8400639295578003e-02" rms="1.3228060305118561e-01" purity="1.4223930239677429e-01" nType="0">
          <Node pos="l" depth="2" NCoef="0" IVar="-1" Cut="0.0000000000000000e+00" cType="1" res="-2.2749260067939758e-02" rms="2.7922782301902771e-01" purity="7.2014927864074707e-01" nType="-99"/>
          <Node pos="r" depth="2" NCoef="0" IVar="-1" Cut="0.0000000000000000e+00" cType="1" res="-4.2397763580083847e-02" rms="5.6586399674415588e-02" purity="3.8713519461452961e-03" nType="-99"/>
        </Node>
        <Node pos="r" depth="1" NCoef="0" IVar="3" Cut="3.0000000000000000e+00" cType="1" res="1.6649410128593445e-01" rms="0.0000000000000000e+00" purity="8.1714642047882080e-01" nType="0">
          <Node pos="l" depth="2" NCoef="0" IVar="-1" Cut="0.0000000000000000e+00" cType="1" res="2.0698584616184235e-02" rms="1.5310646593570709e-01" purity="9.2538714408874512e-01" nType="-99"/>
          <Node pos="r" depth="2" NCoef="0" IVar="-1" Cut="0.0000000000000000e+00" cType="1" res="-5.2647523581981659e-02" rms="7.1139208972454071e-02" purity="3.5273367539048195e-03" nType="-99"/>
        </Node>
      </Node>
    </BinaryTree>
    <BinaryTree type="DecisionTree" boostWeight="1.0000000000000000e+00" itree="41">
      <Node pos="s" depth="0" NCoef="0" IVar="2" Cut="-1.5352547168731689e+00" cType="1" res="6.8672472843900323e-04" rms="1.4056169986724854e-01" purity="5.0247579813003540e-01" nType="0">
        <Node pos="l" depth="1" NCoef="0" IVar="6" Cut="6.0000000000000000e+00" cType="1" res="2.0365803502500057e-03" rms="0.0000000000000000e+00" purity="1.8898808956146240e-01" nType="0">
          <Node pos="l" depth="2" NCoef="0" IVar="-1" Cut="0.0000000000000000e+00" cType="1" res="-1.5089092776179314e-03" rms="2.0995739102363586e-01" purity="6.7852604389190674e-01" nType="-99"/>
          <Node pos="r" depth="2" NCoef="0" IVar="-1" Cut="0.0000000000000000e+00" cType="1" res="-3.2992959022521973e-02" rms="1.1336027085781097e-01" purity="9.0630583465099335e-02" nType="-99"/>
        </Node>
        <Node pos="r" depth="1" NCoef="0" IVar="5" Cut="1.3000000000000000e+01" cType="1" res="1.7149189487099648e-02" rms="1.4440256357192993e-01" purity="8.5509324073791504e-01" nType="0">
          <Node pos="l" depth="2" NCoef="0" IVar="-1" Cut="0.0000000000000000e+00" cType="1" res="2.5966055691242218e-02" rms="1.4886602759361267e-01" purity="9.0920650959014893e-01" nType="-99"/>
          <Node pos="r" depth="2" NCoef="0" IVar="-1" Cut="0.0000000000000000e+00" cType="1" res="-4.5621335506439209e-02" rms="5.5047191679477692e-02" purity="4.0000001899898052e-03" nType="-99"/>
        </Node>
      </Node>
    </BinaryTree>
    <BinaryTree type="DecisionTree" boostWeight="1.0000000000000000e+00" itree="42">
      <Node pos="s" depth="0" NCoef="0" IVar="5" Cut="1.0000000000000000e+00" cType="1" res="2.6908752042800188e-03" rms="1.3288046419620514e-01" purity="5.0784468650817871e-01" nType="0">
        <Node pos="l" depth="1" NCoef="0" IVar="4" Cut="6.0000000000000000e+00" cType="1" res="1.6538375988602638e-02" rms="1.4703194797039032e-01" purity="9.5707124471664429e-01" nType="0">
          <Node pos="l" depth="2" NCoef="0" IVar="-1" Cut="0.0000000000000000e+00" cType="1" res="2.7284303680062294e-02" rms="1.3599595427513123e-01" purity="9.7004026174545288e-01" nType="-99"/>
          <Node pos="r" depth="2" NCoef="0" IVar="-1" Cut="0.0000000000000000e+00" cType="1" res="-7.5189750641584396e-03" rms="2.0252384245395660e-01" purity="8.7358182668685913e-01" nType="-99"/>
        </Node>
        <Node pos="r" depth="1" NCoef="0" IVar="1" Cut="1.6738609075546265e+00" cType="1" res="-1.1124885641038418e-02" rms="1.1654767394065857e-01" purity="3.9108686149120331e-02" nType="0">
          <Node pos="l" depth="2" NCoef="0" IVar="-1" Cut="0.0000000000000000e+00" cType="1" res="-3.0294284224510193e-02" rms="1.7336228489875793e-01" purity="8.3892621099948883e-02" nType="-99"/>
          <Node pos="r" depth="2" NCoef="0" IVar="-1" Cut="0.0000000000000000e+00" cType="1" res="-1.9388040527701378e-02" rms="1.0455787181854248e-01" purity="3.2088372856378555e-02" nType="-99"/>
        </Node>
      </Node>
    </BinaryTree>
    <BinaryTree type="DecisionTree" boostWeight="1.0000000000000000e+00" itree="43">
      <Node pos="s" depth="0" NCoef="0" IVar="5" Cut="4.0000000000000000e+00" cType="1" res="2.1142170589882880e-04" rms="1.3908141851425171e-01" purity="5.0123482942581177e-01" nType="0">
        <Node pos="l" depth="1" NCoef="0" IVar="4" Cut="7.0000000000000000e+00" cType="1" res="2.9038567095994949e-02" rms="0.0000000000000000e+00" purity="9.1164988279342651e-01" nType="0">
          <Node pos="l" depth="2" NCoef="0" IVar="-1" Cut="0.0000000000000000e+00" cType="1" res="2.0811924710869789e-02" rms="1.6866146028041840e-01" purity="9.3486154079437256e-01" nType="-99"/>
          <Node pos="r" depth="2" NCoef="0" IVar="-1" Cut="0.0000000000000000e+00" cType="1" res="-2.9978476464748383e-02" rms="2.2900000214576721e-01" purity="6.8980479240417480e-01" nType="-99"/>
        </Node>
        <Node pos="r" depth="1" NCoef="0" IVar="6" Cut="5.0000000000000000e+00" cType="1" res="2.1302966400980949e-02" rms="6.3249714672565460e-02" purity="6.9289780221879482e-03" nType="0">
          <Node pos="l" depth="2" NCoef="0" IVar="-1" Cut="0.0000000000000000e+00" cType="1" res="-3.7756450474262238e-02" rms="1.7617198824882507e-01" purity="5.0583656877279282e-02" nType="-99"/>
          <Node pos="r" depth="2" NCoef="0" IVar="-1" Cut="0.0000000000000000e+00" cType="1" res="-3.9320506155490875e-02" rms="5.8460846543312073e-02" purity="3.9640590548515320e-03" nType="-99"/>
        </Node>
      </Node>
    </BinaryTree>
    <BinaryTree type="DecisionTree" boostWeight="1.0000000000000000e+00" itree="44">
      <Node pos="s" depth="0" NCoef="0" IVar="5" Cut="1.0000000000000000e+00" cType="1" res="5.4046645527705550e-04" rms="1.3890363276004791e-01" purity="5.0543957948684692e-01" nType="0">
        <Node pos="l" depth="1" NCoef="0" IVar="1" Cut="5.5584335327148438e-01" cType="1" res="1.2583346106112003e-02" rms="1.5509094297885895e-01" purity="9.5166885852813721e-01" nType="0">
          <Node pos="l" depth="2" NCoef="0" IVar="-1" Cut="0.0000000000000000e+00" cType="1" res="-1.7723590135574341e-02" rms="2.2764019668102264e-01" purity="9.2876714468002319e-01" nType="-99"/>
          <Node pos="r" depth="2" NCoef="0" IVar="-1" Cut="0.0000000000000000e+00" cType="1" res="1.9399682059884071e-02" rms="1.4694970846176147e-01" purity="9.5363616943359375e-01" nType="-99"/>
        </Node>
        <Node pos="r" depth="1" NCoef="0" IVar="1" Cut="8.3341455459594727e-01" cType="1" res="-1.1715237982571125e-02" rms="1.1878784745931625e-01" purity="3.6868456751108170e-02" nType="0">
          <Node pos="l" depth="2" NCoef="0" IVar="-1" Cut="0.0000000000000000e+00" cType="1" res="-5.4262679070234299e-02" rms="2.7350616455078125e-01" purity="7.8602619469165802e-02" nType="-99"/>
          <Node pos="r" depth="2" NCoef="0" IVar="-1" Cut="0.0000000000000000e+00" cType="1" res="-1.9506286829710007e-02" rms="1.0266265273094177e-01" purity="3.4573830664157867e-02" nType="-99"/>
        </Node>
      </Node>
    </BinaryTree>
    <BinaryTree type="DecisionTree" boostWeight="1.0000000000000000e+00" itree="45">
      <Node pos="s" depth="0" NCoef="0" IVar="6" Cut="7.0000000000000000e+00" cType="1" res="0.0000000000000000e+00" rms="1.0538583621382713e-02" purity="4.9155929684638977e-01" nType="0">
        <Node pos="l" depth="1" NCoef="0" IVar="1" Cut="2.0912340283393860e-01" cType="1" res="9.2991972342133522e-03" rms="1.6624563932418823e-01" purity="8.5227787494659424e-01" nType="0">
          <Node pos="l" depth="2" NCoef="0" IVar="-1" Cut="0.0000000000000000e+00" cType="1" res="-2.4965047836303711e-02" rms="2.5684082508087158e-01" purity="7.2757476568222046e-01" nType="-99"/>
          <Node pos="r" depth="2" NCoef="0" IVar="-1" Cut="0.0000000000000000e+00" cType="1" res="1.7100518569350243e-02" rms="1.5723453462123871e-01" purity="8.6135977506637573e-01" nType="-99"/>
        </Node>
        <Node pos="r" depth="1" NCoef="0" IVar="1" Cut="1.5023428201675415e+00" cType="1" res="-1.2469540350139141e-02" rms="1.2112041562795639e-01" purity="1.4157548546791077e-01" nType="0">
          <Node pos="l" depth="2" NCoef="0" IVar="-1" Cut="0.0000000000000000e+00" cType="1" res="-6.7400991916656494e-02" rms="1.6533797979354858e-01" purity="1.4015151560306549e-01" nType="-99"/>
          <Node pos="r" depth="2" NCoef="0" IVar="-1" Cut="0.0000000000000000e+00" cType="1" res="-2.1793693304061890e-02" rms="1.1758812516927719e-01" purity="1.4166279137134552e-01" nType="-99"/>
        </Node>
      </Node>
    </BinaryTree>
    <BinaryTree type="DecisionTree" boostWeight="1.0000000000000000e+00" itree="46">
      <Node pos="s" depth="0" NCoef="0" IVar="2" Cut="-2.0403318405151367e+00" cType="1" res="1.0104117245646194e-04" rms="1.4388447999954224e-01" purity="5.0500935316085815e-01" nType="0">
        <Node pos="l" depth="1" NCoef="0" IVar="1" Cut="1.6413080692291260e+00" cType="1" res="-1.3411366380751133e-02" rms="1.3243822753429413e-01" purity="1.0666666924953461e-01" nType="0">
          <Node pos="l" depth="2" NCoef="0" IVar="-1" Cut="0.0000000000000000e+00" cType="1" res="-5.2290361374616623e-02" rms="2.2215381264686584e-01" purity="3.0360934138298035e-01" nType="-99"/>
          <Node pos="r" depth="2" NCoef="0" IVar="-1" Cut="0.0000000000000000e+00" cType="1" res="-1.9751360639929771e-02" rms="1.1026631295681000e-01" purity="7.4724517762660980e-02" nType="-99"/>
        </Node>
        <Node pos="r" depth="1" NCoef="0" IVar="5" Cut="4.0000000000000000e+00" cType="1" res="7.9143857583403587e-03" rms="1.4941936731338501e-01" purity="7.4053961038589478e-01" nType="0">
          <Node pos="l" depth="2" NCoef="0" IVar="-1" Cut="0.0000000000000000e+00" cType="1" res="1.9332842901349068e-02" rms="1.5557602047920227e-01" purity="9.4506978988647461e-01" nType="-99"/>
          <Node pos="r" depth="2" NCoef="0" IVar="-1" Cut="0.0000000000000000e+00" cType="1" res="-2.1848512813448906e-02" rms="1.2473672628402710e-01" purity="2.2906793281435966e-02" nType="-99"/>
        </Node>
      </Node>
    </BinaryTree>
    <BinaryTree type="DecisionTree" boostWeight="1.0000000000000000e+00" itree="47">
      <Node pos="s" depth="0" NCoef="0" IVar="2" Cut="-1.5352547168731689e+00" cType="1" res="-1.1113383807241917e-03" rms="1.3927885890007019e-01" purity="4.9523809552192688e-01" nType="0">
        <Node pos="l" depth="1" NCoef="0" IVar="4" Cut="6.0000000000000000e+00" cType="1" res="7.7768546342849731e-01" rms="0.0000000000000000e+00" purity="1.8470808863639832e-01" nType="0">
          <Node pos="l" depth="2" NCoef="0" IVar="-1" Cut="0.0000000000000000e+00" cType="1" res="-1.9572060555219650e-03" rms="1.8233713507652283e-01" purity="4.2509463429450989e-01" nType="-99"/>
          <Node pos="r" depth="2" NCoef="0" IVar="-1" Cut="0.0000000000000000e+00" cType="1" res="-5.1312480121850967e-02" rms="8.3204299211502075e-02" purity="3.4750338643789291e-02" nType="-99"/>
        </Node>
        <Node pos="r" depth="1" NCoef="0" IVar="5" Cut="1.0000000000000000e+00" cType="1" res="8.7726674973964691e-03" rms="1.4777249097824097e-01" purity="8.4965616464614868e-01" nType="0">
          <Node pos="l" depth="2" NCoef="0" IVar="-1" Cut="0.0000000000000000e+00" cType="1" res="2.3051798343658447e-02" rms="1.2215485423803329e-01" purity="9.7901898622512817e-01" nType="-99"/>
          <Node pos="r" depth="2" NCoef="0" IVar="-1" Cut="0.0000000000000000e+00" cType="1" res="-7.0859272964298725e-03" rms="2.3862393200397491e-01" purity="1.8840579688549042e-01" nType="-99"/>
        </Node>
      </Node>
    </BinaryTree>
    <BinaryTree type="DecisionTree" boostWeight="1.0000000000000000e+00" itree="48">
      <Node pos="s" depth="0" NCoef="0" IVar="3" Cut="1.0000000000000000e+00" cType="1" res="1.0819855146110058e-02" rms="1.3146838545799255e-01" purity="4.9180144071578979e-01" nType="0">
        <Node pos="l" depth="1" NCoef="0" IVar="4" Cut="7.0000000000000000e+00" cType="1" res="2.0819600671529770e-02" rms="0.0000000000000000e+00" purity="9.5058459043502808e-01" nType="0">
          <Node pos="l" depth="2" NCoef="0" IVar="-1" Cut="0.0000000000000000e+00" cType="1" res="2.2664410993456841e-02" rms="1.4688993990421295e-01" purity="9.5902228355407715e-01" nType="-99"/>
          <Node pos="r" depth="2" NCoef="0" IVar="-1" Cut="0.0000000000000000e+00" cType="1" res="-2.7119673788547516e-02" rms="2.5791659951210022e-01" purity="8.5277777910232544e-01" nType="-99"/>
        </Node>
        <Node pos="r" depth="1" NCoef="0" IVar="5" Cut="3.0000000000000000e+00" cType="1" res="-1.1272659525275230e-02" rms="9.1992184519767761e-02" purity="2.2563176229596138e-02" nType="0">
          <Node pos="l" depth="2" NCoef="0" IVar="-1" Cut="0.0000000000000000e+00" cType="1" res="-1.6719879582524300e-02" rms="3.0406776070594788e-01" purity="2.7011492848396301e-01" nType="-99"/>
          <Node pos="r" depth="2" NCoef="0" IVar="-1" Cut="0.0000000000000000e+00" cType="1" res="-4.4073492288589478e-02" rms="3.7315353751182556e-02" purity="1.4691478572785854e-03" nType="-99"/>
        </Node>
      </Node>
    </BinaryTree>
    <BinaryTree type="DecisionTree" boostWeight="1.0000000000000000e+00" itree="49">
      <Node pos="s" depth="0" NCoef="0" IVar="2" Cut="-7.2330713272094727e-01" cType="1" res="-1.9682927522808313e-03" rms="1.4322122931480408e-01" purity="4.9481165409088135e-01" nType="0">
        <Node pos="l" depth="1" NCoef="0" IVar="1" Cut="4.9052542448043823e-01" cType="1" res="-8.3557525649666786e-03" rms="1.4622412621974945e-01" purity="3.0481019616127014e-01" nType="0">
          <Node pos="l" depth="2" NCoef="0" IVar="-1" Cut="0.0000000000000000e+00" cType="1" res="-2.8705667704343796e-02" rms="2.4206709861755371e-01" purity="6.3709676265716553e-01" nType="-99"/>
          <Node pos="r" depth="2" NCoef="0" IVar="-1" Cut="0.0000000000000000e+00" cType="1" res="-1.3132696971297264e-02" rms="1.3761603832244873e-01" purity="2.8327524662017822e-01" nType="-99"/>
        </Node>
        <Node pos="r" depth="1" NCoef="0" IVar="6" Cut="7.0000000000000000e+00" cType="1" res="3.2869603019207716e-03" rms="1.4701541513204575e-02" purity="9.1648513078689575e-01" nType="0">
          <Node pos="l" depth="2" NCoef="0" IVar="-1" Cut="0.0000000000000000e+00" cType="1" res="2.8402363881468773e-02" rms="1.2889319658279419e-01" purity="9.4194310903549194e-01" nType="-99"/>
          <Node pos="r" depth="2" NCoef="0" IVar="-1" Cut="0.0000000000000000e+00" cType="1" res="-1.7570704221725464e-02" rms="1.9162897765636444e-01" purity="6.2612611055374146e-01" nType="-99"/>
        </Node>
      </Node>
    </BinaryTree>
    <BinaryTree type="DecisionTree" boostWeight="1.0000000000000000e+00" itree="50">
      <Node pos="s" depth="0" NCoef="0" IVar="4" Cut="4.0000000000000000e+00" cType="1" res="4.8035615682601929e-01" rms="5.0194758176803589e-01" purity="4.9159711599349976e-01" nType="0">
        <Node pos="l" depth="1" NCoef="0" IVar="5" Cut="7.0000000000000000e+00" cType="1" res="1.0121953673660755e-02" rms="1.6542756557464600e-01" purity="7.5108331441879272e-01" nType="0">
          <Node pos="l" depth="2" NCoef="0" IVar="-1" Cut="0.0000000000000000e+00" cType="1" res="2.0453961566090584e-02" rms="1.7636695504188538e-01" purity="8.9916211366653442e-01" nType="-99"/>
          <Node pos="r" depth="2" NCoef="0" IVar="-1" Cut="0.0000000000000000e+00" cType="1" res="-3.6192730069160461e-02" rms="9.6778042614459991e-02" purity="1.1544011533260345e-02" nType="-99"/>
        </Node>
        <Node pos="r" depth="1" NCoef="0" IVar="1" Cut="1.0613676309585571e+00" cType="1" res="-8.8326064869761467e-03" rms="1.2523943185806274e-01" purity="2.6847442984580994e-01" nType="0">
          <Node pos="l" depth="2" NCoef="0" IVar="-1" Cut="0.0000000000000000e+00" cType="1" res="2.5663089007139206e-02" rms="1.5516106784343719e-01" purity="6.7041200399398804e-01" nType="-99"/>
          <Node pos="r" depth="2" NCoef="0" IVar="-1" Cut="0.0000000000000000e+00" cType="1" res="-2.4947058409452438e-02" rms="1.2310107797384262e-01" purity="2.4496056139469147e-01" nType="-99"/>
        </Node>
      </Node>
    </BinaryTree>
    <BinaryTree type="DecisionTree" boostWeight="1.0000000000000000e+00" itree="51">
      <Node pos="s" depth="0" NCoef="0" IVar="3" Cut="3.0000000000000000e+00" cType="1" res="8.7515227496623993e-03" rms="1.2860880792140961e-01" purity="5.0326800346374512e-01" nType="0">
        <Node pos="l" depth="1" NCoef="0" IVar="6" Cut="1.3000000000000000e+01" cType="1" res="3.0526972841471434e-04" rms="1.3196307420730591e-01" purity="8.5822451114654541e-01" nType="0">
          <Node pos="l" depth="2" NCoef="0" IVar="-1" Cut="0.0000000000000000e+00" cType="1" res="1.7532091587781906e-02" rms="1.7012380063533783e-01" purity="8.9045447111129761e-01" nType="-99"/>
          <Node pos="r" depth="2" NCoef="0" IVar="-1" Cut="0.0000000000000000e+00" cType="1" res="-2.3391414433717728e-02" rms="2.1264898777008057e-01" purity="1.9262294471263885e-01" nType="-99"/>
        </Node>
        <Node pos="r" depth="1" NCoef="0" IVar="5" Cut="5.0000000000000000e+00" cType="1" res="-9.6824606880545616e-03" rms="4.4328920543193817e-02" purity="2.4038462433964014e-03" nType="0">
          <Node pos="l" depth="2" NCoef="0" IVar="-1" Cut="0.0000000000000000e+00" cType="1" res="-3.8820460438728333e-02" rms="1.8282902240753174e-01" purity="3.8626611232757568e-02" nType="-99"/>
          <Node pos="r" depth="2" NCoef="0" IVar="-1" Cut="0.0000000000000000e+00" cType="1" res="-5.0386961549520493e-02" rms="2.3796590976417065e-03" purity="0.0000000000000000e+00" nType="-99"/>
        </Node>
      </Node>
    </BinaryTree>
    <BinaryTree type="DecisionTree" boostWeight="1.0000000000000000e+00" itree="52">
      <Node pos="s" depth="0" NCoef="0" IVar="6" Cut="6.0000000000000000e+00" cType="1" res="2.2072634601499885e-04" rms="0.0000000000000000e+00" purity="5.0336605310440063e-01" nType="0">
        <Node pos="l" depth="1" NCoef="0" IVar="1" Cut="2.6431635022163391e-01" cType="1" res="8.1769386306405067e-03" rms="1.5414798259735107e-01" purity="8.7752091884613037e-01" nType="0">
          <Node pos="l" depth="2" NCoef="0" IVar="-1" Cut="0.0000000000000000e+00" cType="1" res="-2.4379607290029526e-02" rms="2.2599127888679504e-01" purity="6.8794327974319458e-01" nType="-99"/>
          <Node pos="r" depth="2" NCoef="0" IVar="-1" Cut="0.0000000000000000e+00" cType="1" res="1.7283555120229721e-02" rms="1.4710849523544312e-01" purity="8.9164906740188599e-01" nType="-99"/>
        </Node>
        <Node pos="r" depth="1" NCoef="0" IVar="4" Cut="4.0000000000000000e+00" cType="1" res="7.8518515825271606e-01" rms="0.0000000000000000e+00" purity="1.9879880547523499e-01" nType="0">
          <Node pos="l" depth="2" NCoef="0" IVar="-1" Cut="0.0000000000000000e+00" cType="1" res="6.4205094240605831e-03" rms="1.5684853494167328e-01" purity="4.7921389341354370e-01" nType="-99"/>
          <Node pos="r" depth="2" NCoef="0" IVar="-1" Cut="0.0000000000000000e+00" cType="1" res="-3.2081436365842819e-02" rms="1.0533057153224945e-01" purity="9.7766883671283722e-02" nType="-99"/>
        </Node>
      </Node>
    </BinaryTree>
    <BinaryTree type="DecisionTree" boostWeight="1.0000000000000000e+00" itree="53">
      <Node pos="s" depth="0" NCoef="0" IVar="3" Cut="1.0000000000000000e+00" cType="1" res="0.0000000000000000e+00" rms="0.0000000000000000e+00" purity="4.9720856547355652e-01" nType="0">
        <Node pos="l" depth="1" NCoef="0" IVar="4" Cut="8.0000000000000000e+00" cType="1" res="2.2673154249787331e-02" rms="0.0000000000000000e+00" purity="9.4535160064697266e-01" nType="0">
          <Node pos="l" depth="2" NCoef="0" IVar="-1" Cut="0.0000000000000000e+00" cType="1" res="1.2882311828434467e-02" rms="1.6259072721004486e-01" purity="9.5238095521926880e-01" nType="-99"/>
          <Node pos="r" depth="2" NCoef="0" IVar="-1" Cut="0.0000000000000000e+00" cType="1" res="-1.4743075706064701e-02" rms="2.7649989724159241e-01" purity="8.2113820314407349e-01" nType="-99"/>
        </Node>
        <Node pos="r" depth="1" NCoef="0" IVar="5" Cut="1.0000000000000000e+00" cType="1" res="-7.8586321324110031e-03" rms="1.0984437167644501e-01" purity="2.5441210716962814e-02" nType="0">
          <Node pos="l" depth="2" NCoef="0" IVar="-1" Cut="0.0000000000000000e+00" cType="1" res="-1.7373904585838318e-02" rms="3.7614953517913818e-01" purity="3.7004405260086060e-01" nType="-99"/>
          <Node pos="r" depth="2" NCoef="0" IVar="-1" Cut="0.0000000000000000e+00" cType="1" res="-2.4488296359777451e-02" rms="7.0629201829433441e-02" purity="6.5280464477837086e-03" nType="-99"/>
        </Node>
      </Node>
    </BinaryTree>
    <BinaryTree type="DecisionTree" boostWeight="1.0000000000000000e+00" itree="54">
      <Node pos="s" depth="0" NCoef="0" IVar="5" Cut="1.0000000000000000e+00" cType="1" res="-8.6396129336208105e-04" rms="1.3789397478103638e-01" purity="4.9352803826332092e-01" nType="0">
        <Node pos="l" depth="1" NCoef="0" IVar="1" Cut="2.1808557510375977e+00" cType="1" res="6.3195391558110714e-03" rms="1.6214257478713989e-01" purity="9.4999998807907104e-01" nType="0">
          <Node pos="l" depth="2" NCoef="0" IVar="-1" Cut="0.0000000000000000e+00" cType="1" res="1.5193501021713018e-03" rms="1.7333047091960907e-01" purity="9.5171445608139038e-01" nType="-99"/>
          <Node pos="r" depth="2" NCoef="0" IVar="-1" Cut="0.0000000000000000e+00" cType="1" res="2.1119490265846252e-02" rms="1.4036832749843597e-01" purity="9.4705176353454590e-01" nType="-99"/>
        </Node>
        <Node pos="r" depth="1" NCoef="0" IVar="0" Cut="1.5789912939071655e+00" cType="1" res="-7.4253580532968044e-03" rms="1.0960788279771805e-01" purity="3.6955077201128006e-02" nType="0">
          <Node pos="l" depth="2" NCoef="0" IVar="-1" Cut="0.0000000000000000e+00" cType="1" res="-1.5617985278367996e-02" rms="1.0297220200300217e-01" purity="3.2586559653282166e-02" nType="-99"/>
          <Node pos="r" depth="2" NCoef="0" IVar="-1" Cut="0.0000000000000000e+00" cType="1" res="-3.3413283526897430e-02" rms="1.4506423473358154e-01" purity="6.5989844501018524e-02" nType="-99"/>
        </Node>
      </Node>
    </BinaryTree>
    <BinaryTree type="DecisionTree" boostWeight="1.0000000000000000e+00" itree="55">
      <Node pos="s" depth="0" NCoef="0" IVar="3" Cut="2.0000000000000000e+00" cType="1" res="9.4713652506470680e-03" rms="1.2336394935846329e-01" purity="5.1068282127380371e-01" nType="0">
        <Node pos="l" depth="1" NCoef="0" IVar="2" Cut="-1.7252056598663330e+00" cType="1" res="5.6318934075534344e-03" rms="1.7869240045547485e-01" purity="9.0360504388809204e-01" nType="0">
          <Node pos="l" depth="2" NCoef="0" IVar="-1" Cut="0.0000000000000000e+00" cType="1" res="-6.9226245395839214e-03" rms="2.6777571439743042e-01" purity="6.9624215364456177e-01" nType="-99"/>
          <Node pos="r" depth="2" NCoef="0" IVar="-1" Cut="0.0000000000000000e+00" cType="1" res="1.5555870719254017e-02" rms="1.5057206153869629e-01" purity="9.5151954889297485e-01" nType="-99"/>
        </Node>
        <Node pos="r" depth="1" NCoef="0" IVar="5" Cut="4.0000000000000000e+00" cType="1" res="-8.0769136548042297e-03" rms="7.2002641856670380e-02" purity="6.2877265736460686e-03" nType="0">
          <Node pos="l" depth="2" NCoef="0" IVar="-1" Cut="0.0000000000000000e+00" cType="1" res="-2.3623775690793991e-02" rms="2.6287958025932312e-01" purity="8.4210529923439026e-02" nType="-99"/>
          <Node pos="r" depth="2" NCoef="0" IVar="-1" Cut="0.0000000000000000e+00" cType="1" res="-4.8202570527791977e-02" rms="1.6359144821763039e-02" purity="2.7092927484773099e-04" nType="-99"/>
        </Node>
      </Node>
    </BinaryTree>
    <BinaryTree type="DecisionTree" boostWeight="1.0000000000000000e+00" itree="56">
      <Node pos="s" depth="0" NCoef="0" IVar="1" Cut="2.6431635022163391e-01" cType="1" res="-4.9753603525459766e-04" rms="1.3778394460678101e-01" purity="5.0283253192901611e-01" nType="0">
        <Node pos="l" depth="1" NCoef="0" IVar="-1" Cut="0.0000000000000000e+00" cType="1" res="-3.8146857172250748e-02" rms="2.4271480739116669e-01" purity="6.4857143163681030e-01" nType="-99"/>
        <Node pos="r" depth="1" NCoef="0" IVar="6" Cut="7.0000000000000000e+00" cType="1" res="3.0927818298339844e+01" rms="0.0000000000000000e+00" purity="4.9681454896926880e-01" nType="0">
          <Node pos="l" depth="2" NCoef="0" IVar="-1" Cut="0.0000000000000000e+00" cType="1" res="1.5366352163255215e-02" rms="1.4660967886447906e-01" purity="8.6829864978790283e-01" nType="-99"/>
          <Node pos="r" depth="2" NCoef="0" IVar="-1" Cut="0.0000000000000000e+00" cType="1" res="-1.5644643455743790e-02" rms="1.1512622237205505e-01" purity="1.5121839940547943e-01" nType="-99"/>
        </Node>
      </Node>
    </BinaryTree>
    <BinaryTree type="DecisionTree" boostWeight="1.0000000000000000e+00" itree="57">
      <Node pos="s" depth="0" NCoef="0" IVar="5" Cut="1.0000000000000000e+00" cType="1" res="-1.7492263577878475e-03" rms="1.3994082808494568e-01" purity="5.0032347440719604e-01" nType="0">
        <Node pos="l" depth="1" NCoef="0" IVar="2" Cut="-1.9480372667312622e+00" cType="1" res="4.0185130201280117e-03" rms="1.6107286512851715e-01" purity="9.4780570268630981e-01" nType="0">
          <Node pos="l" depth="2" NCoef="0" IVar="-1" Cut="0.0000000000000000e+00" cType="1" res="-8.8311089202761650e-03" rms="2.8527128696441650e-01" purity="7.7504724264144897e-01" nType="-99"/>
          <Node pos="r" depth="2" NCoef="0" IVar="-1" Cut="0.0000000000000000e+00" cType="1" res="1.2317059561610222e-02" rms="1.3730682432651520e-01" purity="9.6974790096282959e-01" nType="-99"/>
        </Node>
        <Node pos="r" depth="1" NCoef="0" IVar="5" Cut="3.0000000000000000e+00" cType="1" res="-6.3443076796829700e-03" rms="1.1438117176294327e-01" purity="4.1703056544065475e-02" nType="0">
          <Node pos="l" depth="2" NCoef="0" IVar="-1" Cut="0.0000000000000000e+00" cType="1" res="-2.2888207808136940e-02" rms="2.7622997760772705e-01" purity="4.4147157669067383e-01" nType="-99"/>
          <Node pos="r" depth="2" NCoef="0" IVar="-1" Cut="0.0000000000000000e+00" cType="1" res="-1.7210049554705620e-02" rms="9.4456508755683899e-02" purity="1.3781826943159103e-02" nType="-99"/>
        </Node>
      </Node>
    </BinaryTree>
    <BinaryTree type="DecisionTree" boostWeight="1.0000000000000000e+00" itree="58">
      <Node pos="s" depth="0" NCoef="0" IVar="2" Cut="-1.2466124296188354e+00" cType="1" res="-1.1639264412224293e-03" rms="1.3722167909145355e-01" purity="5.0543957948684692e-01" nType="0">
        <Node pos="l" depth="1" NCoef="0" IVar="6" Cut="4.0000000000000000e+00" cType="1" res="0.0000000000000000e+00" rms="0.0000000000000000e+00" purity="2.4024137854576111e-01" nType="0">
          <Node pos="l" depth="2" NCoef="0" IVar="-1" Cut="0.0000000000000000e+00" cType="1" res="9.0285446494817734e-03" rms="1.8749013543128967e-01" purity="7.6938366889953613e-01" nType="-99"/>
          <Node pos="r" depth="2" NCoef="0" IVar="-1" Cut="0.0000000000000000e+00" cType="1" res="-1.8723949790000916e-02" rms="1.3231068849563599e-01" purity="1.8479166924953461e-01" nType="-99"/>
        </Node>
        <Node pos="r" depth="1" NCoef="0" IVar="3" Cut="3.0000000000000000e+00" cType="1" res="5.9222412528470159e-04" rms="3.4695464372634888e-01" purity="8.8502025604248047e-01" nType="0">
          <Node pos="l" depth="2" NCoef="0" IVar="-1" Cut="0.0000000000000000e+00" cType="1" res="1.7177343368530273e-02" rms="1.3847260177135468e-01" purity="9.5263004302978516e-01" nType="-99"/>
          <Node pos="r" depth="2" NCoef="0" IVar="-1" Cut="0.0000000000000000e+00" cType="1" res="-4.3914280831813812e-02" rms="6.7810863256454468e-02" purity="3.7878789007663727e-03" nType="-99"/>
        </Node>
      </Node>
    </BinaryTree>
    <BinaryTree type="DecisionTree" boostWeight="1.0000000000000000e+00" itree="59">
      <Node pos="s" depth="0" NCoef="0" IVar="5" Cut="6.0000000000000000e+00" cType="1" res="1.0779078584164381e-03" rms="1.3612894713878632e-01" purity="5.0599360466003418e-01" nType="0">
        <Node pos="l" depth="1" NCoef="0" IVar="4" Cut="9.0000000000000000e+00" cType="1" res="2.8602259233593941e-02" rms="0.0000000000000000e+00" purity="8.7727010250091553e-01" nType="0">
          <Node pos="l" depth="2" NCoef="0" IVar="-1" Cut="0.0000000000000000e+00" cType="1" res="1.3798657804727554e-02" rms="1.6879807412624359e-01" purity="8.9867311716079712e-01" nType="-99"/>
          <Node pos="r" depth="2" NCoef="0" IVar="-1" Cut="0.0000000000000000e+00" cType="1" res="-2.5396976619958878e-02" rms="2.5298351049423218e-01" purity="4.6303501725196838e-01" nType="-99"/>
        </Node>
        <Node pos="r" depth="1" NCoef="0" IVar="3" Cut="2.0000000000000000e+00" cType="1" res="4.9197305925190449e-03" rms="0.0000000000000000e+00" purity="3.1071982812136412e-03" nType="0">
          <Node pos="l" depth="2" NCoef="0" IVar="-1" Cut="0.0000000000000000e+00" cType="1" res="-3.1875066459178925e-02" rms="2.0784586668014526e-01" purity="4.8582997173070908e-02" nType="-99"/>
          <Node pos="r" depth="2" NCoef="0" IVar="-1" Cut="0.0000000000000000e+00" cType="1" res="-5.0325829535722733e-02" rms="2.8612655587494373e-03" purity="0.0000000000000000e+00" nType="-99"/>
        </Node>
      </Node>
    </BinaryTree>
    <BinaryTree type="DecisionTree" boostWeight="1.0000000000000000e+00" itree="60">
      <Node pos="s" depth="0" NCoef="0" IVar="2" Cut="-2.0403318405151367e+00" cType="1" res="-8.3962653297930956e-04" rms="1.3687713444232941e-01" purity="4.9142983555793762e-01" nType="0">
        <Node pos="l" depth="1" NCoef="0" IVar="1" Cut="1.6989486217498779e+00" cType="1" res="-8.0048860982060432e-03" rms="1.0975696891546249e-01" purity="9.3922652304172516e-02" nType="0">
          <Node pos="l" depth="2" NCoef="0" IVar="-1" Cut="0.0000000000000000e+00" cType="1" res="-4.5424923300743103e-02" rms="1.9733978807926178e-01" purity="2.9166665673255920e-01" nType="-99"/>
          <Node pos="r" depth="2" NCoef="0" IVar="-1" Cut="0.0000000000000000e+00" cType="1" res="-1.5604031272232533e-02" rms="8.6945019662380219e-02" purity="6.1845216900110245e-02" nType="-99"/>
        </Node>
        <Node pos="r" depth="1" NCoef="0" IVar="4" Cut="1.2000000000000000e+01" cType="1" res="5.5317631922662258e-03" rms="1.2518973648548126e-01" purity="7.3536759614944458e-01" nType="0">
          <Node pos="l" depth="2" NCoef="0" IVar="-1" Cut="0.0000000000000000e+00" cType="1" res="9.4262072816491127e-03" rms="1.5238192677497864e-01" purity="7.8500193357467651e-01" nType="-99"/>
          <Node pos="r" depth="2" NCoef="0" IVar="-1" Cut="0.0000000000000000e+00" cType="1" res="-6.0573864728212357e-02" rms="1.2756000459194183e-01" purity="7.1794874966144562e-02" nType="-99"/>
        </Node>
      </Node>
    </BinaryTree>
    <BinaryTree type="DecisionTree" boostWeight="1.0000000000000000e+00" itree="61">
      <Node pos="s" depth="0" NCoef="0" IVar="4" Cut="4.0000000000000000e+00" cType="1" res="4.7903472185134888e-01" rms="0.0000000000000000e+00" purity="4.9923563003540039e-01" nType="0">
        <Node pos="l" depth="1" NCoef="0" IVar="2" Cut="-1.9480372667312622e+00" cType="1" res="7.0583424530923367e-03" rms="1.4544481039047241e-01" purity="7.6708072423934937e-01" nType="0">
          <Node pos="l" depth="2" NCoef="0" IVar="-1" Cut="0.0000000000000000e+00" cType="1" res="-1.0777524672448635e-02" rms="1.8398395180702209e-01" purity="3.3333334326744080e-01" nType="-99"/>
          <Node pos="r" depth="2" NCoef="0" IVar="-1" Cut="0.0000000000000000e+00" cType="1" res="2.1007677540183067e-02" rms="1.3447490334510803e-01" purity="8.6924439668655396e-01" nType="-99"/>
        </Node>
        <Node pos="r" depth="1" NCoef="0" IVar="1" Cut="1.9731795787811279e+00" cType="1" res="-6.1946650967001915e-03" rms="1.2665723264217377e-01" purity="2.7373290061950684e-01" nType="0">
          <Node pos="l" depth="2" NCoef="0" IVar="-1" Cut="0.0000000000000000e+00" cType="1" res="-3.0507639050483704e-02" rms="1.6751581430435181e-01" purity="5.0591015815734863e-01" nType="-99"/>
          <Node pos="r" depth="2" NCoef="0" IVar="-1" Cut="0.0000000000000000e+00" cType="1" res="-8.1350244581699371e-03" rms="1.0894954949617386e-01" purity="1.9416689872741699e-01" nType="-99"/>
        </Node>
      </Node>
    </BinaryTree>
    <BinaryTree type="DecisionTree" boostWeight="1.0000000000000000e+00" itree="62">
      <Node pos="s" depth="0" NCoef="0" IVar="6" Cut="6.0000000000000000e+00" cType="1" res="1.1216653510928154e-03" rms="0.0000000000000000e+00" purity="5.0946319103240967e-01" nType="0">
        <Node pos="l" depth="1" NCoef="0" IVar="5" Cut="9.0000000000000000e+00" cType="1" res="5.9470846317708492e-03" rms="1.5045437216758728e-01" purity="8.7475681304931641e-01" nType="0">
          <Node pos="l" depth="2" NCoef="0" IVar="-1" Cut="0.0000000000000000e+00" cType="1" res="1.4803135767579079e-02" rms="1.5207476913928986e-01" purity="9.3006992340087891e-01" nType="-99"/>
          <Node pos="r" depth="2" NCoef="0" IVar="-1" Cut="0.0000000000000000e+00" cType="1" res="-3.0224470421671867e-02" rms="1.3271543383598328e-01" purity="2.3904383182525635e-02" nType="-99"/>
        </Node>
        <Node pos="r" depth="1" NCoef="0" IVar="1" Cut="1.4753329753875732e+00" cType="1" res="-6.1260797083377838e-03" rms="1.2997287511825562e-01" purity="2.0434693992137909e-01" nType="0">
          <Node pos="l" depth="2" NCoef="0" IVar="-1" Cut="0.0000000000000000e+00" cType="1" res="-4.3661516159772873e-02" rms="1.9524544477462769e-01" purity="2.7430555224418640e-01" nType="-99"/>
          <Node pos="r" depth="2" NCoef="0" IVar="-1" Cut="0.0000000000000000e+00" cType="1" res="-1.2206455692648888e-02" rms="1.2466111034154892e-01" purity="2.0000000298023224e-01" nType="-99"/>
        </Node>
      </Node>
    </BinaryTree>
    <BinaryTree type="DecisionTree" boostWeight="1.0000000000000000e+00" itree="63">
      <Node pos="s" depth="0" NCoef="0" IVar="3" Cut="2.0000000000000000e+00" cType="1" res="9.9756149575114250e-03" rms="1.3445547223091125e-01" purity="5.0476610660552979e-01" nType="0">
